<?xml version="1.0"?>
<opencv_storage>
<cascade>
  <stageType>BOOST</stageType>
  <featureType>HAAR</featureType>
  <height>20</height>
  <width>20</width>
  <stageParams>
    <boostType>GAB</boostType>
    <minHitRate>9.9900001287460327e-01</minHitRate>
    <maxFalseAlarm>5.0000000745058060e-02</maxFalseAlarm>
    <weightTrimRate>9.4999999999999996e-01</weightTrimRate>
    <maxDepth>2</maxDepth>
    <maxWeakCount>100</maxWeakCount></stageParams>
  <featureParams>
    <maxCatCount>0</maxCatCount>
    <featSize>1</featSize>
    <mode>BASIC</mode></featureParams>
  <stageNum>17</stageNum>
  <stages>
    <!-- stage 0 -->
    <_>
      <maxWeakCount>8</maxWeakCount>
      <stageThreshold>-1.3894823193550110e-01</stageThreshold>
      <weakClassifiers>
        <_>
          <internalNodes>
            1 2 195 9.9489614367485046e-03 0 -1 249
            -7.6095452532172203e-03 -2 -3 518 -2.2047911770641804e-03</internalNodes>
          <leafValues>
            4.0196079015731812e-01 -7.5478929281234741e-01
            -8.0769228935241699e-01 9.1503709554672241e-01</leafValues></_>
        <_>
          <internalNodes>
            1 2 491 5.7690625544637442e-04 0 -1 492
            5.9727346524596214e-04 -2 -3 191 -9.7339928150177002e-02</internalNodes>
          <leafValues>
            7.0687854290008545e-01 -7.4717658758163452e-01
            7.7353185415267944e-01 -9.2634737491607666e-01</leafValues></_>
        <_>
          <internalNodes>
            1 2 318 -5.0517760217189789e-02 0 -1 211
            9.1397240757942200e-03 -2 -3 218 -1.1930900625884533e-02</internalNodes>
          <leafValues>
            8.4586089849472046e-01 -6.7380976676940918e-01
            4.7160550951957703e-01 -7.4875915050506592e-01</leafValues></_>
        <_>
          <internalNodes>
            1 2 213 5.0512934103608131e-03 0 -1 115
            -3.5855364054441452e-02 -2 -3 307 -3.4660345409065485e-03</internalNodes>
          <leafValues>
            8.4537428617477417e-01 -5.2213197946548462e-01
            -9.2783850431442261e-01 7.7510786056518555e-01</leafValues></_>
        <_>
          <internalNodes>
            1 2 384 5.1830660551786423e-02 0 -1 63
            -9.0967621654272079e-03 -2 -3 483 -1.0281379800289869e-03</internalNodes>
          <leafValues>
            4.1925472021102905e-01 -6.4045161008834839e-01
            -9.1999047994613647e-01 7.6775550842285156e-01</leafValues></_>
        <_>
          <internalNodes>
            1 2 495 -9.9597731605172157e-04 0 -1 387
            -5.1295079290866852e-02 -2 -3 390 -1.5950852539390326e-03</internalNodes>
          <leafValues>
            1. -9.5423442125320435e-01 -8.0124264955520630e-01
            3.8707548379898071e-01</leafValues></_>
        <_>
          <internalNodes>
            1 2 230 -1.1677509546279907e-01 0 -1 45
            -1.0028690844774246e-01 -2 -3 49 -2.3997521400451660e-01</internalNodes>
          <leafValues>
            -8.3555459976196289e-01 5.8763152360916138e-01
            9.0413141250610352e-01 -5.8418297767639160e-01</leafValues></_>
        <_>
          <internalNodes>
            1 2 565 -2.2561824152944610e-05 0 -1 632
            1.0057281702756882e-02 -2 -3 264 4.0635594632476568e-04</internalNodes>
          <leafValues>
            5.7456582784652710e-01 -6.7506468296051025e-01
            -8.2693034410476685e-01 1.0315822064876556e-01</leafValues></_></weakClassifiers></_>
    <!-- stage 1 -->
    <_>
      <maxWeakCount>11</maxWeakCount>
      <stageThreshold>-3.0379092693328857e-01</stageThreshold>
      <weakClassifiers>
        <_>
          <internalNodes>
            1 2 257 5.1011575851589441e-04 0 -1 101
            -2.0067008212208748e-02 -2 -3 446 -8.7563425768166780e-04</internalNodes>
          <leafValues>
            4.2105263471603394e-01 -6.3800907135009766e-01
            -8.4313726425170898e-01 8.2775712013244629e-01</leafValues></_>
        <_>
          <internalNodes>
            1 2 597 -1.1165912263095379e-02 0 -1 398
            -6.5686175366863608e-04 -2 -3 650 1.0622239205986261e-03</internalNodes>
          <leafValues>
            -7.3306488990783691e-01 8.6820983886718750e-01
            -6.2239688634872437e-01 4.2173224687576294e-01</leafValues></_>
        <_>
          <internalNodes>
            1 2 194 4.9192281439900398e-03 0 -1 106
            -1.5308726578950882e-02 -2 -3 311 -4.3601851211860776e-04</internalNodes>
          <leafValues>
            1.7700064182281494e-01 -7.1373611688613892e-01
            -7.2773522138595581e-01 7.0492792129516602e-01</leafValues></_>
        <_>
          <internalNodes>
            1 2 517 -5.4285035002976656e-04 0 -1 117
            -5.5989909917116165e-02 -2 -3 494 -3.5185621527489275e-05</internalNodes>
          <leafValues>
            2.2431661188602448e-01 -9.2502361536026001e-01
            4.4170048832893372e-01 -3.9871236681938171e-01</leafValues></_>
        <_>
          <internalNodes>
            1 2 527 -5.5784184951335192e-04 0 -1 139
            1.7511463165283203e-01 -2 -3 527 -3.9435177313862368e-05</internalNodes>
          <leafValues>
            -7.2807604074478149e-01 6.7842113971710205e-01
            6.7359513044357300e-01 -1.6650763154029846e-01</leafValues></_>
        <_>
          <internalNodes>
            1 2 50 3.7733945064246655e-03 0 -1 295
            1.1468402110040188e-02 -2 -3 25 4.3858028948307037e-02</internalNodes>
          <leafValues>
            -2.0540112257003784e-01 5.7792592048645020e-01
            -8.7684822082519531e-01 5.9348672628402710e-01</leafValues></_>
        <_>
          <internalNodes>
            1 2 364 -4.5489594340324402e-03 0 -1 655
            -2.3464299738407135e-03 -2 -3 146 8.0129021080210805e-04</internalNodes>
          <leafValues>
            -7.5177019834518433e-01 6.2872099876403809e-01
            -6.9676548242568970e-01 2.4994193017482758e-01</leafValues></_>
        <_>
          <internalNodes>
            1 2 451 -3.3338239882141352e-04 0 -1 116
            4.0154792368412018e-02 -2 -3 550 1.0569177567958832e-02</internalNodes>
          <leafValues>
            -9.0090680122375488e-01 6.4361268281936646e-01
            -6.3350871205329895e-02 7.3339557647705078e-01</leafValues></_>
        <_>
          <internalNodes>
            1 2 389 5.2969425451010466e-04 0 -1 304
            3.9402395486831665e-03 -2 -3 365 -2.2049613296985626e-02</internalNodes>
          <leafValues>
            4.6495029330253601e-01 -8.0167615413665771e-01
            2.6155966520309448e-01 -6.9980454444885254e-01</leafValues></_>
        <_>
          <internalNodes>
            1 2 246 4.4595003128051758e-03 0 -1 327
            2.0031845197081566e-03 -2 -3 107 -1.8254920840263367e-02</internalNodes>
          <leafValues>
            -7.9699671268463135e-01 2.1119964122772217e-01
            -3.8112106919288635e-01 4.9073225259780884e-01</leafValues></_>
        <_>
          <internalNodes>
            1 2 284 1.7364716622978449e-03 0 -1 89
            2.0155161619186401e-02 -2 -3 183 4.8903655260801315e-04</internalNodes>
          <leafValues>
            -4.9874442815780640e-01 7.8734946250915527e-01
            7.1216058731079102e-01 -4.7801265120506287e-01</leafValues></_></weakClassifiers></_>
    <!-- stage 2 -->
    <_>
      <maxWeakCount>14</maxWeakCount>
      <stageThreshold>-4.0890437364578247e-01</stageThreshold>
      <weakClassifiers>
        <_>
          <internalNodes>
            1 2 254 1.4619817957282066e-03 0 -1 317
            7.5725518399849534e-04 -2 -3 398 -7.3243060614913702e-04</internalNodes>
          <leafValues>
            -5.9307360649108887e-01 4.9579831957817078e-01
            -6.1904764175415039e-01 8.6569344997406006e-01</leafValues></_>
        <_>
          <internalNodes>
            1 2 296 -6.3118450343608856e-02 0 -1 447
            8.8636483997106552e-04 -2 -3 350 -3.4837298095226288e-02</internalNodes>
          <leafValues>
            7.7079796791076660e-01 -7.5044184923171997e-01
            6.9134342670440674e-01 -3.7985506653785706e-01</leafValues></_>
        <_>
          <internalNodes>
            1 2 489 4.6018528519198298e-04 0 -1 212
            -1.1664633639156818e-03 -2 -3 103 2.0697677135467529e-01</internalNodes>
          <leafValues>
            5.4197144508361816e-01 -1.3906273245811462e-01
            -8.6417227983474731e-01 7.0834398269653320e-01</leafValues></_>
        <_>
          <internalNodes>
            1 2 161 6.4571294933557510e-03 0 -1 84
            -2.0378746092319489e-02 -2 -3 42 2.6838943362236023e-01</internalNodes>
          <leafValues>
            1.1997028440237045e-01 -5.9109979867935181e-01
            7.2159552574157715e-01 -8.1583422422409058e-01</leafValues></_>
        <_>
          <internalNodes>
            1 2 21 -1.7178535927087069e-03 0 -1 485
            -1.2601579725742340e-01 -2 -3 16 -1.3388516381382942e-03</internalNodes>
          <leafValues>
            7.4788051843643188e-01 -6.4597928524017334e-01
            -4.2255461215972900e-01 4.0040498971939087e-01</leafValues></_>
        <_>
          <internalNodes>
            1 2 447 -4.4798653107136488e-04 0 -1 158
            9.6955373883247375e-03 -2 -3 480 -5.9982361563015729e-05</internalNodes>
          <leafValues>
            -8.7189745903015137e-01 -3.9086960256099701e-02
            4.9449139833450317e-01 -3.5542187094688416e-01</leafValues></_>
        <_>
          <internalNodes>
            1 2 666 8.4997896919958293e-05 0 -1 461
            4.5161129673942924e-04 -2 -3 452 2.6098240050487220e-04</internalNodes>
          <leafValues>
            -5.5936509370803833e-01 2.3447662591934204e-01
            5.2040600776672363e-01 -3.1587359309196472e-01</leafValues></_>
        <_>
          <internalNodes>
            1 2 561 4.4305240735411644e-03 0 -1 581
            -1.5075794653967023e-03 -2 -3 520 1.7210562946274877e-03</internalNodes>
          <leafValues>
            1.2809544801712036e-01 -7.2736477851867676e-01
            5.0430923700332642e-01 -5.3037530183792114e-01</leafValues></_>
        <_>
          <internalNodes>
            1 2 56 -6.2514492310583591e-03 0 -1 624
            -3.3793800976127386e-03 -2 -3 294 1.1834434233605862e-02</internalNodes>
          <leafValues>
            -6.7900949716567993e-01 6.2014549970626831e-01
            -4.5770969986915588e-01 3.2141426205635071e-01</leafValues></_>
        <_>
          <internalNodes>
            1 2 516 2.6999188587069511e-02 0 -1 643
            6.3355226302519441e-04 -2 -3 582 4.9695640336722136e-04</internalNodes>
          <leafValues>
            -4.3501666188240051e-01 3.1030791997909546e-01
            7.3794615268707275e-01 -9.2588120698928833e-01</leafValues></_>
        <_>
          <internalNodes>
            1 2 82 1.2182263657450676e-02 0 -1 330
            -4.6213325113058090e-03 -2 -3 196 -2.8334941715002060e-02</internalNodes>
          <leafValues>
            5.9107327461242676e-01 -9.0666972100734711e-02
            3.0700218677520752e-01 -8.3028519153594971e-01</leafValues></_>
        <_>
          <internalNodes>
            1 2 144 1.3057244941592216e-02 0 -1 250
            4.3776324018836021e-03 -2 -3 187 1.9140925258398056e-02</internalNodes>
          <leafValues>
            -7.1427148580551147e-01 3.8026042282581329e-02
            9.0424221754074097e-01 -7.8114652633666992e-01</leafValues></_>
        <_>
          <internalNodes>
            1 2 562 1.5229893615469337e-03 0 -1 532
            -4.2006526200566441e-05 -2 -3 159 -5.0432786345481873e-02</internalNodes>
          <leafValues>
            4.0602287650108337e-01 -2.7174013853073120e-01
            8.7909948825836182e-01 -8.6389899253845215e-01</leafValues></_>
        <_>
          <internalNodes>
            1 2 605 -6.2390288803726435e-04 0 -1 235
            1.0027732700109482e-02 -2 -3 41 1.1315327137708664e-02</internalNodes>
          <leafValues>
            -7.2244268655776978e-01 3.2603809237480164e-01
            -8.8943414390087128e-02 6.5757519006729126e-01</leafValues></_></weakClassifiers></_>
    <!-- stage 3 -->
    <_>
      <maxWeakCount>12</maxWeakCount>
      <stageThreshold>-2.0851793885231018e-01</stageThreshold>
      <weakClassifiers>
        <_>
          <internalNodes>
            1 2 490 -1.4312488492578268e-03 0 -1 147
            -2.1761620044708252e-01 -2 -3 488 6.5167073626071215e-04</internalNodes>
          <leafValues>
            1. -9.1919189691543579e-01 7.5844305753707886e-01
            -2.7891156077384949e-01</leafValues></_>
        <_>
          <internalNodes>
            1 2 268 -1.1602322570979595e-02 0 -1 203
            7.9618161544203758e-03 -2 -3 286 1.7751364037394524e-02</internalNodes>
          <leafValues>
            -3.0400753021240234e-01 8.6429852247238159e-01
            -5.8699780702590942e-01 2.5043016672134399e-01</leafValues></_>
        <_>
          <internalNodes>
            1 2 401 -7.5889163417741656e-04 0 -1 316
            -5.5234327912330627e-02 -2 -3 206 -3.0429477337747812e-03</internalNodes>
          <leafValues>
            8.1022441387176514e-01 -8.9097923040390015e-01
            4.1953694820404053e-01 -2.8368455171585083e-01</leafValues></_>
        <_>
          <internalNodes>
            1 2 528 -1.2312401668168604e-04 0 -1 491
            -5.8077636640518904e-04 -2 -3 30 -3.0298855155706406e-02</internalNodes>
          <leafValues>
            -4.4937527179718018e-01 4.9186256527900696e-01
            4.6719959378242493e-01 -6.7161756753921509e-01</leafValues></_>
        <_>
          <internalNodes>
            1 2 208 2.4093943648040295e-03 0 -1 317
            4.1122096590697765e-03 -2 -3 253 -5.3334239870309830e-02</internalNodes>
          <leafValues>
            -6.9910836219787598e-01 5.9188585728406906e-02
            6.8933492898941040e-01 -1.7062374949455261e-01</leafValues></_>
        <_>
          <internalNodes>
            1 2 617 1.7722486518323421e-03 0 -1 457
            5.4203700274229050e-03 -2 -3 126 3.7487032823264599e-03</internalNodes>
          <leafValues>
            -5.6040799617767334e-01 3.1524324417114258e-01
            6.2786966562271118e-01 -4.9673300981521606e-01</leafValues></_>
        <_>
          <internalNodes>
            1 2 497 -4.0658385842107236e-05 0 -1 412
            3.0255393357947469e-04 -2 -3 351 -7.7475868165493011e-03</internalNodes>
          <leafValues>
            4.2773732542991638e-01 -5.6323301792144775e-01
            8.0864012241363525e-01 -5.6935733556747437e-01</leafValues></_>
        <_>
          <internalNodes>
            1 2 22 -1.0407111840322614e-03 0 -1 141
            1.1234852485358715e-02 -2 -3 43 3.8938645739108324e-03</internalNodes>
          <leafValues>
            -4.8664194345474243e-01 3.9557862281799316e-01
            5.7552945613861084e-01 -3.2503160834312439e-01</leafValues></_>
        <_>
          <internalNodes>
            1 2 131 -1.6114648431539536e-02 0 -1 444
            3.5447734990157187e-04 -2 -3 182 7.1101738139986992e-03</internalNodes>
          <leafValues>
            6.5468615293502808e-01 -5.1467508077621460e-01
            -7.6349890232086182e-01 9.8918810486793518e-02</leafValues></_>
        <_>
          <internalNodes>
            1 2 381 5.6966476142406464e-02 0 -1 64
            -1.1379127204418182e-01 -2 -3 138 1.8157745897769928e-01</internalNodes>
          <leafValues>
            8.0445653200149536e-01 -3.3776316046714783e-01
            6.7358398437500000e-01 -8.1629437208175659e-01</leafValues></_>
        <_>
          <internalNodes>
            1 2 357 1.8947216449305415e-04 0 -1 347
            -1.1921719851670787e-04 -2 -3 376 -5.0631631165742874e-02</internalNodes>
          <leafValues>
            5.9363573789596558e-01 -5.9762090444564819e-02
            3.7135860323905945e-01 -7.9337882995605469e-01</leafValues></_>
        <_>
          <internalNodes>
            1 2 271 -1.9354846153873950e-04 0 -1 386
            -2.3399163037538528e-03 -2 -3 219 -1.4624103903770447e-02</internalNodes>
          <leafValues>
            -6.3276869058609009e-01 4.5835116505622864e-01
            2.5699082016944885e-01 -5.3380185365676880e-01</leafValues></_></weakClassifiers></_>
    <!-- stage 4 -->
    <_>
      <maxWeakCount>16</maxWeakCount>
      <stageThreshold>-1.6357339918613434e-01</stageThreshold>
      <weakClassifiers>
        <_>
          <internalNodes>
            1 2 524 4.1161850094795227e-04 0 -1 309
            -3.3072556834667921e-04 -2 -3 14 -6.9727106019854546e-03</internalNodes>
          <leafValues>
            -4.6666666865348816e-01 7.0930868387222290e-01 1.
            -9.1428571939468384e-01</leafValues></_>
        <_>
          <internalNodes>
            1 2 217 -2.1640503779053688e-02 0 -1 592
            -7.0740953087806702e-03 -2 -3 563 -9.5018144929781556e-04</internalNodes>
          <leafValues>
            8.7054479122161865e-01 1.2176710367202759e-01
            3.3290815353393555e-01 -5.0309395790100098e-01</leafValues></_>
        <_>
          <internalNodes>
            1 2 199 7.6131004607304931e-04 0 -1 433
            3.0048664659261703e-02 -2 -3 459 -8.7366199295502156e-05</internalNodes>
          <leafValues>
            -4.0305766463279724e-01 4.5218962430953979e-01
            6.8031400442123413e-01 -9.1930598020553589e-02</leafValues></_>
        <_>
          <internalNodes>
            1 2 612 5.7389363064430654e-05 0 -1 345
            1.7061606049537659e-02 -2 -3 556 -3.3499253913760185e-03</internalNodes>
          <leafValues>
            -5.1363825798034668e-01 4.9158200621604919e-01
            7.1262496709823608e-01 1.2692022137343884e-02</leafValues></_>
        <_>
          <internalNodes>
            1 2 474 -1.1089660983998328e-04 0 -1 379
            3.9617726579308510e-03 -2 -3 536 5.5003410670906305e-04</internalNodes>
          <leafValues>
            -8.3812493085861206e-01 2.6810857653617859e-01
            -4.7075349837541580e-02 6.3616639375686646e-01</leafValues></_>
        <_>
          <internalNodes>
            1 2 400 3.8565805880352855e-04 0 -1 308
            2.6353757129982114e-04 -2 -3 568 -8.8913114741444588e-03</internalNodes>
          <leafValues>
            -5.2465587854385376e-01 4.1346970200538635e-01
            1.1627874523401260e-01 -7.1044987440109253e-01</leafValues></_>
        <_>
          <internalNodes>
            1 2 39 4.6538123860955238e-03 0 -1 135
            1.4031571336090565e-03 -2 -3 137 -2.6545982807874680e-02</internalNodes>
          <leafValues>
            3.3941340446472168e-01 -2.7770283818244934e-01
            7.1366190910339355e-01 -8.1938499212265015e-01</leafValues></_>
        <_>
          <internalNodes>
            1 2 527 1.2405705638229847e-04 0 -1 494
            -7.9873087815940380e-04 -2 -3 314 -3.3330062869936228e-03</internalNodes>
          <leafValues>
            -2.6387730240821838e-01 3.9549487829208374e-01
            4.5509290695190430e-01 -8.4084230661392212e-01</leafValues></_>
        <_>
          <internalNodes>
            1 2 421 -6.0778198530897498e-05 0 -1 486
            1.4975410886108875e-04 -2 -3 188 4.5514330267906189e-03</internalNodes>
          <leafValues>
            4.8510473966598511e-01 -6.7044818401336670e-01
            -4.5286124944686890e-01 4.6739354729652405e-01</leafValues></_>
        <_>
          <internalNodes>
            1 2 99 -1.1059984099119902e-03 0 -1 281
            1.9663884304463863e-03 -2 -3 471 1.1016891803592443e-03</internalNodes>
          <leafValues>
            5.6965148448944092e-01 -2.5271016359329224e-01
            -4.4410961866378784e-01 3.2686179876327515e-01</leafValues></_>
        <_>
          <internalNodes>
            1 2 565 -7.7163553214631975e-05 0 -1 257
            3.3764098770916462e-03 -2 -3 251 -5.8105532079935074e-03</internalNodes>
          <leafValues>
            -3.7342053651809692e-01 3.9597371220588684e-01
            4.5631194114685059e-01 -6.0597503185272217e-01</leafValues></_>
        <_>
          <internalNodes>
            1 2 227 3.2983575947582722e-03 0 -1 150
            3.7713743746280670e-02 -2 -3 170 -8.1382337957620621e-03</internalNodes>
          <leafValues>
            -2.4145759642124176e-02 7.1493130922317505e-01
            6.0926604270935059e-01 -6.9590973854064941e-01</leafValues></_>
        <_>
          <internalNodes>
            1 2 220 5.0099927466362715e-04 0 -1 96
            -1.6129720956087112e-02 -2 -3 626 2.5566793046891689e-03</internalNodes>
          <leafValues>
            6.4442074298858643e-01 -2.9344278573989868e-01
            7.4100273847579956e-01 -5.2538579702377319e-01</leafValues></_>
        <_>
          <internalNodes>
            1 2 193 1.5557035803794861e-02 0 -1 342
            -1.6042698174715042e-02 -2 -3 91 7.4807688593864441e-02</internalNodes>
          <leafValues>
            2.7865785360336304e-01 -5.8907216787338257e-01
            -1.2531438469886780e-01 6.5525913238525391e-01</leafValues></_>
        <_>
          <internalNodes>
            1 2 543 -9.2463754117488861e-04 0 -1 604
            -3.4935027360916138e-02 -2 -3 509 -1.4996286481618881e-03</internalNodes>
          <leafValues>
            7.5518488883972168e-01 -4.9213665723800659e-01
            -3.4913820028305054e-01 4.4980642199516296e-01</leafValues></_>
        <_>
          <internalNodes>
            1 2 111 -3.6633196286857128e-03 0 -1 113
            -4.6067247167229652e-03 -2 -3 71 9.4288975000381470e-02</internalNodes>
          <leafValues>
            5.8805477619171143e-01 -7.4691361188888550e-01
            3.1008464097976685e-01 -4.4936943054199219e-01</leafValues></_></weakClassifiers></_>
    <!-- stage 5 -->
    <_>
      <maxWeakCount>17</maxWeakCount>
      <stageThreshold>-2.9344797134399414e-01</stageThreshold>
      <weakClassifiers>
        <_>
          <internalNodes>
            1 2 358 -9.6239731647074223e-04 0 -1 297
            2.3184422403573990e-02 -2 -3 312 -2.6546570006757975e-03</internalNodes>
          <leafValues>
            -6.3492065668106079e-01 7.6923078298568726e-01
            -4.6067416667938232e-01 7.3962479829788208e-01</leafValues></_>
        <_>
          <internalNodes>
            1 2 239 6.9251232780516148e-03 0 -1 377
            9.7407912835478783e-04 -2 -3 259 2.7086521731689572e-04</internalNodes>
          <leafValues>
            -4.8308598995208740e-01 4.4045928120613098e-01
            6.7360478639602661e-01 -6.5344429016113281e-01</leafValues></_>
        <_>
          <internalNodes>
            1 2 610 -1.1011733440682292e-03 0 -1 496
            1.0865954682230949e-03 -2 -3 616 2.9721774626523256e-04</internalNodes>
          <leafValues>
            7.4823713302612305e-01 -3.5632684826850891e-01
            -5.3717803955078125e-01 2.1136273443698883e-01</leafValues></_>
        <_>
          <internalNodes>
            1 2 445 -5.7299633044749498e-04 0 -1 349
            -1.5683802962303162e-01 -2 -3 262 1.7684656195342541e-03</internalNodes>
          <leafValues>
            1. -8.8067436218261719e-01 -1.5840883553028107e-01
            4.6255171298980713e-01</leafValues></_>
        <_>
          <internalNodes>
            1 2 222 -1.3668320607393980e-03 0 -1 8
            -1.3576071709394455e-02 -2 -3 95 -1.0855318978428841e-03</internalNodes>
          <leafValues>
            -5.5704188346862793e-01 7.4183702468872070e-01
            1.6580410301685333e-01 -5.2485316991806030e-01</leafValues></_>
        <_>
          <internalNodes>
            1 2 430 1.8620628863573074e-02 0 -1 320
            8.9207570999860764e-04 -2 -3 81 6.5286131575703621e-03</internalNodes>
          <leafValues>
            -3.8295200467109680e-01 5.0881743431091309e-01
            6.2398964166641235e-01 -4.9534356594085693e-01</leafValues></_>
        <_>
          <internalNodes>
            1 2 339 -3.6787037970498204e-04 0 -1 558
            -1.3455945299938321e-03 -2 -3 644 -1.2455030810087919e-03</internalNodes>
          <leafValues>
            -6.1289632320404053e-01 5.2923071384429932e-01
            2.3651279509067535e-01 -4.9920311570167542e-01</leafValues></_>
        <_>
          <internalNodes>
            1 2 216 -1.3071186840534210e-03 0 -1 162
            -5.5082105100154877e-02 -2 -3 343 5.3060175850987434e-03</internalNodes>
          <leafValues>
            -7.2284013032913208e-01 3.3097419142723083e-01
            -7.5147855281829834e-01 1.0220345854759216e-01</leafValues></_>
        <_>
          <internalNodes>
            1 2 503 -2.4480707943439484e-03 0 -1 451
            -5.5188953410834074e-04 -2 -3 329 1.3559635262936354e-03</internalNodes>
          <leafValues>
            -8.6287081241607666e-01 3.7882223725318909e-01
            -4.7529155015945435e-01 3.6111927032470703e-01</leafValues></_>
        <_>
          <internalNodes>
            1 2 293 2.3852852173149586e-03 0 -1 414
            4.3506771326065063e-03 -2 -3 385 -8.6253862828016281e-03</internalNodes>
          <leafValues>
            -3.9420998096466064e-01 3.1231853365898132e-01
            -8.5427731275558472e-01 5.1053005456924438e-01</leafValues></_>
        <_>
          <internalNodes>
            1 2 411 -3.7022233009338379e-03 0 -1 134
            1.2673854362219572e-03 -2 -3 406 1.5511210076510906e-02</internalNodes>
          <leafValues>
            3.6332631111145020e-01 -3.2094150781631470e-01
            -7.1821546554565430e-01 5.0840675830841064e-01</leafValues></_>
        <_>
          <internalNodes>
            1 2 108 1.5073394402861595e-02 0 -1 6
            -6.5347887575626373e-03 -2 -3 619 2.9899061191827059e-03</internalNodes>
          <leafValues>
            1.6900348663330078e-01 -4.5504137873649597e-01
            8.2438355684280396e-01 -7.7851247787475586e-01</leafValues></_>
        <_>
          <internalNodes>
            1 2 404 1.0104577988386154e-02 0 -1 402
            5.9904959925916046e-05 -2 -3 58 7.3008142411708832e-02</internalNodes>
          <leafValues>
            -3.2510128617286682e-01 3.5362470149993896e-01
            -7.9125583171844482e-01 1.</leafValues></_>
        <_>
          <internalNodes>
            1 2 152 -7.6721492223441601e-04 0 -1 92
            -4.7232210636138916e-03 -2 -3 90 4.4500110670924187e-03</internalNodes>
          <leafValues>
            -3.2301598787307739e-01 5.8275228738784790e-01
            -6.7797201871871948e-01 7.1823298931121826e-02</leafValues></_>
        <_>
          <internalNodes>
            1 2 353 -2.1228328347206116e-02 0 -1 541
            5.2604391385102645e-05 -2 -3 506 1.0019829496741295e-02</internalNodes>
          <leafValues>
            -1.1994530260562897e-01 5.5941671133041382e-01
            -5.7890921831130981e-01 6.2982356548309326e-01</leafValues></_>
        <_>
          <internalNodes>
            1 2 180 8.3977775648236275e-04 0 -1 601
            -9.3652342911809683e-04 -2 -3 33 6.4576216973364353e-03</internalNodes>
          <leafValues>
            3.9464154839515686e-01 -3.8226652145385742e-01
            4.5282632112503052e-01 -8.4105962514877319e-01</leafValues></_>
        <_>
          <internalNodes>
            1 2 583 -4.1260020807385445e-03 0 -1 231
            7.6892904937267303e-02 -2 -3 574 4.3907701037824154e-03</internalNodes>
          <leafValues>
            -9.8392611742019653e-01 8.7719261646270752e-01
            1.7510704696178436e-01 -7.4542009830474854e-01</leafValues></_></weakClassifiers></_>
    <!-- stage 6 -->
    <_>
      <maxWeakCount>14</maxWeakCount>
      <stageThreshold>-2.0419965684413910e-01</stageThreshold>
      <weakClassifiers>
        <_>
          <internalNodes>
            1 2 395 2.9005954274907708e-04 0 -1 437
            -1.1574086965993047e-03 -2 -3 374 -1.2010778300464153e-03</internalNodes>
          <leafValues>
            -6.2500000000000000e-01 7.6692169904708862e-01
            -8.8333332538604736e-01 2.4812030792236328e-01</leafValues></_>
        <_>
          <internalNodes>
            1 2 248 2.2154608741402626e-03 0 -1 290
            1.0853836312890053e-02 -2 -3 53 -1.2566684186458588e-01</internalNodes>
          <leafValues>
            -5.9659141302108765e-01 3.2196065783500671e-01
            8.7162542343139648e-01 1.1494415998458862e-01</leafValues></_>
        <_>
          <internalNodes>
            1 2 564 -5.8841693680733442e-04 0 -1 305
            2.1060621365904808e-03 -2 -3 664 3.2217996194958687e-03</internalNodes>
          <leafValues>
            7.4178718030452728e-02 -7.9013097286224365e-01
            5.7690775394439697e-01 -2.5833699107170105e-01</leafValues></_>
        <_>
          <internalNodes>
            1 2 456 -5.1724971854127944e-05 0 -1 368
            -5.7846365962177515e-05 -2 -3 432 -7.3912456631660461e-02</internalNodes>
          <leafValues>
            -3.7796664237976074e-01 6.1773872375488281e-01
            9.6276175975799561e-01 -4.0099608898162842e-01</leafValues></_>
        <_>
          <internalNodes>
            1 2 642 9.8207005066797137e-05 0 -1 591
            -3.4435251727700233e-03 -2 -3 451 2.4710816796869040e-04</internalNodes>
          <leafValues>
            1.3459713757038116e-01 -6.0184562206268311e-01
            5.9867310523986816e-01 -5.6570631265640259e-01</leafValues></_>
        <_>
          <internalNodes>
            1 2 245 -2.5935620069503784e-02 0 -1 439
            1.7457067733630538e-03 -2 -3 85 8.6970224976539612e-02</internalNodes>
          <leafValues>
            7.8506302833557129e-01 -5.7870554924011230e-01
            -2.6558756828308105e-01 8.1078273057937622e-01</leafValues></_>
        <_>
          <internalNodes>
            1 2 276 -5.2893087267875671e-03 0 -1 224
            -1.0050284862518311e-01 -2 -3 128 -3.0247930437326431e-02</internalNodes>
          <leafValues>
            1. -4.8469501733779907e-01 -6.4255893230438232e-01
            4.1300413012504578e-01</leafValues></_>
        <_>
          <internalNodes>
            1 2 83 -1.8121179891750216e-05 0 -1 482
            -1.4519295655190945e-03 -2 -3 261 2.9338587773963809e-04</internalNodes>
          <leafValues>
            -8.7339508533477783e-01 4.4476822018623352e-01
            -6.2482362985610962e-01 1.6229347884654999e-01</leafValues></_>
        <_>
          <internalNodes>
            1 2 155 -3.0435532331466675e-02 0 -1 484
            -5.3870111703872681e-02 -2 -3 319 2.4656499736011028e-03</internalNodes>
          <leafValues>
            -8.4020084142684937e-01 8.5069185495376587e-01
            -3.7961375713348389e-01 2.9265815019607544e-01</leafValues></_>
        <_>
          <internalNodes>
            1 2 519 -1.6473653959110379e-03 0 -1 426
            1.6440411563962698e-03 -2 -3 18 2.4820053577423096e-01</internalNodes>
          <leafValues>
            6.1627882719039917e-01 -9.1538918018341064e-01
            2.2547003626823425e-01 -8.9315330982208252e-01</leafValues></_>
        <_>
          <internalNodes>
            1 2 272 4.7241803258657455e-04 0 -1 275
            2.7223245706409216e-04 -2 -3 79 -9.6963085234165192e-03</internalNodes>
          <leafValues>
            -4.3920478224754333e-01 1.8925395607948303e-01
            -8.2780361175537109e-01 6.5700328350067139e-01</leafValues></_>
        <_>
          <internalNodes>
            1 2 75 -9.3794045969843864e-03 0 -1 123
            -1.2080910056829453e-01 -2 -3 140 -3.8434043526649475e-02</internalNodes>
          <leafValues>
            5.2048653364181519e-01 -7.1378785371780396e-01
            -4.2911854386329651e-01 3.7434250116348267e-01</leafValues></_>
        <_>
          <internalNodes>
            1 2 391 4.1553680785000324e-04 0 -1 360
            3.8813464925624430e-05 -2 -3 493 -8.1107753794640303e-04</internalNodes>
          <leafValues>
            -3.6894097924232483e-01 4.1372048854827881e-01
            -8.3195751905441284e-01 4.2278412729501724e-02</leafValues></_>
        <_>
          <internalNodes>
            1 2 129 3.4483314957469702e-03 0 -1 669
            4.6103697968646884e-04 -2 -3 132 6.1138227581977844e-02</internalNodes>
          <leafValues>
            -1.6810765862464905e-01 4.4894456863403320e-01
            -7.9956310987472534e-01 9.2788940668106079e-01</leafValues></_></weakClassifiers></_>
    <!-- stage 7 -->
    <_>
      <maxWeakCount>15</maxWeakCount>
      <stageThreshold>-2.2480389475822449e-01</stageThreshold>
      <weakClassifiers>
        <_>
          <internalNodes>
            1 2 369 -7.4304814916104078e-05 0 -1 289
            5.7587295770645142e-02 -2 -3 447 -1.3221299741417170e-03</internalNodes>
          <leafValues>
            -6.4102566242218018e-01 4.0983605384826660e-01
            -3.0000001192092896e-01 7.5558167695999146e-01</leafValues></_>
        <_>
          <internalNodes>
            1 2 608 -3.9965109899640083e-03 0 -1 127
            -1.2874358333647251e-02 -2 -3 671 2.6550475740805268e-04</internalNodes>
          <leafValues>
            -3.7860777974128723e-01 7.0157897472381592e-01
            -4.5233213901519775e-01 2.9996839165687561e-01</leafValues></_>
        <_>
          <internalNodes>
            1 2 321 5.8267184067517519e-04 0 -1 326
            -3.9999485015869141e-03 -2 -3 440 -3.2217283733189106e-03</internalNodes>
          <leafValues>
            4.7542801499366760e-01 -5.3118073940277100e-01
            -6.8120640516281128e-01 5.4888927936553955e-01</leafValues></_>
        <_>
          <internalNodes>
            1 2 244 1.9738022820092738e-04 0 -1 548
            -1.0981624945998192e-03 -2 -3 17 3.0695036984980106e-03</internalNodes>
          <leafValues>
            2.1521668136119843e-01 -7.3206222057342529e-01
            4.1580793261528015e-01 -3.3922746777534485e-01</leafValues></_>
        <_>
          <internalNodes>
            1 2 512 1.3198825530707836e-02 0 -1 382
            -5.0851353444159031e-04 -2 -3 366 -2.6513002812862396e-03</internalNodes>
          <leafValues>
            1.3717821240425110e-01 -5.2340930700302124e-01
            -8.2723903656005859e-01 5.9758794307708740e-01</leafValues></_>
        <_>
          <internalNodes>
            1 2 163 4.0069344686344266e-04 0 -1 378
            1.8891105428338051e-03 -2 -3 659 9.0342890471220016e-03</internalNodes>
          <leafValues>
            -3.8957849144935608e-01 3.3743977546691895e-01
            5.7308232784271240e-01 -7.7193176746368408e-01</leafValues></_>
        <_>
          <internalNodes>
            1 2 633 4.7969617298804224e-04 0 -1 665
            8.5210351971909404e-04 -2 -3 570 -2.3706441279500723e-03</internalNodes>
          <leafValues>
            -5.1186084747314453e-01 1.6040375828742981e-01
            -2.3694846034049988e-01 5.3658044338226318e-01</leafValues></_>
        <_>
          <internalNodes>
            1 2 62 -2.8508395189419389e-04 0 -1 580
            6.8456510780379176e-04 -2 -3 185 2.3517055436968803e-02</internalNodes>
          <leafValues>
            4.9808222055435181e-01 -2.0325037837028503e-01
            -5.2191966772079468e-01 5.8435213565826416e-01</leafValues></_>
        <_>
          <internalNodes>
            1 2 46 2.9286311939358711e-02 0 -1 69 1.1307589709758759e-02
            -2 -3 23 1.7064351588487625e-02</internalNodes>
          <leafValues>
            -4.1390880942344666e-01 5.2938115596771240e-01
            6.0188424587249756e-01 -3.1039196252822876e-01</leafValues></_>
        <_>
          <internalNodes>
            1 2 87 1.2744189007207751e-03 0 -1 423
            -2.0882193930447102e-03 -2 -3 27 1.0210907459259033e-01</internalNodes>
          <leafValues>
            6.1543172597885132e-01 -5.1318764686584473e-02
            -8.6013346910476685e-01 1.</leafValues></_>
        <_>
          <internalNodes>
            1 2 472 1.7872247844934464e-02 0 -1 510
            2.7024501468986273e-04 -2 -3 434 4.0631918818689883e-04</internalNodes>
          <leafValues>
            -5.3344506025314331e-01 1.5981352329254150e-01
            8.0191898345947266e-01 7.1462830528616905e-03</leafValues></_>
        <_>
          <internalNodes>
            1 2 410 5.5362594139296561e-05 0 -1 447
            -4.5186898205429316e-05 -2 -3 532 -3.3433115459047258e-04</internalNodes>
          <leafValues>
            4.1507009416818619e-02 -8.6967849731445312e-01
            -1.7057287693023682e-01 5.6017053127288818e-01</leafValues></_>
        <_>
          <internalNodes>
            1 2 367 -1.2108498485758901e-03 0 -1 48
            2.0247111096978188e-02 -2 -3 274 7.2870135772973299e-04</internalNodes>
          <leafValues>
            -9.2822396755218506e-01 5.9692895412445068e-01
            -6.4376063644886017e-02 6.4654570817947388e-01</leafValues></_>
        <_>
          <internalNodes>
            1 2 70 -1.6717844409868121e-03 0 -1 47
            1.5632315771654248e-03 -2 -3 120 7.1556074544787407e-04</internalNodes>
          <leafValues>
            5.7543212175369263e-01 -4.8903670907020569e-01
            -3.9665398001670837e-01 4.6693533658981323e-01</leafValues></_>
        <_>
          <internalNodes>
            1 2 189 -1.6441935300827026e-01 0 -1 352
            -2.6904903352260590e-02 -2 -3 372 2.4994963780045509e-02</internalNodes>
          <leafValues>
            -7.5088098645210266e-02 6.6664659976959229e-01
            -4.9350771307945251e-01 7.5318402051925659e-01</leafValues></_></weakClassifiers></_>
    <!-- stage 8 -->
    <_>
      <maxWeakCount>14</maxWeakCount>
      <stageThreshold>-8.4915749728679657e-02</stageThreshold>
      <weakClassifiers>
        <_>
          <internalNodes>
            1 2 521 -5.9281719586579129e-05 0 -1 479
            -8.1861892249435186e-04 -2 -3 359 3.2867406844161451e-04</internalNodes>
          <leafValues>
            6.8965516984462738e-02 8.3125865459442139e-01
            4.3661972880363464e-01 -4.4444444775581360e-01</leafValues></_>
        <_>
          <internalNodes>
            1 2 122 1.2916533742100000e-03 0 -1 68
            4.9796407110989094e-03 -2 -3 207 -2.7198240160942078e-02</internalNodes>
          <leafValues>
            -3.8298827409744263e-01 4.4649040699005127e-01
            8.7292551994323730e-01 -1.6372776031494141e-01</leafValues></_>
        <_>
          <internalNodes>
            1 2 410 -3.2608758192509413e-04 0 -1 523
            -5.7602557353675365e-04 -2 -3 646 -7.1391707751899958e-04</internalNodes>
          <leafValues>
            5.2235112525522709e-03 -9.0892177820205688e-01
            6.7888933420181274e-01 -5.5225372314453125e-02</leafValues></_>
        <_>
          <internalNodes>
            1 2 38 -3.4433673135936260e-03 0 -1 545
            2.3619239800609648e-04 -2 -3 32 1.3014633441343904e-03</internalNodes>
          <leafValues>
            -7.0161980390548706e-01 3.4570634365081787e-01
            4.7768408060073853e-01 -3.9441129565238953e-01</leafValues></_>
        <_>
          <internalNodes>
            1 2 397 2.4723168462514877e-04 0 -1 542
            2.9258856084197760e-03 -2 -3 602 -8.9034978300333023e-03</internalNodes>
          <leafValues>
            -2.5521596893668175e-02 7.1734398603439331e-01
            3.0361580848693848e-01 -6.0186177492141724e-01</leafValues></_>
        <_>
          <internalNodes>
            1 2 465 -3.1938042957335711e-03 0 -1 407
            -1.2378577957861125e-04 -2 -3 202 8.2802977412939072e-03</internalNodes>
          <leafValues>
            -6.5877437591552734e-01 7.6691013574600220e-01
            -3.9296191930770874e-01 3.3190128207206726e-01</leafValues></_>
        <_>
          <internalNodes>
            1 2 507 -2.5254024658352137e-03 0 -1 478
            -1.0040653869509697e-03 -2 -3 611 4.9302447587251663e-04</internalNodes>
          <leafValues>
            -4.3938687443733215e-01 5.5047518014907837e-01
            -5.3638410568237305e-01 2.3014493286609650e-01</leafValues></_>
        <_>
          <internalNodes>
            1 2 529 -1.2402716674841940e-04 0 -1 341
            -1.6932500875554979e-04 -2 -3 332 -4.8506662249565125e-02</internalNodes>
          <leafValues>
            5.3540199995040894e-01 -1.8678545951843262e-01
            5.9388732910156250e-01 -5.8386188745498657e-01</leafValues></_>
        <_>
          <internalNodes>
            1 2 221 7.9313782043755054e-04 0 -1 334
            1.2680125655606389e-04 -2 -3 446 1.8788053421303630e-03</internalNodes>
          <leafValues>
            -4.7001877427101135e-01 2.8959333896636963e-01
            5.9904563426971436e-01 -7.8789246082305908e-01</leafValues></_>
        <_>
          <internalNodes>
            1 2 59 -9.0661287307739258e-02 0 -1 154
            -1.2130652321502566e-03 -2 -3 121 7.3283582925796509e-02</internalNodes>
          <leafValues>
            6.5617001056671143e-01 -8.2464492321014404e-01
            3.0252563953399658e-01 -5.2496802806854248e-01</leafValues></_>
        <_>
          <internalNodes>
            1 2 148 1.0569307953119278e-02 0 -1 470
            -5.3450249833986163e-04 -2 -3 60 -1.2898528948426247e-02</internalNodes>
          <leafValues>
            3.8908931612968445e-01 -3.6289885640144348e-01
            8.6426228284835815e-01 -2.1874926984310150e-01</leafValues></_>
        <_>
          <internalNodes>
            1 2 481 2.4600033066235483e-04 0 -1 651
            -1.7755832232069224e-04 -2 -3 429 6.8296538665890694e-03</internalNodes>
          <leafValues>
            6.5389251708984375e-01 -1.9595703110098839e-02
            -6.9420117139816284e-01 1.1567413806915283e-01</leafValues></_>
        <_>
          <internalNodes>
            1 2 598 3.7743922439403832e-04 0 -1 622
            1.2419214472174644e-03 -2 -3 52 1.0882428847253323e-02</internalNodes>
          <leafValues>
            -4.6892145276069641e-01 2.3875775933265686e-01
            5.6678152084350586e-01 -6.1375933885574341e-01</leafValues></_>
        <_>
          <internalNodes>
            1 2 589 -3.4891383256763220e-04 0 -1 648
            1.2222694931551814e-04 -2 -3 636 1.3617333024740219e-04</internalNodes>
          <leafValues>
            -6.0118108987808228e-01 2.6228985190391541e-01
            -8.1111073493957520e-02 5.8210992813110352e-01</leafValues></_></weakClassifiers></_>
    <!-- stage 9 -->
    <_>
      <maxWeakCount>15</maxWeakCount>
      <stageThreshold>-2.6580953598022461e-01</stageThreshold>
      <weakClassifiers>
        <_>
          <internalNodes>
            1 2 361 -4.6404404565691948e-04 0 -1 156
            -1.2050695717334747e-02 -2 -3 302 -4.6177254989743233e-04</internalNodes>
          <leafValues>
            6.6666668653488159e-01 -6.6666668653488159e-01
            -5.4285717010498047e-01 7.3509174585342407e-01</leafValues></_>
        <_>
          <internalNodes>
            1 2 476 4.0183652890846133e-04 0 -1 86
            -8.7513923645019531e-03 -2 -3 530 9.0502619743347168e-02</internalNodes>
          <leafValues>
            6.7894780635833740e-01 2.2396348416805267e-02
            -6.6443258523941040e-01 7.0461261272430420e-01</leafValues></_>
        <_>
          <internalNodes>
            1 2 499 -1.0985802509821951e-04 0 -1 442
            -5.9767480706796050e-04 -2 -3 119 -1.8204569816589355e-02</internalNodes>
          <leafValues>
            -2.9077866673469543e-01 5.7032895088195801e-01
            3.7445920705795288e-01 -6.5315318107604980e-01</leafValues></_>
        <_>
          <internalNodes>
            1 2 607 8.5944996681064367e-04 0 -1 233
            5.2641858346760273e-03 -2 -3 435 5.4825283586978912e-04</internalNodes>
          <leafValues>
            -5.0242841243743896e-01 2.9755058884620667e-01
            5.5273723602294922e-01 -6.0735780000686646e-01</leafValues></_>
        <_>
          <internalNodes>
            1 2 236 -5.4002366960048676e-03 0 -1 526
            -1.7032099422067404e-03 -2 -3 615 5.9053512813989073e-05</internalNodes>
          <leafValues>
            -5.6406068801879883e-01 6.9509816169738770e-01
            -4.8912969231605530e-01 2.0800471305847168e-01</leafValues></_>
        <_>
          <internalNodes>
            1 2 667 -1.4224308542907238e-03 0 -1 287
            7.4409872293472290e-02 -2 -3 424 -4.4266987242735922e-04</internalNodes>
          <leafValues>
            -7.7823364734649658e-01 6.9523495435714722e-01
            5.8362913131713867e-01 -1.1774213612079620e-01</leafValues></_>
        <_>
          <internalNodes>
            1 2 586 -1.2139626778662205e-03 0 -1 418
            -7.2556547820568085e-04 -2 -3 631 1.5652256843168288e-04</internalNodes>
          <leafValues>
            -1.4878435432910919e-01 7.5739306211471558e-01
            -4.2575111985206604e-01 2.4345576763153076e-01</leafValues></_>
        <_>
          <internalNodes>
            1 2 3 4.9839541316032410e-03 0 -1 525 3.7166156107559800e-04
            -2 -3 325 -1.3582883402705193e-02</internalNodes>
          <leafValues>
            2.8244134783744812e-01 -8.2360607385635376e-01
            -7.8242981433868408e-01 7.3757517337799072e-01</leafValues></_>
        <_>
          <internalNodes>
            1 2 500 -4.4393593270797282e-05 0 -1 153
            4.2604049667716026e-04 -2 -3 639 2.6012369198724627e-04</internalNodes>
          <leafValues>
            -1.1067183315753937e-01 6.4160239696502686e-01
            -8.0780911445617676e-01 9.0064078569412231e-02</leafValues></_>
        <_>
          <internalNodes>
            1 2 252 -6.2233889475464821e-03 0 -1 77
            2.8404067270457745e-03 -2 -3 401 -4.6322929847519845e-05</internalNodes>
          <leafValues>
            5.9315568208694458e-01 -3.5426074266433716e-01
            2.1802611649036407e-01 -5.7360285520553589e-01</leafValues></_>
        <_>
          <internalNodes>
            1 2 160 1.0545588156674057e-04 0 -1 181
            8.4924800321459770e-03 -2 -3 625 6.8098993506282568e-04</internalNodes>
          <leafValues>
            -3.3012482523918152e-01 4.9010211229324341e-01
            6.8977892398834229e-01 -5.9882754087448120e-01</leafValues></_>
        <_>
          <internalNodes>
            1 2 515 -3.4582728985697031e-03 0 -1 577
            7.6506822369992733e-03 -2 -3 417 7.9328892752528191e-04</internalNodes>
          <leafValues>
            -9.2056268453598022e-01 8.4532117843627930e-01
            4.1577720642089844e-01 -1.4693458378314972e-01</leafValues></_>
        <_>
          <internalNodes>
            1 2 420 -2.9205956961959600e-03 0 -1 362
            -5.7973130606114864e-04 -2 -3 383 5.4849626030772924e-04</internalNodes>
          <leafValues>
            -2.8626471757888794e-01 5.8446013927459717e-01
            -6.0447704792022705e-01 2.6372811198234558e-01</leafValues></_>
        <_>
          <internalNodes>
            1 2 458 9.3434134032577276e-04 0 -1 5
            -1.7413567751646042e-02 -2 -3 44 5.0881430506706238e-03</internalNodes>
          <leafValues>
            6.5254861116409302e-01 -3.2547453045845032e-01
            7.2169941663742065e-01 -3.5254609584808350e-01</leafValues></_>
        <_>
          <internalNodes>
            1 2 304 -1.7315239529125392e-04 0 -1 299
            -3.5183399450033903e-04 -2 -3 28 -2.5048777461051941e-02</internalNodes>
          <leafValues>
            5.9049791097640991e-01 -7.1184843778610229e-01
            -2.5235143303871155e-01 4.5979827642440796e-01</leafValues></_></weakClassifiers></_>
    <!-- stage 10 -->
    <_>
      <maxWeakCount>17</maxWeakCount>
      <stageThreshold>-1.6791780292987823e-01</stageThreshold>
      <weakClassifiers>
        <_>
          <internalNodes>
            1 2 356 -6.3926650909706950e-04 0 -1 288
            2.3134318180382252e-03 -2 -3 19 1.8548697233200073e-01</internalNodes>
          <leafValues>
            -5.9663867950439453e-01 5.0561797618865967e-01
            7.2695851325988770e-01 -6.4285713434219360e-01</leafValues></_>
        <_>
          <internalNodes>
            1 2 306 1.2976935133337975e-02 0 -1 110
            -3.4846186637878418e-02 -2 -3 242 2.6594933588057756e-03</internalNodes>
          <leafValues>
            5.3453731536865234e-01 -3.5224056243896484e-01
            -1.4413301646709442e-01 7.8559297323226929e-01</leafValues></_>
        <_>
          <internalNodes>
            1 2 453 7.0799328386783600e-04 0 -1 328
            -5.8113841805607080e-04 -2 -3 431 -1.3596567325294018e-02</internalNodes>
          <leafValues>
            6.6457748413085938e-01 -7.1551459841430187e-03
            7.5256288051605225e-01 -6.5400135517120361e-01</leafValues></_>
        <_>
          <internalNodes>
            1 2 369 7.7934404544066638e-05 0 -1 197
            9.4122631708160043e-04 -2 -3 199 1.4310665428638458e-03</internalNodes>
          <leafValues>
            -6.7805081605911255e-01 3.8901549577713013e-01
            -1.0530197620391846e-01 5.9899348020553589e-01</leafValues></_>
        <_>
          <internalNodes>
            1 2 2 2.0952115301042795e-03 0 -1 256
            -2.2018949675839394e-04 -2 -3 475 -1.5753713250160217e-01</internalNodes>
          <leafValues>
            -4.6458804607391357e-01 2.8613275289535522e-01 1.
            -7.3582738637924194e-01</leafValues></_>
        <_>
          <internalNodes>
            1 2 609 1.1668099614325911e-04 0 -1 511
            -5.6708953343331814e-04 -2 -3 300 -5.1144583267159760e-05</internalNodes>
          <leafValues>
            1.0497773438692093e-01 -5.4971450567245483e-01
            7.2121149301528931e-01 -4.1816994547843933e-01</leafValues></_>
        <_>
          <internalNodes>
            1 2 333 7.3640840128064156e-05 0 -1 629
            3.8623332511633635e-04 -2 -3 672 -8.4468200802803040e-03</internalNodes>
          <leafValues>
            -4.1551074385643005e-01 4.3131193518638611e-01
            -2.1829779446125031e-01 6.4900118112564087e-01</leafValues></_>
        <_>
          <internalNodes>
            1 2 346 -5.7817313063424081e-05 0 -1 481
            -4.3001526501029730e-04 -2 -3 336 -4.3187613482587039e-04</internalNodes>
          <leafValues>
            -4.3979665637016296e-01 6.3280212879180908e-01
            2.4159418046474457e-01 -4.3187248706817627e-01</leafValues></_>
        <_>
          <internalNodes>
            1 2 165 -8.8668282842263579e-04 0 -1 55
            -1.0465824976563454e-02 -2 -3 266 1.9762881100177765e-02</internalNodes>
          <leafValues>
            -7.1536861360073090e-02 7.1131575107574463e-01
            -4.6650022268295288e-01 8.1646764278411865e-01</leafValues></_>
        <_>
          <internalNodes>
            1 2 498 -4.4570903992280364e-04 0 -1 7
            2.5722473859786987e-02 -2 -3 620 4.8872956540435553e-05</internalNodes>
          <leafValues>
            -6.7332559823989868e-01 4.7326451539993286e-01
            -1.0707928240299225e-01 5.8056038618087769e-01</leafValues></_>
        <_>
          <internalNodes>
            1 2 66 1.6059682238847017e-03 0 -1 614
            -9.1729797422885895e-03 -2 -3 447 -3.8109814340714365e-05</internalNodes>
          <leafValues>
            -5.7401180267333984e-01 2.8420484066009521e-01
            7.6803185045719147e-02 -7.8949016332626343e-01</leafValues></_>
        <_>
          <internalNodes>
            1 2 315 2.0691753888968378e-04 0 -1 151
            -1.5001684427261353e-02 -2 -3 35 -6.9838976487517357e-03</internalNodes>
          <leafValues>
            5.4877924919128418e-01 -5.7468354701995850e-01
            5.6572562456130981e-01 -1.3516050577163696e-01</leafValues></_>
        <_>
          <internalNodes>
            1 2 24 5.1452368497848511e-03 0 -1 674
            6.3135194068308920e-05 -2 -3 265 -2.1364721469581127e-03</internalNodes>
          <leafValues>
            -4.3246161937713623e-01 2.6867747306823730e-01
            -3.4046375751495361e-01 8.5166770219802856e-01</leafValues></_>
        <_>
          <internalNodes>
            1 2 595 8.3486750721931458e-02 0 -1 31
            -1.0043943766504526e-03 -2 -3 10 5.0763644278049469e-02</internalNodes>
          <leafValues>
            -5.3485184907913208e-01 1.0877151042222977e-01 1. -1.</leafValues></_>
        <_>
          <internalNodes>
            1 2 396 4.2181669414276257e-05 0 -1 464
            1.1849362635985017e-04 -2 -3 537 1.6551706939935684e-03</internalNodes>
          <leafValues>
            -5.0278520584106445e-01 4.1853520274162292e-01
            4.6442773193120956e-02 7.5715720653533936e-01</leafValues></_>
        <_>
          <internalNodes>
            1 2 409 3.4897134173661470e-04 0 -1 303
            2.9015843756496906e-04 -2 -3 502 3.7733283825218678e-03</internalNodes>
          <leafValues>
            4.8468503355979919e-01 -3.5151353478431702e-01
            -5.5284720659255981e-01 5.2701175212860107e-01</leafValues></_>
        <_>
          <internalNodes>
            1 2 656 -5.1854440243914723e-05 0 -1 26
            -7.7091064304113388e-03 -2 -3 267 4.5507112517952919e-03</internalNodes>
          <leafValues>
            6.8202930688858032e-01 -1.4104156754910946e-02
            -5.1953607797622681e-01 3.4724351763725281e-01</leafValues></_></weakClassifiers></_>
    <!-- stage 11 -->
    <_>
      <maxWeakCount>16</maxWeakCount>
      <stageThreshold>-2.7369561791419983e-01</stageThreshold>
      <weakClassifiers>
        <_>
          <internalNodes>
            1 2 436 -8.8628905359655619e-04 0 -1 584
            -1.3214213773608208e-02 -2 -3 298 1.3881547376513481e-02</internalNodes>
          <leafValues>
            5.1999998092651367e-01 -7.0212763547897339e-01
            3.2484075427055359e-01 8.3719074726104736e-01</leafValues></_>
        <_>
          <internalNodes>
            1 2 443 5.9546169359236956e-04 0 -1 13
            4.0721879340708256e-03 -2 -3 546 -2.6915326714515686e-02</internalNodes>
          <leafValues>
            5.1742053031921387e-01 -2.4565282464027405e-01
            2.2039465606212616e-01 -7.4406611919403076e-01</leafValues></_>
        <_>
          <internalNodes>
            1 2 76 -3.2007534056901932e-02 0 -1 11
            -1.7998632043600082e-02 -2 -3 547 -7.8945094719529152e-03</internalNodes>
          <leafValues>
            7.3221695423126221e-01 -5.3310793638229370e-01
            7.6542127132415771e-01 -3.3985599875450134e-02</leafValues></_>
        <_>
          <internalNodes>
            1 2 522 -2.1872989600524306e-04 0 -1 247
            1.4050580793991685e-03 -2 -3 663 1.0118461796082556e-04</internalNodes>
          <leafValues>
            -6.9535017013549805e-01 2.0481619238853455e-01
            -9.1980621218681335e-02 5.5534541606903076e-01</leafValues></_>
        <_>
          <internalNodes>
            1 2 416 -3.5463500535115600e-04 0 -1 100
            1.1655605398118496e-02 -2 -3 647 -1.2317612767219543e-02</internalNodes>
          <leafValues>
            6.8683511018753052e-01 -4.4705295562744141e-01
            6.2146574258804321e-01 -3.0071428418159485e-01</leafValues></_>
        <_>
          <internalNodes>
            1 2 178 5.8908516075462103e-04 0 -1 649
            2.9612772050313652e-04 -2 -3 0 -5.0831236876547337e-03</internalNodes>
          <leafValues>
            -1.0584691166877747e-01 5.6193315982818604e-01 1.
            -6.2129962444305420e-01</leafValues></_>
        <_>
          <internalNodes>
            1 2 179 1.4028823934495449e-03 0 -1 177
            3.3977960702031851e-03 -2 -3 452 2.1927544730715454e-04</internalNodes>
          <leafValues>
            -6.0091209411621094e-01 1.7321428656578064e-01
            4.6335542201995850e-01 -5.3029882907867432e-01</leafValues></_>
        <_>
          <internalNodes>
            1 2 638 7.8759286552667618e-03 0 -1 334
            -3.0091108055785298e-04 -2 -3 201 -3.4607559442520142e-02</internalNodes>
          <leafValues>
            4.9213624000549316e-01 -1.1175601929426193e-01 1.
            -9.8123085498809814e-01</leafValues></_>
        <_>
          <internalNodes>
            1 2 413 6.1199087649583817e-03 0 -1 569
            -1.0144193656742573e-03 -2 -3 371 -9.1361027443781495e-05</internalNodes>
          <leafValues>
            4.2504417896270752e-01 -2.6180711388587952e-01
            -4.7796010971069336e-01 8.7256991863250732e-01</leafValues></_>
        <_>
          <internalNodes>
            1 2 566 -1.0144414845854044e-03 0 -1 492
            -4.2885122820734978e-04 -2 -3 460 -9.6824119100347161e-04</internalNodes>
          <leafValues>
            -3.5433667898178101e-01 5.5369591712951660e-01
            2.4664880335330963e-01 -4.9453988671302795e-01</leafValues></_>
        <_>
          <internalNodes>
            1 2 467 -1.9772538915276527e-02 0 -1 168
            1.2479015276767313e-04 -2 -3 285 -3.3690739423036575e-02</internalNodes>
          <leafValues>
            -5.4391980171203613e-01 3.1441688537597656e-01
            -4.4869467616081238e-01 4.5123985409736633e-01</leafValues></_>
        <_>
          <internalNodes>
            1 2 335 2.4193170247599483e-04 0 -1 167
            5.8503246691543609e-05 -2 -3 270 -4.4281443115323782e-04</internalNodes>
          <leafValues>
            -4.7529739141464233e-01 2.6460546255111694e-01
            6.5671581029891968e-01 -4.1004356741905212e-01</leafValues></_>
        <_>
          <internalNodes>
            1 2 599 -1.5983700286597013e-03 0 -1 658
            2.0989938639104366e-03 -2 -3 627 5.8712251484394073e-04</internalNodes>
          <leafValues>
            5.6432688236236572e-01 -4.3773138523101807e-01
            -6.6236340999603271e-01 1.3371868431568146e-01</leafValues></_>
        <_>
          <internalNodes>
            1 2 72 -3.7639867514371872e-03 0 -1 291
            -1.0859534889459610e-01 -2 -3 169 -2.5072607677429914e-03</internalNodes>
          <leafValues>
            1. -8.3528584241867065e-01 5.8295732736587524e-01
            -9.1173887252807617e-02</leafValues></_>
        <_>
          <internalNodes>
            1 2 255 -4.2510307393968105e-03 0 -1 634
            1.3500170316547155e-03 -2 -3 247 1.7756696324795485e-03</internalNodes>
          <leafValues>
            8.5563194751739502e-01 -6.1962437629699707e-01
            -3.7534615397453308e-01 2.8862237930297852e-01</leafValues></_>
        <_>
          <internalNodes>
            1 2 109 -2.2414647901314311e-05 0 -1 331
            -1.5296767232939601e-03 -2 -3 549 -3.7978105247020721e-03</internalNodes>
          <leafValues>
            7.9058700799942017e-01 1.7823779955506325e-02
            2.8075712919235229e-01 -4.6483182907104492e-01</leafValues></_></weakClassifiers></_>
    <!-- stage 12 -->
    <_>
      <maxWeakCount>16</maxWeakCount>
      <stageThreshold>-3.4594064950942993e-01</stageThreshold>
      <weakClassifiers>
        <_>
          <internalNodes>
            1 2 487 5.4039258975535631e-04 0 -1 587
            -1.5225633978843689e-02 -2 -3 535 -7.5323358178138733e-02</internalNodes>
          <leafValues>
            1.7341040074825287e-01 7.6251602172851562e-01 1.
            -7.7777779102325439e-01</leafValues></_>
        <_>
          <internalNodes>
            1 2 427 2.5486148893833160e-02 0 -1 205
            8.3392916712909937e-04 -2 -3 585 3.5068381112068892e-04</internalNodes>
          <leafValues>
            -2.8897804021835327e-01 3.9072325825691223e-01
            9.6057772636413574e-01 -3.2445496320724487e-01</leafValues></_>
        <_>
          <internalNodes>
            1 2 200 7.1733314543962479e-03 0 -1 114
            -3.4468541853129864e-03 -2 -3 34 5.8492245152592659e-03</internalNodes>
          <leafValues>
            1.9355788826942444e-01 -6.1039036512374878e-01
            5.1762145757675171e-01 -6.3820874691009521e-01</leafValues></_>
        <_>
          <internalNodes>
            1 2 214 8.9633371680974960e-04 0 -1 104
            2.3049707524478436e-03 -2 -3 309 3.4748448524624109e-04</internalNodes>
          <leafValues>
            -6.4772933721542358e-01 6.5510749816894531e-02
            7.2403585910797119e-01 -1.8166607618331909e-01</leafValues></_>
        <_>
          <internalNodes>
            1 2 370 1.0237110109301284e-04 0 -1 534
            -2.3199145216494799e-03 -2 -3 145 -1.1774257291108370e-03</internalNodes>
          <leafValues>
            4.4054901599884033e-01 -7.8444832563400269e-01
            6.8474042415618896e-01 7.1811885572969913e-03</leafValues></_>
        <_>
          <internalNodes>
            1 2 1 3.3850399777293205e-03 0 -1 660
            -1.6027711331844330e-02 -2 -3 32 1.6675766557455063e-02</internalNodes>
          <leafValues>
            -3.6498764157295227e-01 3.3587494492530823e-01
            -6.4816516637802124e-01 1.</leafValues></_>
        <_>
          <internalNodes>
            1 2 20 1.7190263606607914e-03 0 -1 164
            1.8201948842033744e-03 -2 -3 662 3.0477354303002357e-03</internalNodes>
          <leafValues>
            -3.2993972301483154e-01 4.9503841996192932e-01
            7.5868707895278931e-01 -5.0791949033737183e-01</leafValues></_>
        <_>
          <internalNodes>
            1 2 294 8.6842468008399010e-03 0 -1 322
            -9.0243387967348099e-03 -2 -3 473 1.0918828193098307e-03</internalNodes>
          <leafValues>
            3.7729635834693909e-01 -4.3612480163574219e-01
            5.7308977842330933e-01 -4.7751230001449585e-01</leafValues></_>
        <_>
          <internalNodes>
            1 2 571 9.5095974393188953e-04 0 -1 488
            -2.2760490537621081e-04 -2 -3 97 -1.3525093905627728e-02</internalNodes>
          <leafValues>
            -7.1073049306869507e-01 3.3959567546844482e-01 1.
            -4.5445770025253296e-01</leafValues></_>
        <_>
          <internalNodes>
            1 2 505 3.0800225213170052e-03 0 -1 441
            1.4807432889938354e-02 -2 -3 425 -6.2981792725622654e-03</internalNodes>
          <leafValues>
            2.8416895866394043e-01 -8.6337453126907349e-01
            7.4302119016647339e-01 -5.5810046195983887e-01</leafValues></_>
        <_>
          <internalNodes>
            1 2 613 1.9863586872816086e-02 0 -1 652
            -1.1488984455354512e-04 -2 -3 640 -8.0052176490426064e-03</internalNodes>
          <leafValues>
            3.0641570687294006e-01 -2.9367318749427795e-01 -1.
            9.7506874799728394e-01</leafValues></_>
        <_>
          <internalNodes>
            1 2 603 1.7927980050444603e-02 0 -1 355
            2.4412153288722038e-02 -2 -3 606 3.9352305233478546e-02</internalNodes>
          <leafValues>
            -1.2777507305145264e-01 5.0667423009872437e-01
            -8.2424098253250122e-01 1.</leafValues></_>
        <_>
          <internalNodes>
            1 2 312 -1.3769005890935659e-03 0 -1 232
            -4.2927553877234459e-03 -2 -3 190 -2.3716935538686812e-04</internalNodes>
          <leafValues>
            1. -8.2022368907928467e-01 6.6418403387069702e-01
            -7.5394205749034882e-02</leafValues></_>
        <_>
          <internalNodes>
            1 2 466 -1.7414685338735580e-02 0 -1 408
            -4.6455569099634886e-04 -2 -3 273 -1.2598972534760833e-03</internalNodes>
          <leafValues>
            -7.9608041048049927e-01 6.9964259862899780e-01
            2.3174846172332764e-01 -3.8353025913238525e-01</leafValues></_>
        <_>
          <internalNodes>
            1 2 596 6.1105831991881132e-04 0 -1 628
            6.5038853790611029e-05 -2 -3 668 1.0450686328113079e-02</internalNodes>
          <leafValues>
            -4.7888150811195374e-01 3.2975032925605774e-01
            6.2282705307006836e-01 -4.4178315997123718e-01</leafValues></_>
        <_>
          <internalNodes>
            1 2 171 4.7908768465276808e-05 0 -1 226
            -2.3394860909320414e-04 -2 -3 338 1.5260680811479688e-03</internalNodes>
          <leafValues>
            3.2735595107078552e-01 -4.0828955173492432e-01
            5.8821046352386475e-01 -2.9117450118064880e-01</leafValues></_></weakClassifiers></_>
    <!-- stage 13 -->
    <_>
      <maxWeakCount>16</maxWeakCount>
      <stageThreshold>-2.6069784536957741e-02</stageThreshold>
      <weakClassifiers>
        <_>
          <internalNodes>
            1 2 437 1.3228801544755697e-03 0 -1 403
            1.4846227713860571e-04 -2 -3 380 -2.6783000677824020e-02</internalNodes>
          <leafValues>
            1.7105263471603394e-01 7.6410257816314697e-01
            7.5757575035095215e-01 -6.6990292072296143e-01</leafValues></_>
        <_>
          <internalNodes>
            1 2 621 -1.9668226595968008e-03 0 -1 468
            4.0958952158689499e-03 -2 -3 491 -4.2803520045708865e-05</internalNodes>
          <leafValues>
            8.6148315668106079e-01 -3.3373200893402100e-01
            2.2423131763935089e-01 -5.0808691978454590e-01</leafValues></_>
        <_>
          <internalNodes>
            1 2 552 4.8509463667869568e-03 0 -1 554
            1.2851098552346230e-02 -2 -3 514 -3.1578645575791597e-04</internalNodes>
          <leafValues>
            -3.9611384272575378e-01 4.8146605491638184e-01
            -1.6394795477390289e-01 7.9255205392837524e-01</leafValues></_>
        <_>
          <internalNodes>
            1 2 258 7.2844435635488480e-05 0 -1 324
            2.3921936750411987e-02 -2 -3 262 3.1892844708636403e-04</internalNodes>
          <leafValues>
            -6.1734038591384888e-01 9.5365601778030396e-01
            -4.5836666226387024e-01 4.5174255967140198e-01</leafValues></_>
        <_>
          <internalNodes>
            1 2 98 -2.7325326204299927e-01 0 -1 166
            2.6251534000039101e-03 -2 -3 560 -5.5490098893642426e-03</internalNodes>
          <leafValues>
            -9.2451667785644531e-01 1. 4.7255593538284302e-01
            -2.4404114484786987e-01</leafValues></_>
        <_>
          <internalNodes>
            1 2 538 1.4040751848369837e-03 0 -1 223
            -4.3597910553216934e-03 -2 -3 136 -3.5469694994390011e-03</internalNodes>
          <leafValues>
            2.3094278573989868e-01 -3.7312835454940796e-01
            -4.1637828946113586e-01 9.1219991445541382e-01</leafValues></_>
        <_>
          <internalNodes>
            1 2 438 2.9851659201085567e-04 0 -1 419
            -4.3004452891182154e-05 -2 -3 260 1.6576465219259262e-02</internalNodes>
          <leafValues>
            5.0997829437255859e-01 -1.8986777961254120e-01
            -7.7633500099182129e-01 6.2829184532165527e-01</leafValues></_>
        <_>
          <internalNodes>
            1 2 422 -8.8681408669799566e-04 0 -1 133
            -1.8410362303256989e-02 -2 -3 533 -1.5751691535115242e-03</internalNodes>
          <leafValues>
            -2.9403412342071533e-01 9.1705536842346191e-01
            1.8793725967407227e-01 -5.2785140275955200e-01</leafValues></_>
        <_>
          <internalNodes>
            1 2 204 2.9294315027073026e-04 0 -1 340
            4.8600966110825539e-03 -2 -3 455 -6.1600796470884234e-05</internalNodes>
          <leafValues>
            -6.1102050542831421e-01 2.5245332717895508e-01
            6.3641113042831421e-01 -2.5027510523796082e-01</leafValues></_>
        <_>
          <internalNodes>
            1 2 130 -4.5258942991495132e-03 0 -1 600
            3.4207192948088050e-04 -2 -3 228 7.5440132059156895e-04</internalNodes>
          <leafValues>
            -7.8499346971511841e-01 5.1107704639434814e-01
            4.4255346059799194e-01 -2.2764429450035095e-01</leafValues></_>
        <_>
          <internalNodes>
            1 2 73 -2.3630862124264240e-03 0 -1 575
            2.0913641492370516e-05 -2 -3 74 3.6494256928563118e-03</internalNodes>
          <leafValues>
            -4.8607353121042252e-02 7.5642049312591553e-01
            -5.3483003377914429e-01 4.7044485807418823e-01</leafValues></_>
        <_>
          <internalNodes>
            1 2 405 -2.6457603089511395e-03 0 -1 415
            -6.2876618467271328e-03 -2 -3 450 6.0603476595133543e-04</internalNodes>
          <leafValues>
            1. -8.8387155532836914e-01 -1.1598593741655350e-01
            5.6839603185653687e-01</leafValues></_>
        <_>
          <internalNodes>
            1 2 567 -5.9304869500920177e-04 0 -1 635
            -8.6618226487189531e-04 -2 -3 344 -6.3346978276968002e-04</internalNodes>
          <leafValues>
            -5.1690894365310669e-01 7.1172159910202026e-01
            2.7327746152877808e-01 -4.2429614067077637e-01</leafValues></_>
        <_>
          <internalNodes>
            1 2 551 9.6798947197385132e-05 0 -1 157
            -2.5343904271721840e-03 -2 -3 125 6.0140646994113922e-02</internalNodes>
          <leafValues>
            3.3770409226417542e-01 -3.8829103112220764e-01
            6.7317360639572144e-01 -4.1316282749176025e-01</leafValues></_>
        <_>
          <internalNodes>
            1 2 143 -2.1725663542747498e-01 0 -1 263
            5.5397776886820793e-03 -2 -3 12 -2.6998046040534973e-01</internalNodes>
          <leafValues>
            -9.8666465282440186e-01 1. -5.9013527631759644e-01
            2.4990122020244598e-01</leafValues></_>
        <_>
          <internalNodes>
            1 2 118 4.4171921908855438e-03 0 -1 78
            1.3099880889058113e-03 -2 -3 375 7.2539011016488075e-03</internalNodes>
          <leafValues>
            -8.1576533615589142e-02 7.0976334810256958e-01
            -7.4391764402389526e-01 4.2793673276901245e-01</leafValues></_></weakClassifiers></_>
    <!-- stage 14 -->
    <_>
      <maxWeakCount>15</maxWeakCount>
      <stageThreshold>-2.1534939110279083e-01</stageThreshold>
      <weakClassifiers>
        <_>
          <internalNodes>
            1 2 486 2.7482354198582470e-04 0 -1 447
            -6.8338663550093770e-04 -2 -3 184 6.1831537634134293e-02</internalNodes>
          <leafValues>
            -9.8039219155907631e-03 7.6081728935241699e-01
            -7.5700932741165161e-01 6.8000000715255737e-01</leafValues></_>
        <_>
          <internalNodes>
            1 2 212 -9.1960711870342493e-04 0 -1 559
            -9.4135859399102628e-05 -2 -3 269 5.6453710421919823e-03</internalNodes>
          <leafValues>
            6.0316365957260132e-01 -2.5210207700729370e-01
            -5.8959877490997314e-01 2.8242367506027222e-01</leafValues></_>
        <_>
          <internalNodes>
            1 2 198 6.0418783687055111e-04 0 -1 37
            2.1198496222496033e-01 -2 -3 186 3.3855002839118242e-03</internalNodes>
          <leafValues>
            -3.8412612676620483e-01 5.1879948377609253e-01
            6.6769474744796753e-01 -4.1381743550300598e-01</leafValues></_>
        <_>
          <internalNodes>
            1 2 301 1.5831622295081615e-03 0 -1 29
            -6.6689535975456238e-02 -2 -3 348 2.2690728306770325e-02</internalNodes>
          <leafValues>
            -3.7805721163749695e-01 4.0105035901069641e-01
            -6.3289177417755127e-01 8.4798473119735718e-01</leafValues></_>
        <_>
          <internalNodes>
            1 2 243 -8.4026157855987549e-03 0 -1 388
            7.7534485608339310e-03 -2 -3 225 3.6113050300627947e-03</internalNodes>
          <leafValues>
            4.8114460706710815e-01 -2.9527944326400757e-01
            -5.2510297298431396e-01 6.7850810289382935e-01</leafValues></_>
        <_>
          <internalNodes>
            1 2 173 -4.9969921819865704e-03 0 -1 36
            1.4647948741912842e-01 -2 -3 557 1.4850771985948086e-03</internalNodes>
          <leafValues>
            -8.5296189785003662e-01 1. -7.6399289071559906e-02
            6.0812491178512573e-01</leafValues></_>
        <_>
          <internalNodes>
            1 2 590 3.0848253518342972e-03 0 -1 576
            -4.3277917429804802e-03 -2 -3 238 5.1380544900894165e-03</internalNodes>
          <leafValues>
            6.6583448648452759e-01 -4.9347128719091415e-02
            8.0002784729003906e-02 -7.8606981039047241e-01</leafValues></_>
        <_>
          <internalNodes>
            1 2 553 4.3051596730947495e-04 0 -1 555
            4.1448185220360756e-04 -2 -3 15 -7.4229511665180326e-04</internalNodes>
          <leafValues>
            -6.2351018190383911e-01 1.8329615890979767e-01
            -3.1416928768157959e-01 6.3123500347137451e-01</leafValues></_>
        <_>
          <internalNodes>
            1 2 670 -3.2097063958644867e-03 0 -1 630
            -3.5088293952867389e-04 -2 -3 279 -5.3013865835964680e-03</internalNodes>
          <leafValues>
            3.9931687712669373e-01 -6.7214238643646240e-01
            -3.0295351147651672e-01 4.5156183838844299e-01</leafValues></_>
        <_>
          <internalNodes>
            1 2 337 -3.8301896303892136e-02 0 -1 462
            3.9350286126136780e-02 -2 -3 229 1.9577046856284142e-02</internalNodes>
          <leafValues>
            -7.5874286890029907e-01 1. -2.1209573745727539e-01
            4.3215736746788025e-01</leafValues></_>
        <_>
          <internalNodes>
            1 2 80 -7.0474655367434025e-03 0 -1 240
            -1.9421866536140442e-01 -2 -3 312 5.6648934260010719e-03</internalNodes>
          <leafValues>
            6.3413697481155396e-01 -6.1785274744033813e-01
            3.0947628617286682e-01 -6.5868985652923584e-01</leafValues></_>
        <_>
          <internalNodes>
            1 2 88 7.2185639292001724e-03 0 -1 40 1.1788744013756514e-03
            -2 -3 531 -2.0570887136273086e-04</internalNodes>
          <leafValues>
            4.0517419576644897e-01 -3.3149188756942749e-01
            -7.8195285797119141e-01 1.0636373609304428e-01</leafValues></_>
        <_>
          <internalNodes>
            1 2 449 -6.9905945565551519e-04 0 -1 477
            -3.4648779546841979e-04 -2 -3 539 1.8977497238665819e-03</internalNodes>
          <leafValues>
            -6.7306131124496460e-01 5.9470045566558838e-01
            -4.9561735987663269e-01 1.9406113028526306e-01</leafValues></_>
        <_>
          <internalNodes>
            1 2 149 -7.2013190947473049e-04 0 -1 405
            -4.1118747321888804e-04 -2 -3 283 6.6775837913155556e-03</internalNodes>
          <leafValues>
            -4.7588127851486206e-01 6.2307959794998169e-01
            -4.4235795736312866e-01 4.7618657350540161e-01</leafValues></_>
        <_>
          <internalNodes>
            1 2 277 -1.8358115630690008e-04 0 -1 313
            8.6237647337839007e-04 -2 -3 623 5.8444682508707047e-05</internalNodes>
          <leafValues>
            -3.7189695239067078e-01 6.6630071401596069e-01
            -4.3794584274291992e-01 3.2089850306510925e-01</leafValues></_></weakClassifiers></_>
    <!-- stage 15 -->
    <_>
      <maxWeakCount>14</maxWeakCount>
      <stageThreshold>-2.4438340961933136e-01</stageThreshold>
      <weakClassifiers>
        <_>
          <internalNodes>
            1 2 392 8.1998691894114017e-04 0 -1 393
            -3.1597116030752659e-03 -2 -3 454 -1.1566366301849484e-03</internalNodes>
          <leafValues>
            -3.4065935015678406e-01 8.1370592117309570e-01
            -8.3486241102218628e-01 3.3333334326744080e-01</leafValues></_>
        <_>
          <internalNodes>
            1 2 208 5.3389309905469418e-03 0 -1 282
            1.6235195100307465e-02 -2 -3 9 3.1551027297973633e-01</internalNodes>
          <leafValues>
            -5.2088284492492676e-01 4.0828710794448853e-01
            7.2434037923812866e-01 -4.9541264772415161e-01</leafValues></_>
        <_>
          <internalNodes>
            1 2 528 -4.7925888793542981e-05 0 -1 500
            -7.9767149873077869e-04 -2 -3 57 -7.1589708328247070e-02</internalNodes>
          <leafValues>
            -1.9989100098609924e-01 6.1047297716140747e-01 1.
            -7.0243734121322632e-01</leafValues></_>
        <_>
          <internalNodes>
            1 2 676 2.6757270097732544e-03 0 -1 578
            -4.4153956696391106e-03 -2 -3 54 -7.8079529106616974e-02</internalNodes>
          <leafValues>
            5.1927930116653442e-01 -1.6075693070888519e-01 1.
            -6.2738424539566040e-01</leafValues></_>
        <_>
          <internalNodes>
            1 2 641 4.4931090087629855e-05 0 -1 51
            1.9038666039705276e-02 -2 -3 588 2.5581996887922287e-03</internalNodes>
          <leafValues>
            -4.3115112185478210e-01 6.2888044118881226e-01
            4.8282289505004883e-01 -5.2798426151275635e-01</leafValues></_>
        <_>
          <internalNodes>
            1 2 544 1.0205691214650869e-03 0 -1 4
            -3.3782785758376122e-03 -2 -3 675 -3.5358208697289228e-03</internalNodes>
          <leafValues>
            -2.5715529918670654e-01 4.0884372591972351e-01
            4.2785853147506714e-01 -6.0992962121963501e-01</leafValues></_>
        <_>
          <internalNodes>
            1 2 112 -7.2209043428301811e-03 0 -1 525
            -7.4722780846059322e-04 -2 -3 142 3.8933880627155304e-02</internalNodes>
          <leafValues>
            -7.3394268751144409e-01 6.2847775220870972e-01
            -3.2538381218910217e-01 7.9286020994186401e-01</leafValues></_>
        <_>
          <internalNodes>
            1 2 540 8.1632184446789324e-05 0 -1 657
            -6.0083521530032158e-03 -2 -3 399 2.9945350252091885e-03</internalNodes>
          <leafValues>
            -5.5957615375518799e-01 7.0899285376071930e-02
            6.3154101371765137e-01 -7.6055788993835449e-01</leafValues></_>
        <_>
          <internalNodes>
            1 2 175 3.5268358886241913e-02 0 -1 618
            1.0162245016545057e-03 -2 -3 310 -2.3850547149777412e-03</internalNodes>
          <leafValues>
            -2.8410908579826355e-01 4.1075429320335388e-01
            -2.1318601071834564e-01 9.6748310327529907e-01</leafValues></_>
        <_>
          <internalNodes>
            1 2 637 3.4543001092970371e-03 0 -1 237
            -4.4696131953969598e-04 -2 -3 292 7.2639316320419312e-02</internalNodes>
          <leafValues>
            7.2576153278350830e-01 -1.6347462311387062e-02
            -6.4053136110305786e-01 3.7175223231315613e-01</leafValues></_>
        <_>
          <internalNodes>
            1 2 448 -4.9648020649328828e-04 0 -1 192
            -2.5803698226809502e-02 -2 -3 501 1.3190205208957195e-03</internalNodes>
          <leafValues>
            7.0329242944717407e-01 -7.8903168439865112e-01
            2.8480714559555054e-01 -6.2421709299087524e-01</leafValues></_>
        <_>
          <internalNodes>
            1 2 559 -4.5795495680067688e-05 0 -1 410
            -1.5620875637978315e-04 -2 -3 513 -5.8582485653460026e-03</internalNodes>
          <leafValues>
            -6.2105131149291992e-01 3.3923637866973877e-01
            5.1584422588348389e-01 -6.8846219778060913e-01</leafValues></_>
        <_>
          <internalNodes>
            1 2 241 -3.1718476675450802e-03 0 -1 280
            -1.4071654295548797e-03 -2 -3 93 -2.1973189432173967e-03</internalNodes>
          <leafValues>
            -7.0433014631271362e-01 8.5471415519714355e-01
            2.3917824029922485e-01 -4.3860071897506714e-01</leafValues></_>
        <_>
          <internalNodes>
            1 2 393 3.2836516038514674e-04 0 -1 573
            6.0304175131022930e-03 -2 -3 593 -4.4083505868911743e-02</internalNodes>
          <leafValues>
            -1.2848959863185883e-01 7.0798969268798828e-01
            9.2425751686096191e-01 -5.0086843967437744e-01</leafValues></_></weakClassifiers></_>
    <!-- stage 16 -->
    <_>
      <maxWeakCount>12</maxWeakCount>
      <stageThreshold>-4.4864252209663391e-01</stageThreshold>
      <weakClassifiers>
        <_>
          <internalNodes>
            1 2 428 1.3128123246133327e-03 0 -1 363
            8.0505218647886068e-05 -2 -3 394 -2.9139098525047302e-01</internalNodes>
          <leafValues>
            -4.0342405802489011e-17 8.0532121658325195e-01 1.
            -4.1379311680793762e-01</leafValues></_>
        <_>
          <internalNodes>
            1 2 579 -4.3984729563817382e-04 0 -1 210
            -1.3653573580086231e-02 -2 -3 521 -1.1082562559749931e-04</internalNodes>
          <leafValues>
            5.2041977643966675e-01 -5.9883689880371094e-01
            7.1863245964050293e-01 -9.3609988689422607e-02</leafValues></_>
        <_>
          <internalNodes>
            1 2 653 -2.6155748855671845e-05 0 -1 174
            7.7625564299523830e-03 -2 -3 323 7.8163705766201019e-03</internalNodes>
          <leafValues>
            6.7324650287628174e-01 -5.3499859571456909e-01
            -4.5167216658592224e-01 4.8870295286178589e-01</leafValues></_>
        <_>
          <internalNodes>
            1 2 354 1.9575324840843678e-03 0 -1 65
            -4.5156488195061684e-03 -2 -3 278 2.9437779448926449e-04</internalNodes>
          <leafValues>
            -4.2019695043563843e-01 8.4985756874084473e-01
            -4.1231152415275574e-01 4.8223280906677246e-01</leafValues></_>
        <_>
          <internalNodes>
            1 2 661 3.9462046697735786e-03 0 -1 373
            -1.0863303759833798e-04 -2 -3 508 9.0408083051443100e-03</internalNodes>
          <leafValues>
            5.7037633657455444e-01 -1.6143158078193665e-01
            -7.1903866529464722e-01 9.4601517915725708e-01</leafValues></_>
        <_>
          <internalNodes>
            1 2 124 1.9452925771474838e-02 0 -1 172
            1.0985104599967599e-03 -2 -3 67 2.2948626428842545e-02</internalNodes>
          <leafValues>
            -1.0259459912776947e-01 6.2140768766403198e-01
            -9.8158138990402222e-01 1.</leafValues></_>
        <_>
          <internalNodes>
            1 2 275 -1.7846486298367381e-04 0 -1 94
            -9.8119978792965412e-04 -2 -3 463 -5.9179274830967188e-04</internalNodes>
          <leafValues>
            -5.5457442998886108e-01 8.4216874837875366e-01
            4.1998714208602905e-01 -4.6160691976547241e-01</leafValues></_>
        <_>
          <internalNodes>
            1 2 572 -5.7347575202584267e-03 0 -1 594
            -3.7670978344976902e-03 -2 -3 209 7.1778148412704468e-04</internalNodes>
          <leafValues>
            8.6682581901550293e-01 -8.0087584257125854e-01
            -5.0705277919769287e-01 3.4717506170272827e-01</leafValues></_>
        <_>
          <internalNodes>
            1 2 102 -4.0398174314759672e-04 0 -1 215
            9.6240155398845673e-03 -2 -3 504 -1.4329608529806137e-04</internalNodes>
          <leafValues>
            8.4602075815200806e-01 -4.6067774295806885e-01
            4.5882484316825867e-01 -4.8598876595497131e-01</leafValues></_>
        <_>
          <internalNodes>
            1 2 105 -8.0212519969791174e-04 0 -1 673
            1.9185270648449659e-03 -2 -3 176 3.9078682661056519e-02</internalNodes>
          <leafValues>
            6.8005424737930298e-01 -4.8324069380760193e-01
            -3.4690067172050476e-01 8.2427203655242920e-01</leafValues></_>
        <_>
          <internalNodes>
            1 2 645 3.3891212660819292e-03 0 -1 654
            1.0293039667885751e-04 -2 -3 234 2.1107885986566544e-02</internalNodes>
          <leafValues>
            -9.6493378281593323e-02 5.5759221315383911e-01
            -7.2815907001495361e-01 1.</leafValues></_>
        <_>
          <internalNodes>
            1 2 61 1.0059872642159462e-02 0 -1 469
            2.3467250168323517e-02 -2 -3 655 3.3950419165194035e-03</internalNodes>
          <leafValues>
            -3.7860587239265442e-01 3.5058546066284180e-01
            8.6143594980239868e-01 -8.1295770406723022e-01</leafValues></_></weakClassifiers></_></stages>
  <features>
    <_>
      <rects>
        <_>
          0 0 1 3 -1.</_>
        <_>
          0 1 1 1 3.</_></rects>
      <tilted>0</tilted></_>
    <_>
      <rects>
        <_>
          0 0 1 8 -1.</_>
        <_>
          0 4 1 4 2.</_></rects>
      <tilted>0</tilted></_>
    <_>
      <rects>
        <_>
          0 0 3 4 -1.</_>
        <_>
          1 0 1 4 3.</_></rects>
      <tilted>0</tilted></_>
    <_>
      <rects>
        <_>
          0 0 2 11 -1.</_>
        <_>
          1 0 1 11 2.</_></rects>
      <tilted>0</tilted></_>
    <_>
      <rects>
        <_>
          0 0 9 3 -1.</_>
        <_>
          3 0 3 3 3.</_></rects>
      <tilted>0</tilted></_>
    <_>
      <rects>
        <_>
          0 0 6 10 -1.</_>
        <_>
          0 0 3 5 2.</_>
        <_>
          3 5 3 5 2.</_></rects>
      <tilted>0</tilted></_>
    <_>
      <rects>
        <_>
          0 0 9 12 -1.</_>
        <_>
          3 0 3 12 3.</_></rects>
      <tilted>0</tilted></_>
    <_>
      <rects>
        <_>
          0 0 9 18 -1.</_>
        <_>
          3 0 3 18 3.</_></rects>
      <tilted>0</tilted></_>
    <_>
      <rects>
        <_>
          0 0 6 4 -1.</_>
        <_>
          0 2 6 2 2.</_></rects>
      <tilted>0</tilted></_>
    <_>
      <rects>
        <_>
          0 0 12 19 -1.</_>
        <_>
          6 0 6 19 2.</_></rects>
      <tilted>0</tilted></_>
    <_>
      <rects>
        <_>
          0 0 14 2 -1.</_>
        <_>
          7 0 7 2 2.</_></rects>
      <tilted>0</tilted></_>
    <_>
      <rects>
        <_>
          0 0 14 8 -1.</_>
        <_>
          0 0 7 4 2.</_>
        <_>
          7 4 7 4 2.</_></rects>
      <tilted>0</tilted></_>
    <_>
      <rects>
        <_>
          0 0 20 14 -1.</_>
        <_>
          0 0 10 7 2.</_>
        <_>
          10 7 10 7 2.</_></rects>
      <tilted>0</tilted></_>
    <_>
      <rects>
        <_>
          0 0 17 2 -1.</_>
        <_>
          0 1 17 1 2.</_></rects>
      <tilted>0</tilted></_>
    <_>
      <rects>
        <_>
          0 1 1 2 -1.</_>
        <_>
          0 2 1 1 2.</_></rects>
      <tilted>0</tilted></_>
    <_>
      <rects>
        <_>
          0 1 2 4 -1.</_>
        <_>
          1 1 1 4 2.</_></rects>
      <tilted>0</tilted></_>
    <_>
      <rects>
        <_>
          0 1 2 5 -1.</_>
        <_>
          1 1 1 5 2.</_></rects>
      <tilted>0</tilted></_>
    <_>
      <rects>
        <_>
          0 1 8 1 -1.</_>
        <_>
          4 1 4 1 2.</_></rects>
      <tilted>0</tilted></_>
    <_>
      <rects>
        <_>
          0 1 10 12 -1.</_>
        <_>
          5 1 5 12 2.</_></rects>
      <tilted>0</tilted></_>
    <_>
      <rects>
        <_>
          0 1 7 12 -1.</_>
        <_>
          0 7 7 6 2.</_></rects>
      <tilted>0</tilted></_>
    <_>
      <rects>
        <_>
          0 1 19 3 -1.</_>
        <_>
          0 2 19 1 3.</_></rects>
      <tilted>0</tilted></_>
    <_>
      <rects>
        <_>
          0 2 2 12 -1.</_>
        <_>
          0 2 1 6 2.</_>
        <_>
          1 8 1 6 2.</_></rects>
      <tilted>0</tilted></_>
    <_>
      <rects>
        <_>
          0 2 2 18 -1.</_>
        <_>
          0 2 1 9 2.</_>
        <_>
          1 11 1 9 2.</_></rects>
      <tilted>0</tilted></_>
    <_>
      <rects>
        <_>
          0 2 2 12 -1.</_>
        <_>
          0 6 2 4 3.</_></rects>
      <tilted>0</tilted></_>
    <_>
      <rects>
        <_>
          0 2 6 11 -1.</_>
        <_>
          2 2 2 11 3.</_></rects>
      <tilted>0</tilted></_>
    <_>
      <rects>
        <_>
          0 2 6 13 -1.</_>
        <_>
          2 2 2 13 3.</_></rects>
      <tilted>0</tilted></_>
    <_>
      <rects>
        <_>
          0 2 6 18 -1.</_>
        <_>
          2 2 2 18 3.</_></rects>
      <tilted>0</tilted></_>
    <_>
      <rects>
        <_>
          0 2 10 10 -1.</_>
        <_>
          0 2 5 5 2.</_>
        <_>
          5 7 5 5 2.</_></rects>
      <tilted>0</tilted></_>
    <_>
      <rects>
        <_>
          0 2 18 5 -1.</_>
        <_>
          9 2 9 5 2.</_></rects>
      <tilted>0</tilted></_>
    <_>
      <rects>
        <_>
          0 2 20 5 -1.</_>
        <_>
          10 2 10 5 2.</_></rects>
      <tilted>0</tilted></_>
    <_>
      <rects>
        <_>
          0 2 12 12 -1.</_>
        <_>
          0 6 12 4 3.</_></rects>
      <tilted>0</tilted></_>
    <_>
      <rects>
        <_>
          0 3 2 3 -1.</_>
        <_>
          1 3 1 3 2.</_></rects>
      <tilted>0</tilted></_>
    <_>
      <rects>
        <_>
          0 3 1 6 -1.</_>
        <_>
          0 6 1 3 2.</_></rects>
      <tilted>0</tilted></_>
    <_>
      <rects>
        <_>
          0 3 2 6 -1.</_>
        <_>
          1 3 1 6 2.</_></rects>
      <tilted>0</tilted></_>
    <_>
      <rects>
        <_>
          0 3 2 9 -1.</_>
        <_>
          1 3 1 9 2.</_></rects>
      <tilted>0</tilted></_>
    <_>
      <rects>
        <_>
          0 3 6 9 -1.</_>
        <_>
          2 3 2 9 3.</_></rects>
      <tilted>0</tilted></_>
    <_>
      <rects>
        <_>
          0 3 10 10 -1.</_>
        <_>
          5 3 5 10 2.</_></rects>
      <tilted>0</tilted></_>
    <_>
      <rects>
        <_>
          0 3 18 8 -1.</_>
        <_>
          6 3 6 8 3.</_></rects>
      <tilted>0</tilted></_>
    <_>
      <rects>
        <_>
          0 4 1 6 -1.</_>
        <_>
          0 7 1 3 2.</_></rects>
      <tilted>0</tilted></_>
    <_>
      <rects>
        <_>
          0 4 2 8 -1.</_>
        <_>
          1 4 1 8 2.</_></rects>
      <tilted>0</tilted></_>
    <_>
      <rects>
        <_>
          0 4 2 3 -1.</_>
        <_>
          0 5 2 1 3.</_></rects>
      <tilted>0</tilted></_>
    <_>
      <rects>
        <_>
          0 4 6 16 -1.</_>
        <_>
          0 4 3 8 2.</_>
        <_>
          3 12 3 8 2.</_></rects>
      <tilted>0</tilted></_>
    <_>
      <rects>
        <_>
          0 4 16 10 -1.</_>
        <_>
          8 4 8 10 2.</_></rects>
      <tilted>0</tilted></_>
    <_>
      <rects>
        <_>
          0 5 2 12 -1.</_>
        <_>
          0 5 1 6 2.</_>
        <_>
          1 11 1 6 2.</_></rects>
      <tilted>0</tilted></_>
    <_>
      <rects>
        <_>
          0 5 6 2 -1.</_>
        <_>
          3 5 3 2 2.</_></rects>
      <tilted>0</tilted></_>
    <_>
      <rects>
        <_>
          0 5 9 6 -1.</_>
        <_>
          0 8 9 3 2.</_></rects>
      <tilted>0</tilted></_>
    <_>
      <rects>
        <_>
          0 5 16 6 -1.</_>
        <_>
          0 7 16 2 3.</_></rects>
      <tilted>0</tilted></_>
    <_>
      <rects>
        <_>
          0 6 2 2 -1.</_>
        <_>
          1 6 1 2 2.</_></rects>
      <tilted>0</tilted></_>
    <_>
      <rects>
        <_>
          0 6 6 13 -1.</_>
        <_>
          2 6 2 13 3.</_></rects>
      <tilted>0</tilted></_>
    <_>
      <rects>
        <_>
          0 6 18 14 -1.</_>
        <_>
          0 6 9 7 2.</_>
        <_>
          9 13 9 7 2.</_></rects>
      <tilted>0</tilted></_>
    <_>
      <rects>
        <_>
          0 7 2 8 -1.</_>
        <_>
          1 7 1 8 2.</_></rects>
      <tilted>0</tilted></_>
    <_>
      <rects>
        <_>
          0 7 9 2 -1.</_>
        <_>
          3 7 3 2 3.</_></rects>
      <tilted>0</tilted></_>
    <_>
      <rects>
        <_>
          0 7 18 2 -1.</_>
        <_>
          0 7 9 1 2.</_>
        <_>
          9 8 9 1 2.</_></rects>
      <tilted>0</tilted></_>
    <_>
      <rects>
        <_>
          0 7 15 12 -1.</_>
        <_>
          0 11 15 4 3.</_></rects>
      <tilted>0</tilted></_>
    <_>
      <rects>
        <_>
          0 7 17 4 -1.</_>
        <_>
          0 9 17 2 2.</_></rects>
      <tilted>0</tilted></_>
    <_>
      <rects>
        <_>
          0 8 1 12 -1.</_>
        <_>
          0 14 1 6 2.</_></rects>
      <tilted>0</tilted></_>
    <_>
      <rects>
        <_>
          0 8 6 3 -1.</_>
        <_>
          2 8 2 3 3.</_></rects>
      <tilted>0</tilted></_>
    <_>
      <rects>
        <_>
          0 8 3 12 -1.</_>
        <_>
          0 14 3 6 2.</_></rects>
      <tilted>0</tilted></_>
    <_>
      <rects>
        <_>
          0 8 8 5 -1.</_>
        <_>
          4 8 4 5 2.</_></rects>
      <tilted>0</tilted></_>
    <_>
      <rects>
        <_>
          0 9 14 8 -1.</_>
        <_>
          7 9 7 8 2.</_></rects>
      <tilted>0</tilted></_>
    <_>
      <rects>
        <_>
          0 9 11 6 -1.</_>
        <_>
          0 11 11 2 3.</_></rects>
      <tilted>0</tilted></_>
    <_>
      <rects>
        <_>
          0 9 16 3 -1.</_>
        <_>
          0 10 16 1 3.</_></rects>
      <tilted>0</tilted></_>
    <_>
      <rects>
        <_>
          0 10 1 8 -1.</_>
        <_>
          0 14 1 4 2.</_></rects>
      <tilted>0</tilted></_>
    <_>
      <rects>
        <_>
          0 10 9 3 -1.</_>
        <_>
          3 10 3 3 3.</_></rects>
      <tilted>0</tilted></_>
    <_>
      <rects>
        <_>
          0 10 5 10 -1.</_>
        <_>
          0 15 5 5 2.</_></rects>
      <tilted>0</tilted></_>
    <_>
      <rects>
        <_>
          0 11 1 6 -1.</_>
        <_>
          0 13 1 2 3.</_></rects>
      <tilted>0</tilted></_>
    <_>
      <rects>
        <_>
          0 11 3 6 -1.</_>
        <_>
          1 11 1 6 3.</_></rects>
      <tilted>0</tilted></_>
    <_>
      <rects>
        <_>
          0 11 4 5 -1.</_>
        <_>
          2 11 2 5 2.</_></rects>
      <tilted>0</tilted></_>
    <_>
      <rects>
        <_>
          0 11 6 7 -1.</_>
        <_>
          2 11 2 7 3.</_></rects>
      <tilted>0</tilted></_>
    <_>
      <rects>
        <_>
          0 11 6 4 -1.</_>
        <_>
          0 11 3 2 2.</_>
        <_>
          3 13 3 2 2.</_></rects>
      <tilted>0</tilted></_>
    <_>
      <rects>
        <_>
          0 11 7 3 -1.</_>
        <_>
          0 12 7 1 3.</_></rects>
      <tilted>0</tilted></_>
    <_>
      <rects>
        <_>
          0 11 14 6 -1.</_>
        <_>
          7 11 7 6 2.</_></rects>
      <tilted>0</tilted></_>
    <_>
      <rects>
        <_>
          0 12 3 5 -1.</_>
        <_>
          1 12 1 5 3.</_></rects>
      <tilted>0</tilted></_>
    <_>
      <rects>
        <_>
          0 12 6 6 -1.</_>
        <_>
          0 15 6 3 2.</_></rects>
      <tilted>0</tilted></_>
    <_>
      <rects>
        <_>
          0 13 8 4 -1.</_>
        <_>
          0 13 4 2 2.</_>
        <_>
          4 15 4 2 2.</_></rects>
      <tilted>0</tilted></_>
    <_>
      <rects>
        <_>
          0 13 5 4 -1.</_>
        <_>
          0 15 5 2 2.</_></rects>
      <tilted>0</tilted></_>
    <_>
      <rects>
        <_>
          0 13 12 6 -1.</_>
        <_>
          0 16 12 3 2.</_></rects>
      <tilted>0</tilted></_>
    <_>
      <rects>
        <_>
          0 14 4 2 -1.</_>
        <_>
          2 14 2 2 2.</_></rects>
      <tilted>0</tilted></_>
    <_>
      <rects>
        <_>
          0 14 15 3 -1.</_>
        <_>
          0 15 15 1 3.</_></rects>
      <tilted>0</tilted></_>
    <_>
      <rects>
        <_>
          0 15 6 3 -1.</_>
        <_>
          2 15 2 3 3.</_></rects>
      <tilted>0</tilted></_>
    <_>
      <rects>
        <_>
          0 15 12 1 -1.</_>
        <_>
          4 15 4 1 3.</_></rects>
      <tilted>0</tilted></_>
    <_>
      <rects>
        <_>
          0 17 8 1 -1.</_>
        <_>
          4 17 4 1 2.</_></rects>
      <tilted>0</tilted></_>
    <_>
      <rects>
        <_>
          0 18 12 2 -1.</_>
        <_>
          6 18 6 2 2.</_></rects>
      <tilted>0</tilted></_>
    <_>
      <rects>
        <_>
          1 0 1 4 -1.</_>
        <_>
          1 2 1 2 2.</_></rects>
      <tilted>0</tilted></_>
    <_>
      <rects>
        <_>
          1 0 9 17 -1.</_>
        <_>
          4 0 3 17 3.</_></rects>
      <tilted>0</tilted></_>
    <_>
      <rects>
        <_>
          1 0 8 12 -1.</_>
        <_>
          1 0 4 6 2.</_>
        <_>
          5 6 4 6 2.</_></rects>
      <tilted>0</tilted></_>
    <_>
      <rects>
        <_>
          1 0 16 6 -1.</_>
        <_>
          1 2 16 2 3.</_></rects>
      <tilted>0</tilted></_>
    <_>
      <rects>
        <_>
          1 1 3 1 -1.</_>
        <_>
          2 1 1 1 3.</_></rects>
      <tilted>0</tilted></_>
    <_>
      <rects>
        <_>
          1 1 6 4 -1.</_>
        <_>
          4 1 3 4 2.</_></rects>
      <tilted>0</tilted></_>
    <_>
      <rects>
        <_>
          1 1 12 4 -1.</_>
        <_>
          1 1 6 2 2.</_>
        <_>
          7 3 6 2 2.</_></rects>
      <tilted>0</tilted></_>
    <_>
      <rects>
        <_>
          1 1 12 8 -1.</_>
        <_>
          1 1 6 4 2.</_>
        <_>
          7 5 6 4 2.</_></rects>
      <tilted>0</tilted></_>
    <_>
      <rects>
        <_>
          1 1 18 14 -1.</_>
        <_>
          7 1 6 14 3.</_></rects>
      <tilted>0</tilted></_>
    <_>
      <rects>
        <_>
          1 2 1 6 -1.</_>
        <_>
          1 5 1 3 2.</_></rects>
      <tilted>0</tilted></_>
    <_>
      <rects>
        <_>
          1 2 17 6 -1.</_>
        <_>
          1 4 17 2 3.</_></rects>
      <tilted>0</tilted></_>
    <_>
      <rects>
        <_>
          1 3 1 2 -1.</_>
        <_>
          1 4 1 1 2.</_></rects>
      <tilted>0</tilted></_>
    <_>
      <rects>
        <_>
          1 3 3 11 -1.</_>
        <_>
          2 3 1 11 3.</_></rects>
      <tilted>0</tilted></_>
    <_>
      <rects>
        <_>
          1 3 4 8 -1.</_>
        <_>
          1 3 2 4 2.</_>
        <_>
          3 7 2 4 2.</_></rects>
      <tilted>0</tilted></_>
    <_>
      <rects>
        <_>
          1 3 14 2 -1.</_>
        <_>
          1 3 7 1 2.</_>
        <_>
          8 4 7 1 2.</_></rects>
      <tilted>0</tilted></_>
    <_>
      <rects>
        <_>
          1 3 8 14 -1.</_>
        <_>
          1 10 8 7 2.</_></rects>
      <tilted>0</tilted></_>
    <_>
      <rects>
        <_>
          1 3 13 3 -1.</_>
        <_>
          1 4 13 1 3.</_></rects>
      <tilted>0</tilted></_>
    <_>
      <rects>
        <_>
          1 4 2 6 -1.</_>
        <_>
          1 6 2 2 3.</_></rects>
      <tilted>0</tilted></_>
    <_>
      <rects>
        <_>
          1 4 9 9 -1.</_>
        <_>
          4 4 3 9 3.</_></rects>
      <tilted>0</tilted></_>
    <_>
      <rects>
        <_>
          1 4 12 2 -1.</_>
        <_>
          1 4 6 1 2.</_>
        <_>
          7 5 6 1 2.</_></rects>
      <tilted>0</tilted></_>
    <_>
      <rects>
        <_>
          1 4 18 7 -1.</_>
        <_>
          7 4 6 7 3.</_></rects>
      <tilted>0</tilted></_>
    <_>
      <rects>
        <_>
          1 4 14 4 -1.</_>
        <_>
          1 4 7 2 2.</_>
        <_>
          8 6 7 2 2.</_></rects>
      <tilted>0</tilted></_>
    <_>
      <rects>
        <_>
          1 4 15 3 -1.</_>
        <_>
          1 5 15 1 3.</_></rects>
      <tilted>0</tilted></_>
    <_>
      <rects>
        <_>
          1 5 9 7 -1.</_>
        <_>
          4 5 3 7 3.</_></rects>
      <tilted>0</tilted></_>
    <_>
      <rects>
        <_>
          1 6 2 8 -1.</_>
        <_>
          1 10 2 4 2.</_></rects>
      <tilted>0</tilted></_>
    <_>
      <rects>
        <_>
          1 6 6 4 -1.</_>
        <_>
          3 6 2 4 3.</_></rects>
      <tilted>0</tilted></_>
    <_>
      <rects>
        <_>
          1 6 5 3 -1.</_>
        <_>
          1 7 5 1 3.</_></rects>
      <tilted>0</tilted></_>
    <_>
      <rects>
        <_>
          1 6 10 6 -1.</_>
        <_>
          1 6 5 3 2.</_>
        <_>
          6 9 5 3 2.</_></rects>
      <tilted>0</tilted></_>
    <_>
      <rects>
        <_>
          1 7 1 4 -1.</_>
        <_>
          1 9 1 2 2.</_></rects>
      <tilted>0</tilted></_>
    <_>
      <rects>
        <_>
          1 7 6 3 -1.</_>
        <_>
          3 7 2 3 3.</_></rects>
      <tilted>0</tilted></_>
    <_>
      <rects>
        <_>
          1 7 6 1 -1.</_>
        <_>
          4 7 3 1 2.</_></rects>
      <tilted>0</tilted></_>
    <_>
      <rects>
        <_>
          1 7 9 1 -1.</_>
        <_>
          4 7 3 1 3.</_></rects>
      <tilted>0</tilted></_>
    <_>
      <rects>
        <_>
          1 7 6 5 -1.</_>
        <_>
