<?xml version="1.0"?>
<opencv_storage>
<cascade>
  <stageType>BOOST</stageType>
  <featureType>HAAR</featureType>
  <height>32</height>
  <width>32</width>
  <stageParams>
    <boostType>GAB</boostType>
    <minHitRate>9.9000000953674316e-01</minHitRate>
    <maxFalseAlarm>1.0000000149011612e-01</maxFalseAlarm>
    <weightTrimRate>9.4999999999999996e-01</weightTrimRate>
    <maxDepth>2</maxDepth>
    <maxWeakCount>100</maxWeakCount></stageParams>
  <featureParams>
    <maxCatCount>0</maxCatCount>
    <featSize>1</featSize>
    <mode>BASIC</mode></featureParams>
  <stageNum>8</stageNum>
  <stages>
    <!-- stage 0 -->
    <_>
      <maxWeakCount>5</maxWeakCount>
      <stageThreshold>-6.4172498881816864e-02</stageThreshold>
      <weakClassifiers>
        <_>
          <internalNodes>
            1 2 122 -1.2895116924482863e-05 0 -1 1
            -2.3137818276882172e-01 -2 -3 60 -1.3762100599706173e-02</internalNodes>
          <leafValues>
            -6.2962961196899414e-01 8.7634068727493286e-01
            6.9411766529083252e-01 -7.7536231279373169e-01</leafValues></_>
        <_>
          <internalNodes>
            1 2 47 -6.0614652931690216e-02 0 -1 65
            -2.1058562397956848e-01 -2 -3 21 -2.7031241916120052e-03</internalNodes>
          <leafValues>
            -8.1308960914611816e-01 9.3549972772598267e-01
            6.3306212425231934e-01 -6.4601558446884155e-01</leafValues></_>
        <_>
          <internalNodes>
            1 2 51 2.3257536668097600e-05 0 -1 11
            -1.2362478300929070e-02 -2 -3 97 5.4649991216138005e-04</internalNodes>
          <leafValues>
            7.2266721725463867e-01 -6.7888742685317993e-01
            8.5450422763824463e-01 -4.2817607522010803e-01</leafValues></_>
        <_>
          <internalNodes>
            1 2 126 -9.1615347628248855e-06 0 -1 55
            1.4763639774173498e-03 -2 -3 13 -7.0017203688621521e-03</internalNodes>
          <leafValues>
            -2.3437193036079407e-01 7.9303950071334839e-01
            7.6667016744613647e-01 -7.6382637023925781e-01</leafValues></_>
        <_>
          <internalNodes>
            1 2 49 -6.1300983652472496e-03 0 -1 113
            7.1424519410356879e-04 -2 -3 132 1.9596731290221214e-02</internalNodes>
          <leafValues>
            8.5041540861129761e-01 -7.2032004594802856e-01
            -6.6031593084335327e-01 6.2560075521469116e-01</leafValues></_></weakClassifiers></_>
    <!-- stage 1 -->
    <_>
      <maxWeakCount>6</maxWeakCount>
      <stageThreshold>3.7547817826271057e-01</stageThreshold>
      <weakClassifiers>
        <_>
          <internalNodes>
            1 2 80 -4.5798651990480721e-04 0 -1 12
            -2.1393945440649986e-02 -2 -3 59 2.7016329113394022e-04</internalNodes>
          <leafValues>
            1. -9.4520545005798340e-01 6.0518730431795120e-02
            8.7341773509979248e-01</leafValues></_>
        <_>
          <internalNodes>
            1 2 64 2.1900108549743891e-05 0 -1 32
            -3.0670981854200363e-02 -2 -3 3 3.0481892824172974e-01</internalNodes>
          <leafValues>
            8.6467730998992920e-01 -5.5469363927841187e-01
            8.4751963615417480e-01 -4.0251234173774719e-01</leafValues></_>
        <_>
          <internalNodes>
            1 2 35 1.2814110144972801e-02 0 -1 73 1.7923433915711939e-05
            -2 -3 88 9.9370645330054685e-06</internalNodes>
          <leafValues>
            -5.4944056272506714e-01 5.0966531038284302e-01
            -5.3937739133834839e-01 9.1364371776580811e-01</leafValues></_>
        <_>
          <internalNodes>
            1 2 123 1.9100534700555727e-05 0 -1 45
            2.2087009710958228e-05 -2 -3 117 7.8593567013740540e-04</internalNodes>
          <leafValues>
            -4.5690646767616272e-01 7.5646650791168213e-01
            8.0196541547775269e-01 -8.2324349880218506e-01</leafValues></_>
        <_>
          <internalNodes>
            1 2 146 2.1386549633461982e-05 0 -1 146
            -2.2219868696993217e-05 -2 -3 75 -8.8336726184934378e-04</internalNodes>
          <leafValues>
            3.9642062783241272e-01 -7.3997968435287476e-01
            -9.7375392913818359e-01 8.4529221057891846e-01</leafValues></_>
        <_>
          <internalNodes>
            1 2 37 -1.2325730640441179e-03 0 -1 94
            -4.4462498044595122e-04 -2 -3 43 4.3648582504829392e-05</internalNodes>
          <leafValues>
            -8.5422688722610474e-01 7.0301645994186401e-01
            -8.3839821815490723e-01 5.7458806037902832e-01</leafValues></_></weakClassifiers></_>
    <!-- stage 2 -->
    <_>
      <maxWeakCount>5</maxWeakCount>
      <stageThreshold>-4.9367230385541916e-02</stageThreshold>
      <weakClassifiers>
        <_>
          <internalNodes>
            1 2 62 -2.4023232981562614e-03 0 -1 96
            -5.3823232883587480e-04 -2 -3 68 8.4965601563453674e-03</internalNodes>
          <leafValues>
            -6.3636362552642822e-01 9.0495586395263672e-01
            -8.9062500000000000e-01 6.0185188055038452e-01</leafValues></_>
        <_>
          <internalNodes>
            1 2 130 1.0739032179117203e-02 0 -1 22
            -2.0195420831441879e-02 -2 -3 95 1.1969069018959999e-03</internalNodes>
          <leafValues>
            8.4845191240310669e-01 -4.3005928397178650e-01
            9.0480279922485352e-01 -8.7013459205627441e-01</leafValues></_>
        <_>
          <internalNodes>
            1 2 50 -1.6493678092956543e-02 0 -1 106
            -4.3726305011659861e-04 -2 -3 53 -5.9971883893013000e-03</internalNodes>
          <leafValues>
            -2.4770216643810272e-01 8.8408756256103516e-01
            9.3322271108627319e-01 -4.8262155055999756e-01</leafValues></_>
        <_>
          <internalNodes>
            1 2 98 -5.0780607853084803e-04 0 -1 39
            -2.5390196591615677e-02 -2 -3 112 -1.0571691746008582e-05</internalNodes>
          <leafValues>
            6.6591286659240723e-01 -7.7003264427185059e-01
            8.0938625335693359e-01 -4.3664151430130005e-01</leafValues></_>
        <_>
          <internalNodes>
            1 2 38 -5.1639834418892860e-03 0 -1 102
            -3.8483616663143039e-04 -2 -3 58 -1.1472292244434357e-02</internalNodes>
          <leafValues>
            -6.8722832202911377e-01 7.2839033603668213e-01
            5.8596527576446533e-01 -6.3766008615493774e-01</leafValues></_></weakClassifiers></_>
    <!-- stage 3 -->
    <_>
      <maxWeakCount>7</maxWeakCount>
      <stageThreshold>3.4031611680984497e-01</stageThreshold>
      <weakClassifiers>
        <_>
          <internalNodes>
            1 2 109 -1.0368618859502021e-05 0 -1 120
            -4.4242318836040795e-04 -2 -3 99 -1.0280663445882965e-05</internalNodes>
          <leafValues>
            -3.7931033968925476e-01 8.8575178384780884e-01
            4.5312500000000000e-01 -7.4509805440902710e-01</leafValues></_>
        <_>
          <internalNodes>
            1 2 48 5.9371981769800186e-03 0 -1 10
            -3.0846375972032547e-02 -2 -3 74 -6.7726505221799016e-04</internalNodes>
          <leafValues>
            6.2123888731002808e-01 -5.5090045928955078e-01
            -8.1207603216171265e-01 8.2668048143386841e-01</leafValues></_>
        <_>
          <internalNodes>
            1 2 131 -9.2693241313099861e-03 0 -1 76
            -6.0610257787629962e-04 -2 -3 18 -2.8850426897406578e-03</internalNodes>
          <leafValues>
            -9.7745716571807861e-01 8.8654851913452148e-01
            4.0688127279281616e-01 -4.7274470329284668e-01</leafValues></_>
        <_>
          <internalNodes>
            1 2 89 -3.4547210088931024e-04 0 -1 20
            -7.8331001102924347e-02 -2 -3 77 -5.5506924400106072e-04</internalNodes>
          <leafValues>
            1. -9.0192252397537231e-01 -8.7097144126892090e-01
            4.2293184995651245e-01</leafValues></_>
        <_>
          <internalNodes>
            1 2 137 2.5676656514406204e-02 0 -1 148
            3.2330382964573801e-05 -2 -3 54 -3.6521501839160919e-02</internalNodes>
          <leafValues>
            -4.9402946233749390e-01 4.5339587330818176e-01 -1.
            9.8047715425491333e-01</leafValues></_>
        <_>
          <internalNodes>
            1 2 8 1.1147405020892620e-03 0 -1 85 -9.4725843518972397e-04
            -2 -3 0 1.0014344006776810e-02</internalNodes>
          <leafValues>
            -8.1931954622268677e-01 4.9926620721817017e-01
            -7.4415576457977295e-01 5.1832264661788940e-01</leafValues></_>
        <_>
          <internalNodes>
            1 2 139 9.4182745669968426e-05 0 -1 149
            4.0792201616568491e-05 -2 -3 105 -1.3381706085056067e-03</internalNodes>
          <leafValues>
            -5.7631611824035645e-01 5.3245711326599121e-01
            -8.1116074323654175e-01 7.1039324998855591e-01</leafValues></_></weakClassifiers></_>
    <!-- stage 4 -->
    <_>
      <maxWeakCount>6</maxWeakCount>
      <stageThreshold>-2.1934609115123749e-01</stageThreshold>
      <weakClassifiers>
        <_>
          <internalNodes>
            1 2 36 7.8346458030864596e-04 0 -1 23
            -3.9867814630270004e-03 -2 -3 69 -1.5309958253055811e-03</internalNodes>
          <leafValues>
            7.7083331346511841e-01 -7.7777779102325439e-01
            -5.2542370557785034e-01 8.5858583450317383e-01</leafValues></_>
        <_>
          <internalNodes>
            1 2 46 1.1450852267444134e-02 0 -1 67
            -8.3719622343778610e-03 -2 -3 82 -2.3528653400717303e-05</internalNodes>
          <leafValues>
            9.1406148672103882e-01 -4.7636902332305908e-01
            9.0218836069107056e-01 -3.3304622769355774e-01</leafValues></_>
        <_>
          <internalNodes>
            1 2 17 1.1079560965299606e-01 0 -1 34 7.2098155505955219e-03
            -2 -3 104 -1.6208720207214355e-01</internalNodes>
          <leafValues>
            -4.0332645177841187e-01 6.1564022302627563e-01
            -6.1039668321609497e-01 9.3311351537704468e-01</leafValues></_>
        <_>
          <internalNodes>
            1 2 135 -9.9572760518640280e-04 0 -1 100
            -5.6312722153961658e-04 -2 -3 129 3.0595983844250441e-04</internalNodes>
          <leafValues>
            -9.0255373716354370e-01 8.7805575132369995e-01
            -4.8336082696914673e-01 5.7695072889328003e-01</leafValues></_>
        <_>
          <internalNodes>
            1 2 71 -1.1355632450431585e-03 0 -1 118
            2.0939733367413282e-03 -2 -3 44 -9.8227080889046192e-04</internalNodes>
          <leafValues>
            8.5325336456298828e-01 -9.1852378845214844e-01
            2.7498137950897217e-01 -6.7385888099670410e-01</leafValues></_>
        <_>
          <internalNodes>
            1 2 141 -1.1847999878227711e-02 0 -1 136
            1.4774759300053120e-02 -2 -3 145 1.4125976013019681e-03</internalNodes>
          <leafValues>
            9.1115653514862061e-01 -7.3605662584304810e-01
            -4.1957417130470276e-01 5.0975775718688965e-01</leafValues></_></weakClassifiers></_>
    <!-- stage 5 -->
    <_>
      <maxWeakCount>7</maxWeakCount>
      <stageThreshold>2.7548054233193398e-02</stageThreshold>
      <weakClassifiers>
        <_>
          <internalNodes>
            1 2 110 3.6901450948789716e-04 0 -1 107
            3.5587948514148593e-04 -2 -3 25 2.4367704987525940e-02</internalNodes>
          <leafValues>
            8.3312880992889404e-01 -9.6491229534149170e-01
            -7.5728154182434082e-01 4.9532711505889893e-01</leafValues></_>
        <_>
          <internalNodes>
            1 2 121 -2.3134907678468153e-05 0 -1 111
            -6.6423800308257341e-04 -2 -3 83 -2.6074992492794991e-03</internalNodes>
          <leafValues>
            -5.0401735305786133e-01 7.2932463884353638e-01
            3.9874833822250366e-01 -6.9177949428558350e-01</leafValues></_>
        <_>
          <internalNodes>
            1 2 33 2.4631068110466003e-02 0 -1 119
            -8.5409765597432852e-04 -2 -3 26 -7.7690720558166504e-02</internalNodes>
          <leafValues>
            -7.3720538616180420e-01 8.6411219090223312e-03
            -2.3272925615310669e-01 8.7971985340118408e-01</leafValues></_>
        <_>
          <internalNodes>
            1 2 127 -2.3572523787152022e-05 0 -1 127
            -5.3922610823065042e-04 -2 -3 81 -2.3366319510387257e-05</internalNodes>
          <leafValues>
            -1.5306299924850464e-01 7.3103958368301392e-01
            1.3766729831695557e-01 -8.4899592399597168e-01</leafValues></_>
        <_>
          <internalNodes>
            1 2 40 4.6558966278098524e-04 0 -1 2 -2.0554050803184509e-02
            -2 -3 79 1.9267305106041022e-05</internalNodes>
          <leafValues>
            3.9669677615165710e-01 -7.0439690351486206e-01
            -6.0071623325347900e-01 6.5194988250732422e-01</leafValues></_>
        <_>
          <internalNodes>
            1 2 86 2.4997856235131621e-04 0 -1 9 -4.9611471593379974e-02
            -2 -3 101 -2.8973489999771118e-02</internalNodes>
          <leafValues>
            -4.0319481492042542e-01 5.1146370172500610e-01
            8.5162907838821411e-01 -8.9859265089035034e-01</leafValues></_>
        <_>
          <internalNodes>
            1 2 92 6.4059661235660315e-04 0 -1 19 1.4416541904211044e-02
            -2 -3 90 6.6044684499502182e-03</internalNodes>
          <leafValues>
            -7.1021223068237305e-01 6.1323875188827515e-01
            4.6295467019081116e-01 -6.9926524162292480e-01</leafValues></_></weakClassifiers></_>
    <!-- stage 6 -->
    <_>
      <maxWeakCount>8</maxWeakCount>
      <stageThreshold>2.2672979533672333e-01</stageThreshold>
      <weakClassifiers>
        <_>
          <internalNodes>
            1 2 4 1.4632722735404968e-01 0 -1 31 1.1233872175216675e-01
            -2 -3 115 -1.5334992203861475e-03</internalNodes>
          <leafValues>
            7.9330253601074219e-01 -7.6744186878204346e-01
            9.3750000000000000e-01 -8.8601034879684448e-01</leafValues></_>
        <_>
          <internalNodes>
            1 2 63 -1.4761243946850300e-03 0 -1 57
            -1.5282387903425843e-04 -2 -3 52 1.3291293289512396e-03</internalNodes>
          <leafValues>
            -6.6778135299682617e-01 6.5572065114974976e-01
            -6.8867963552474976e-01 4.2113563418388367e-01</leafValues></_>
        <_>
          <internalNodes>
            1 2 138 -1.5007854672148824e-03 0 -1 80
            -4.1734700062079355e-05 -2 -3 144 1.9537389744073153e-04</internalNodes>
          <leafValues>
            -5.5871629714965820e-01 7.4306172132492065e-01
            -5.6404823064804077e-01 3.3434486389160156e-01</leafValues></_>
        <_>
          <internalNodes>
            1 2 124 1.1897186050191522e-03 0 -1 140
            1.0577375069260597e-03 -2 -3 41 2.5410484522581100e-03</internalNodes>
          <leafValues>
            -6.6120523214340210e-01 4.4433993101119995e-01
            -7.2490744292736053e-02 7.5860393047332764e-01</leafValues></_>
        <_>
          <internalNodes>
            1 2 29 1.4522295678034425e-03 0 -1 30 4.2580827139317989e-03
            -2 -3 6 -7.2691246867179871e-02</internalNodes>
          <leafValues>
            -4.4894078373908997e-01 5.6682425737380981e-01
            -7.6192051172256470e-01 7.2379720211029053e-01</leafValues></_>
        <_>
          <internalNodes>
            1 2 103 4.5290319249033928e-03 0 -1 147
            1.1458732187747955e-03 -2 -3 27 2.6359128952026367e-01</internalNodes>
          <leafValues>
            -6.0697960853576660e-01 2.2551737725734711e-01
            6.2663769721984863e-01 -9.9030125141143799e-01</leafValues></_>
        <_>
          <internalNodes>
            1 2 72 -1.6292191576212645e-03 0 -1 14
            -5.6884072721004486e-02 -2 -3 24 1.8857177346944809e-03</internalNodes>
          <leafValues>
            -8.7965905666351318e-01 8.9243733882904053e-01
            -3.4076252579689026e-01 7.0265936851501465e-01</leafValues></_>
        <_>
          <internalNodes>
            1 2 133 -7.8515466302633286e-03 0 -1 134
            -2.9785227961838245e-03 -2 -3 125 6.6636165138334036e-04</internalNodes>
          <leafValues>
            7.8134238719940186e-01 -8.3581244945526123e-01
            3.8398247957229614e-01 -8.3885860443115234e-01</leafValues></_></weakClassifiers></_>
    <!-- stage 7 -->
    <_>
      <maxWeakCount>7</maxWeakCount>
      <stageThreshold>-9.8471440374851227e-02</stageThreshold>
      <weakClassifiers>
        <_>
          <internalNodes>
            1 2 93 2.8600986115634441e-04 0 -1 5 3.1187635660171509e-01
            -2 -3 78 -1.7373861744999886e-02</internalNodes>
          <leafValues>
            8.2635468244552612e-01 -4.9532711505889893e-01
            4.4230768084526062e-01 -8.1818181276321411e-01</leafValues></_>
        <_>
          <internalNodes>
            1 2 70 -2.5717555545270443e-03 0 -1 56
            2.9636987019330263e-03 -2 -3 66 5.0372006371617317e-03</internalNodes>
          <leafValues>
            -2.3515269160270691e-01 7.3541885614395142e-01
            -7.7084892988204956e-01 3.2105639576911926e-01</leafValues></_>
        <_>
          <internalNodes>
            1 2 7 6.9403699599206448e-03 0 -1 16 2.5412744283676147e-01
            -2 -3 61 -3.1425125896930695e-02</internalNodes>
          <leafValues>
            5.9250366687774658e-01 -8.7332928180694580e-01
            1.4183765649795532e-01 -7.6581001281738281e-01</leafValues></_>
        <_>
          <internalNodes>
            1 2 28 1.7198943533003330e-03 0 -1 116
            2.5572104379534721e-02 -2 -3 87 4.5544939348474145e-04</internalNodes>
          <leafValues>
            -5.3651601076126099e-01 5.5928778648376465e-01
            7.6192891597747803e-01 -7.3160183429718018e-01</leafValues></_>
        <_>
          <internalNodes>
            1 2 142 -5.3456742316484451e-03 0 -1 114
            -5.3772376850247383e-04 -2 -3 128 -1.3886753004044294e-03</internalNodes>
          <leafValues>
            -6.9948500394821167e-01 7.9706609249114990e-01
            4.8394304513931274e-01 -4.8321864008903503e-01</leafValues></_>
        <_>
          <internalNodes>
            1 2 108 1.1948292376473546e-04 0 -1 91
            -5.3714134264737368e-04 -2 -3 143 3.5803328501060605e-04</internalNodes>
          <leafValues>
            -6.0493212938308716e-01 4.6426245570182800e-01
            -7.2338604927062988e-01 6.8138390779495239e-01</leafValues></_>
        <_>
          <internalNodes>
            1 2 15 4.2609153315424919e-03 0 -1 42 6.8920608609914780e-03
            -2 -3 84 2.6685375720262527e-02</internalNodes>
          <leafValues>
            -5.0962793827056885e-01 4.0159967541694641e-01
            7.1854978799819946e-01 -9.8520046472549438e-01</leafValues></_></weakClassifiers></_></stages>
  <features>
    <_>
      <rects>
        <_>
          0 2 12 10 -1.</_>
        <_>
          0 2 6 5 2.</_>
        <_>
          6 7 6 5 2.</_></rects>
      <tilted>0</tilted></_>
    <_>
      <rects>
        <_>
          0 4 32 13 -1.</_>
        <_>
          16 4 16 13 2.</_></rects>
      <tilted>0</tilted></_>
    <_>
      <rects>
        <_>
          0 7 18 7 -1.</_>
        <_>
          6 7 6 7 3.</_></rects>
      <tilted>0</tilted></_>
    <_>
      <rects>
        <_>
          0 7 32 24 -1.</_>
        <_>
          16 7 16 24 2.</_></rects>
      <tilted>0</tilted></_>
    <_>
      <rects>
        <_>
          0 12 22 10 -1.</_>
        <_>
          11 12 11 10 2.</_></rects>
      <tilted>0</tilted></_>
    <_>
      <rects>
        <_>
          0 12 32 17 -1.</_>
        <_>
          16 12 16 17 2.</_></rects>
      <tilted>0</tilted></_>
    <_>
      <rects>
        <_>
          0 25 24 5 -1.</_>
        <_>
          8 25 8 5 3.</_></rects>
      <tilted>0</tilted></_>
    <_>
      <rects>
        <_>
          1 0 2 21 -1.</_>
        <_>
          1 7 2 7 3.</_></rects>
      <tilted>0</tilted></_>
    <_>
      <rects>
        <_>
          1 1 18 1 -1.</_>
        <_>
          10 1 9 1 2.</_></rects>
      <tilted>0</tilted></_>
    <_>
      <rects>
        <_>
          1 1 28 10 -1.</_>
        <_>
          15 1 14 10 2.</_></rects>
      <tilted>0</tilted></_>
    <_>
      <rects>
        <_>
          1 7 15 12 -1.</_>
        <_>
          6 7 5 12 3.</_></rects>
      <tilted>0</tilted></_>
    <_>
      <rects>
        <_>
          1 9 12 7 -1.</_>
        <_>
          5 9 4 7 3.</_></rects>
      <tilted>0</tilted></_>
    <_>
      <rects>
        <_>
          1 10 5 9 -1.</_>
        <_>
          1 13 5 3 3.</_></rects>
      <tilted>0</tilted></_>
    <_>
      <rects>
        <_>
          1 12 6 7 -1.</_>
        <_>
          4 12 3 7 2.</_></rects>
      <tilted>0</tilted></_>
    <_>
      <rects>
        <_>
          1 15 22 4 -1.</_>
        <_>
          12 15 11 4 2.</_></rects>
      <tilted>0</tilted></_>
    <_>
      <rects>
        <_>
          1 18 9 12 -1.</_>
        <_>
          4 18 3 12 3.</_></rects>
      <tilted>0</tilted></_>
    <_>
      <rects>
        <_>
          2 1 9 30 -1.</_>
        <_>
          2 11 9 10 3.</_></rects>
      <tilted>0</tilted></_>
    <_>
      <rects>
        <_>
          2 7 30 9 -1.</_>
        <_>
          12 7 10 9 3.</_></rects>
      <tilted>0</tilted></_>
    <_>
      <rects>
        <_>
          2 10 6 8 -1.</_>
        <_>
          2 10 3 4 2.</_>
        <_>
          5 14 3 4 2.</_></rects>
      <tilted>0</tilted></_>
    <_>
      <rects>
        <_>
          2 11 8 18 -1.</_>
        <_>
          2 11 4 9 2.</_>
        <_>
          6 20 4 9 2.</_></rects>
      <tilted>0</tilted></_>
    <_>
      <rects>
        <_>
          2 12 16 20 -1.</_>
        <_>
          2 12 8 10 2.</_>
        <_>
          10 22 8 10 2.</_></rects>
      <tilted>0</tilted></_>
    <_>
      <rects>
        <_>
          2 18 8 3 -1.</_>
        <_>
          6 18 4 3 2.</_></rects>
      <tilted>0</tilted></_>
    <_>
      <rects>
        <_>
          3 11 8 12 -1.</_>
        <_>
          3 11 4 6 2.</_>
        <_>
          7 17 4 6 2.</_></rects>
      <tilted>0</tilted></_>
    <_>
      <rects>
        <_>
          3 11 15 2 -1.</_>
        <_>
          8 11 5 2 3.</_></rects>
      <tilted>0</tilted></_>
    <_>
      <rects>
        <_>
          3 18 6 2 -1.</_>
        <_>
          6 18 3 2 2.</_></rects>
      <tilted>0</tilted></_>
    <_>
      <rects>
        <_>
          4 0 12 19 -1.</_>
        <_>
          10 0 6 19 2.</_></rects>
      <tilted>0</tilted></_>
    <_>
      <rects>
        <_>
          4 1 4 28 -1.</_>
        <_>
          4 15 4 14 2.</_></rects>
      <tilted>0</tilted></_>
    <_>
      <rects>
        <_>
          4 3 28 22 -1.</_>
        <_>
          4 3 14 11 2.</_>
        <_>
          18 14 14 11 2.</_></rects>
      <tilted>0</tilted></_>
    <_>
      <rects>
        <_>
          4 11 6 4 -1.</_>
        <_>
          6 11 2 4 3.</_></rects>
      <tilted>0</tilted></_>
    <_>
      <rects>
        <_>
          4 13 6 3 -1.</_>
        <_>
          6 13 2 3 3.</_></rects>
      <tilted>0</tilted></_>
    <_>
      <rects>
        <_>
          4 17 4 10 -1.</_>
        <_>
          4 17 2 5 2.</_>
        <_>
          6 22 2 5 2.</_></rects>
      <tilted>0</tilted></_>
    <_>
      <rects>
        <_>
          5 5 20 12 -1.</_>
        <_>
          5 5 10 6 2.</_>
        <_>
          15 11 10 6 2.</_></rects>
      <tilted>0</tilted></_>
    <_>
      <rects>
        <_>
          5 7 9 13 -1.</_>
        <_>
          8 7 3 13 3.</_></rects>
      <tilted>0</tilted></_>
    <_>
      <rects>
        <_>
          5 9 15 12 -1.</_>
        <_>
          10 9 5 12 3.</_></rects>
      <tilted>0</tilted></_>
    <_>
      <rects>
        <_>
          5 10 9 7 -1.</_>
        <_>
          8 10 3 7 3.</_></rects>
      <tilted>0</tilted></_>
    <_>
      <rects>
        <_>
          5 10 12 11 -1.</_>
        <_>
          9 10 4 11 3.</_></rects>
      <tilted>0</tilted></_>
    <_>
      <rects>
        <_>
          5 10 10 7 -1.</_>
        <_>
          10 10 5 7 2.</_></rects>
      <tilted>0</tilted></_>
    <_>
      <rects>
        <_>
          5 12 8 4 -1.</_>
        <_>
          5 14 8 2 2.</_></rects>
      <tilted>0</tilted></_>
    <_>
      <rects>
        <_>
          5 13 6 10 -1.</_>
        <_>
          5 13 3 5 2.</_>
        <_>
          8 18 3 5 2.</_></rects>
      <tilted>0</tilted></_>
    <_>
      <rects>
        <_>
          5 13 13 6 -1.</_>
        <_>
          5 16 13 3 2.</_></rects>
      <tilted>0</tilted></_>
    <_>
      <rects>
        <_>
          5 15 4 1 -1.</_>
        <_>
          7 15 2 1 2.</_></rects>
      <tilted>0</tilted></_>
    <_>
      <rects>
        <_>
          5 15 6 3 -1.</_>
        <_>
          8 15 3 3 2.</_></rects>
      <tilted>0</tilted></_>
    <_>
      <rects>
        <_>
          5 15 9 9 -1.</_>
        <_>
          8 15 3 9 3.</_></rects>
      <tilted>0</tilted></_>
    <_>
      <rects>
        <_>
          5 16 2 1 -1.</_>
        <_>
          6 16 1 1 2.</_></rects>
      <tilted>0</tilted></_>
    <_>
      <rects>
        <_>
          5 16 6 6 -1.</_>
        <_>
          5 18 6 2 3.</_></rects>
      <tilted>0</tilted></_>
    <_>
      <rects>
        <_>
          6 4 1 2 -1.</_>
        <_>
          6 5 1 1 2.</_></rects>
      <tilted>0</tilted></_>
    <_>
      <rects>
        <_>
          6 8 12 11 -1.</_>
        <_>
          10 8 4 11 3.</_></rects>
      <tilted>0</tilted></_>
    <_>
      <rects>
        <_>
          6 11 20 21 -1.</_>
        <_>
          6 18 20 7 3.</_></rects>
      <tilted>0</tilted></_>
    <_>
      <rects>
        <_>
          6 12 9 7 -1.</_>
        <_>
          9 12 3 7 3.</_></rects>
      <tilted>0</tilted></_>
    <_>
      <rects>
        <_>
          6 13 5 6 -1.</_>
        <_>
          6 16 5 3 2.</_></rects>
      <tilted>0</tilted></_>
    <_>
      <rects>
        <_>
          6 13 6 18 -1.</_>
        <_>
          6 19 6 6 3.</_></rects>
      <tilted>0</tilted></_>
    <_>
      <rects>
        <_>
          6 14 2 3 -1.</_>
        <_>
          7 14 1 3 2.</_></rects>
      <tilted>0</tilted></_>
    <_>
      <rects>
        <_>
          6 15 8 4 -1.</_>
        <_>
          6 15 4 2 2.</_>
        <_>
          10 17 4 2 2.</_></rects>
      <tilted>0</tilted></_>
    <_>
      <rects>
        <_>
          6 18 6 3 -1.</_>
        <_>
          8 18 2 3 3.</_></rects>
      <tilted>0</tilted></_>
    <_>
      <rects>
        <_>
          7 3 10 16 -1.</_>
        <_>
          12 3 5 16 2.</_></rects>
      <tilted>0</tilted></_>
    <_>
      <rects>
        <_>
          7 5 8 13 -1.</_>
        <_>
          11 5 4 13 2.</_></rects>
      <tilted>0</tilted></_>
    <_>
      <rects>
        <_>
          7 10 4 9 -1.</_>
        <_>
          9 10 2 9 2.</_></rects>
      <tilted>0</tilted></_>
    <_>
      <rects>
        <_>
          7 11 8 3 -1.</_>
        <_>
          11 11 4 3 2.</_></rects>
      <tilted>0</tilted></_>
    <_>
      <rects>
        <_>
          7 11 18 14 -1.</_>
        <_>
          7 11 9 7 2.</_>
        <_>
          16 18 9 7 2.</_></rects>
      <tilted>0</tilted></_>
    <_>
      <rects>
        <_>
          7 12 4 6 -1.</_>
        <_>
          9 12 2 6 2.</_></rects>
      <tilted>0</tilted></_>
    <_>
      <rects>
        <_>
          7 12 4 15 -1.</_>
        <_>
          7 17 4 5 3.</_></rects>
      <tilted>0</tilted></_>
    <_>
      <rects>
        <_>
          7 12 25 18 -1.</_>
        <_>
          7 18 25 6 3.</_></rects>
      <tilted>0</tilted></_>
    <_>
      <rects>
        <_>
          7 13 6 6 -1.</_>
        <_>
          7 16 6 3 2.</_></rects>
      <tilted>0</tilted></_>
    <_>
      <rects>
        <_>
          7 14 5 4 -1.</_>
        <_>
          7 16 5 2 2.</_></rects>
      <tilted>0</tilted></_>
    <_>
      <rects>
        <_>
          7 16 2 2 -1.</_>
        <_>
          8 16 1 2 2.</_></rects>
      <tilted>0</tilted></_>
    <_>
      <rects>
        <_>
          8 0 8 28 -1.</_>
        <_>
          8 14 8 14 2.</_></rects>
      <tilted>0</tilted></_>
    <_>
      <rects>
        <_>
          8 5 10 8 -1.</_>
        <_>
          8 5 5 4 2.</_>
        <_>
          13 9 5 4 2.</_></rects>
      <tilted>0</tilted></_>
    <_>
      <rects>
        <_>
          8 5 17 6 -1.</_>
        <_>
          8 8 17 3 2.</_></rects>
      <tilted>0</tilted></_>
    <_>
      <rects>
        <_>
          8 10 8 11 -1.</_>
        <_>
          12 10 4 11 2.</_></rects>
      <tilted>0</tilted></_>
    <_>
      <rects>
        <_>
          8 14 3 3 -1.</_>
        <_>
          8 15 3 1 3.</_></rects>
      <tilted>0</tilted></_>
    <_>
      <rects>
        <_>
          8 14 4 6 -1.</_>
        <_>
          8 17 4 3 2.</_></rects>
      <tilted>0</tilted></_>
    <_>
      <rects>
        <_>
          9 3 1 10 -1.</_>
        <_>
          9 8 1 5 2.</_></rects>
      <tilted>0</tilted></_>
    <_>
      <rects>
        <_>
          9 3 3 6 -1.</_>
        <_>
          9 5 3 2 3.</_></rects>
      <tilted>0</tilted></_>
    <_>
      <rects>
        <_>
          9 7 2 1 -1.</_>
        <_>
          10 7 1 1 2.</_></rects>
      <tilted>0</tilted></_>
    <_>
      <rects>
        <_>
          9 11 3 6 -1.</_>
        <_>
          9 13 3 2 3.</_></rects>
      <tilted>0</tilted></_>
    <_>
      <rects>
        <_>
          9 12 4 3 -1.</_>
        <_>
          11 12 2 3 2.</_></rects>
      <tilted>0</tilted></_>
    <_>
      <rects>
        <_>
          9 12 12 1 -1.</_>
        <_>
          13 12 4 1 3.</_></rects>
      <tilted>0</tilted></_>
    <_>
      <rects>
        <_>
          9 13 2 3 -1.</_>
        <_>
          9 14 2 1 3.</_></rects>
      <tilted>0</tilted></_>
    <_>
      <rects>
        <_>
          10 7 22 10 -1.</_>
        <_>
          10 7 11 5 2.</_>
        <_>
          21 12 11 5 2.</_></rects>
      <tilted>0</tilted></_>
    <_>
      <rects>
        <_>
          10 11 4 6 -1.</_>
        <_>
          10 13 4 2 3.</_></rects>
      <tilted>0</tilted></_>
    <_>
      <rects>
        <_>
          10 12 9 2 -1.</_>
        <_>
          13 12 3 2 3.</_></rects>
      <tilted>0</tilted></_>
    <_>
      <rects>
        <_>
          10 12 8 1 -1.</_>
        <_>
          14 12 4 1 2.</_></rects>
      <tilted>0</tilted></_>
    <_>
      <rects>
        <_>
          10 13 4 4 -1.</_>
        <_>
          10 15 4 2 2.</_></rects>
      <tilted>0</tilted></_>
    <_>
      <rects>
        <_>
          10 14 18 4 -1.</_>
        <_>
          10 14 9 2 2.</_>
        <_>
          19 16 9 2 2.</_></rects>
      <tilted>0</tilted></_>
    <_>
      <rects>
        <_>
          11 6 8 11 -1.</_>
        <_>
          15 6 4 11 2.</_></rects>
      <tilted>0</tilted></_>
    <_>
      <rects>
        <_>
          11 10 6 5 -1.</_>
        <_>
          13 10 2 5 3.</_></rects>
      <tilted>0</tilted></_>
    <_>
      <rects>
        <_>
          11 11 1 4 -1.</_>
        <_>
          11 13 1 2 2.</_></rects>
      <tilted>0</tilted></_>
    <_>
      <rects>
        <_>
          11 11 2 4 -1.</_>
        <_>
          11 13 2 2 2.</_></rects>
      <tilted>0</tilted></_>
    <_>
      <rects>
        <_>
          11 12 9 3 -1.</_>
        <_>
          14 12 3 3 3.</_></rects>
      <tilted>0</tilted></_>
    <_>
      <rects>
        <_>
          11 12 4 3 -1.</_>
        <_>
          11 13 4 1 3.</_></rects>
      <tilted>0</tilted></_>
    <_>
      <rects>
        <_>
          11 14 6 6 -1.</_>
        <_>
          14 14 3 6 2.</_></rects>
      <tilted>0</tilted></_>
    <_>
      <rects>
        <_>
          12 10 4 4 -1.</_>
        <_>
          12 12 4 2 2.</_></rects>
      <tilted>0</tilted></_>
    <_>
      <rects>
        <_>
          12 10 4 9 -1.</_>
        <_>
          12 13 4 3 3.</_></rects>
      <tilted>0</tilted></_>
    <_>
      <rects>
        <_>
          12 11 3 4 -1.</_>
        <_>
          12 13 3 2 2.</_></rects>
      <tilted>0</tilted></_>
    <_>
      <rects>
        <_>
          12 11 5 2 -1.</_>
        <_>
          12 12 5 1 2.</_></rects>
      <tilted>0</tilted></_>
    <_>
      <rects>
        <_>
          13 10 3 4 -1.</_>
        <_>
          14 10 1 4 3.</_></rects>
      <tilted>0</tilted></_>
    <_>
      <rects>
        <_>
          13 11 6 2 -1.</_>
        <_>
          15 11 2 2 3.</_></rects>
      <tilted>0</tilted></_>
    <_>
      <rects>
        <_>
          13 11 6 2 -1.</_>
        <_>
          16 11 3 2 2.</_></rects>
      <tilted>0</tilted></_>
    <_>
      <rects>
        <_>
          13 12 10 1 -1.</_>
        <_>
          18 12 5 1 2.</_></rects>
      <tilted>0</tilted></_>
    <_>
      <rects>
        <_>
          13 14 10 1 -1.</_>
        <_>
          18 14 5 1 2.</_></rects>
      <tilted>0</tilted></_>
    <_>
      <rects>
        <_>
          14 11 6 1 -1.</_>
        <_>
          16 11 2 1 3.</_></rects>
      <tilted>0</tilted></_>
    <_>
      <rects>
        <_>
          14 11 2 16 -1.</_>
        <_>
          14 19 2 8 2.</_></rects>
      <tilted>0</tilted></_>
    <_>
      <rects>
        <_>
          14 12 4 1 -1.</_>
        <_>
          16 12 2 1 2.</_></rects>
      <tilted>0</tilted></_>
    <_>
      <rects>
        <_>
          14 12 18 2 -1.</_>
        <_>
          20 12 6 2 3.</_></rects>
      <tilted>0</tilted></_>
    <_>
      <rects>
        <_>
          15 1 14 21 -1.</_>
        <_>
          22 1 7 21 2.</_></rects>
      <tilted>0</tilted></_>
    <_>
      <rects>
        <_>
          15 9 6 3 -1.</_>
        <_>
          17 9 2 3 3.</_></rects>
      <tilted>0</tilted></_>
    <_>
      <rects>
        <_>
          15 9 3 4 -1.</_>
        <_>
          15 11 3 2 2.</_></rects>
      <tilted>0</tilted></_>
    <_>
      <rects>
        <_>
          15 10 1 3 -1.</_>
        <_>
          15 11 1 1 3.</_></rects>
      <tilted>0</tilted></_>
    <_>
      <rects>
        <_>
          15 10 3 4 -1.</_>
        <_>
          15 12 3 2 2.</_></rects>
      <tilted>0</tilted></_>
    <_>
      <rects>
        <_>
          15 10 8 2 -1.</_>
        <_>
          19 10 4 2 2.</_></rects>
      <tilted>0</tilted></_>
    <_>
      <rects>
        <_>
          15 10 5 4 -1.</_>
        <_>
          15 12 5 2 2.</_></rects>
      <tilted>0</tilted></_>
    <_>
      <rects>
        <_>
          15 11 4 2 -1.</_>
        <_>
          17 11 2 2 2.</_></rects>
      <tilted>0</tilted></_>
    <_>
      <rects>
        <_>
          15 11 8 2 -1.</_>
        <_>
          19 11 4 2 2.</_></rects>
      <tilted>0</tilted></_>
    <_>
      <rects>
        <_>
          15 12 3 2 -1.</_>
        <_>
          16 12 1 2 3.</_></rects>
      <tilted>0</tilted></_>
    <_>
      <rects>
        <_>
          15 12 6 2 -1.</_>
        <_>
          17 12 2 2 3.</_></rects>
      <tilted>0</tilted></_>
    <_>
      <rects>
        <_>
          15 12 3 12 -1.</_>
        <_>
          15 16 3 4 3.</_></rects>
      <tilted>0</tilted></_>
    <_>
      <rects>
        <_>
          16 6 15 24 -1.</_>
        <_>
          21 6 5 24 3.</_></rects>
      <tilted>0</tilted></_>
    <_>
      <rects>
        <_>
          16 9 3 3 -1.</_>
        <_>
          17 9 1 3 3.</_></rects>
      <tilted>0</tilted></_>
    <_>
      <rects>
        <_>
          16 10 6 3 -1.</_>
        <_>
          18 10 2 3 3.</_></rects>
      <tilted>0</tilted></_>
    <_>
      <rects>
        <_>
          16 10 6 4 -1.</_>
        <_>
          19 10 3 4 2.</_></rects>
      <tilted>0</tilted></_>
    <_>
      <rects>
        <_>
          16 11 4 1 -1.</_>
        <_>
          18 11 2 1 2.</_></rects>
      <tilted>0</tilted></_>
    <_>
      <rects>
        <_>
          16 11 4 3 -1.</_>
        <_>
          18 11 2 3 2.</_></rects>
      <tilted>0</tilted></_>
    <_>
      <rects>
        <_>
          16 11 6 3 -1.</_>
        <_>
          19 11 3 3 2.</_></rects>
      <tilted>0</tilted></_>
    <_>
      <rects>
        <_>
          17 7 1 4 -1.</_>
        <_>
          17 9 1 2 2.</_></rects>
      <tilted>0</tilted></_>
    <_>
      <rects>
        <_>
          17 8 1 12 -1.</_>
        <_>
          17 12 1 4 3.</_></rects>
      <tilted>0</tilted></_>
    <_>
      <rects>
        <_>
          17 11 3 4 -1.</_>
        <_>
          18 11 1 4 3.</_></rects>
      <tilted>0</tilted></_>
    <_>
      <rects>
        <_>
          17 11 8 1 -1.</_>
        <_>
          21 11 4 1 2.</_></rects>
      <tilted>0</tilted></_>
    <_>
      <rects>
        <_>
          17 12 6 2 -1.</_>
        <_>
          20 12 3 2 2.</_></rects>
      <tilted>0</tilted></_>
    <_>
      <rects>
        <_>
          18 1 1 12 -1.</_>
        <_>
          18 7 1 6 2.</_></rects>
      <tilted>0</tilted></_>
    <_>
      <rects>
        <_>
          18 5 7 3 -1.</_>
        <_>
          18 6 7 1 3.</_></rects>
      <tilted>0</tilted></_>
    <_>
      <rects>
        <_>
          19 4 5 15 -1.</_>
        <_>
          19 9 5 5 3.</_></rects>
      <tilted>0</tilted></_>
    <_>
      <rects>
        <_>
          19 4 12 8 -1.</_>
        <_>
          19 4 6 4 2.</_>
        <_>
          25 8 6 4 2.</_></rects>
      <tilted>0</tilted></_>
    <_>
      <rects>
        <_>
          19 6 8 12 -1.</_>
        <_>
          19 10 8 4 3.</_></rects>
      <tilted>0</tilted></_>
    <_>
      <rects>
        <_>
          19 8 4 20 -1.</_>
        <_>
          21 8 2 20 2.</_></rects>
      <tilted>0</tilted></_>
    <_>
      <rects>
        <_>
          20 3 5 6 -1.</_>
        <_>
          20 5 5 2 3.</_></rects>
      <tilted>0</tilted></_>
    <_>
      <rects>
        <_>
          21 4 5 6 -1.</_>
        <_>
          21 6 5 2 3.</_></rects>
      <tilted>0</tilted></_>
    <_>
      <rects>
        <_>
          22 1 10 16 -1.</_>
        <_>
          22 1 5 8 2.</_>
        <_>
          27 9 5 8 2.</_></rects>
      <tilted>0</tilted></_>
    <_>
      <rects>
        <_>
          22 4 4 15 -1.</_>
        <_>
          22 9 4 5 3.</_></rects>
      <tilted>0</tilted></_>
    <_>
      <rects>
        <_>
          22 8 9 5 -1.</_>
        <_>
          25 8 3 5 3.</_></rects>
      <tilted>0</tilted></_>
    <_>
      <rects>
        <_>
          22 13 6 1 -1.</_>
        <_>
          24 13 2 1 3.</_></rects>
      <tilted>0</tilted></_>
    <_>
      <rects>
        <_>
          23 5 4 10 -1.</_>
        <_>
          25 5 2 10 2.</_></rects>
      <tilted>0</tilted></_>
    <_>
      <rects>
        <_>
          23 9 6 11 -1.</_>
        <_>
          26 9 3 11 2.</_></rects>
      <tilted>0</tilted></_>
    <_>
      <rects>
        <_>
          23 10 9 5 -1.</_>
        <_>
          26 10 3 5 3.</_></rects>
      <tilted>0</tilted></_>
    <_>
      <rects>
        <_>
          23 21 4 1 -1.</_>
        <_>
          25 21 2 1 2.</_></rects>
      <tilted>0</tilted></_>
    <_>
      <rects>
        <_>
          24 8 4 4 -1.</_>
        <_>
          24 8 2 2 2.</_>
        <_>
          26 10 2 2 2.</_></rects>
      <tilted>0</tilted></_>
    <_>
      <rects>
        <_>
          24 10 6 4 -1.</_>
        <_>
          27 10 3 4 2.</_></rects>
      <tilted>0</tilted></_>
    <_>
      <rects>
        <_>
          25 9 2 1 -1.</_>
        <_>
          26 9 1 1 2.</_></rects>
      <tilted>0</tilted></_>
    <_>
      <rects>
        <_>
          26 4 6 14 -1.</_>
        <_>
          26 4 3 7 2.</_>
        <_>
          29 11 3 7 2.</_></rects>
      <tilted>0</tilted></_>
    <_>
      <rects>
        <_>
          26 11 2 1 -1.</_>
        <_>
          27 11 1 1 2.</_></rects>
      <tilted>0</tilted></_>
    <_>
      <rects>
        <_>
          26 14 1 2 -1.</_>
        <_>
          26 15 1 1 2.</_></rects>
      <tilted>0</tilted></_></features></cascade>
</opencv_storage>
