<?xml version="1.0"?>
<opencv_storage>
<cascade>
  <stageType>BOOST</stageType>
  <featureType>HAAR</featureType>
  <height>20</height>
  <width>20</width>
  <stageParams>
    <boostType>GAB</boostType>
    <minHitRate>9.9900001287460327e-01</minHitRate>
    <maxFalseAlarm>5.0000000745058060e-02</maxFalseAlarm>
    <weightTrimRate>9.4999999999999996e-01</weightTrimRate>
    <maxDepth>2</maxDepth>
    <maxWeakCount>100</maxWeakCount></stageParams>
  <featureParams>
    <maxCatCount>0</maxCatCount>
    <featSize>1</featSize>
    <mode>BASIC</mode></featureParams>
  <stageNum>11</stageNum>
  <stages>
    <!-- stage 0 -->
    <_>
      <maxWeakCount>5</maxWeakCount>
      <stageThreshold>-3.0038714408874512e-01</stageThreshold>
      <weakClassifiers>
        <_>
          <internalNodes>
            1 2 50 5.2319936454296112e-02 0 -1 212
            -1.2914861738681793e-01 -2 -3 84 1.1271193623542786e-01</internalNodes>
          <leafValues>
            3.1428572535514832e-01 -9.6428573131561279e-01
            -6.2068963050842285e-01 9.8599618673324585e-01</leafValues></_>
        <_>
          <internalNodes>
            1 2 110 2.6862382888793945e-01 0 -1 33
            2.1811725199222565e-01 -2 -3 67 6.4966147765517235e-03</internalNodes>
          <leafValues>
            -7.1894264221191406e-01 7.5152641534805298e-01
            -6.7150938510894775e-01 9.8821032047271729e-01</leafValues></_>
        <_>
          <internalNodes>
            1 2 97 2.4378770031034946e-03 0 -1 126
            -3.5731229931116104e-02 -2 -3 161 3.0803806148469448e-03</internalNodes>
          <leafValues>
            1.4626325666904449e-01 -9.3449431657791138e-01
            -6.5146291255950928e-01 9.2063432931900024e-01</leafValues></_>
        <_>
          <internalNodes>
            1 2 48 1.9916051626205444e-01 0 -1 98 2.2767958580516279e-04
            -2 -3 113 1.1966584250330925e-02</internalNodes>
          <leafValues>
            -9.4932568073272705e-01 8.9716993272304535e-02
            -8.6300998926162720e-01 9.8698920011520386e-01</leafValues></_>
        <_>
          <internalNodes>
            1 2 156 -5.0004642456769943e-02 0 -1 163
            -6.5363326575607061e-04 -2 -3 232 4.2254071682691574e-02</internalNodes>
          <leafValues>
            9.1456007957458496e-01 -2.7137354016304016e-01
            -7.6675015687942505e-01 4.9635782837867737e-01</leafValues></_></weakClassifiers></_>
    <!-- stage 1 -->
    <_>
      <maxWeakCount>7</maxWeakCount>
      <stageThreshold>-3.0588147044181824e-01</stageThreshold>
      <weakClassifiers>
        <_>
          <internalNodes>
            1 2 48 1.7076349258422852e-01 0 -1 74 5.7499494869261980e-04
            -2 -3 65 1.4356175065040588e-01</internalNodes>
          <leafValues>
            -8.0408161878585815e-01 1.6071428358554840e-01
            -5.0649350881576538e-01 9.6286106109619141e-01</leafValues></_>
        <_>
          <internalNodes>
            1 2 124 -1.6571493446826935e-01 0 -1 31
            7.1029640734195709e-02 -2 -3 37 3.7272870540618896e-02</internalNodes>
          <leafValues>
            -4.6808966994285583e-01 9.5548558235168457e-01
            -4.7101497650146484e-01 5.6375336647033691e-01</leafValues></_>
        <_>
          <internalNodes>
            1 2 213 2.8164051473140717e-03 0 -1 51
            9.9596139043569565e-03 -2 -3 168 -1.0365021880716085e-03</internalNodes>
          <leafValues>
            -5.9101420640945435e-01 8.0472326278686523e-01
            -7.6990747451782227e-01 7.6578348875045776e-01</leafValues></_>
        <_>
          <internalNodes>
            1 2 95 3.0361702665686607e-03 0 -1 237
            6.8541839718818665e-02 -2 -3 7 -3.2316218130290508e-03</internalNodes>
          <leafValues>
            -9.5385366678237915e-01 7.9179388284683228e-01
            7.7386206388473511e-01 -2.2929990291595459e-01</leafValues></_>
        <_>
          <internalNodes>
            1 2 71 -2.7401232719421387e-01 0 -1 86
            4.8448089510202408e-03 -2 -3 157 2.8629664331674576e-02</internalNodes>
          <leafValues>
            -6.0370177030563354e-01 9.6734809875488281e-01
            -5.1810342073440552e-01 6.2469154596328735e-01</leafValues></_>
        <_>
          <internalNodes>
            1 2 202 3.1917288899421692e-02 0 -1 3 1.2263949029147625e-03
            -2 -3 195 2.1976632997393608e-03</internalNodes>
          <leafValues>
            2.1438950300216675e-01 -6.7496871948242188e-01
            9.7637528181076050e-01 -9.1762727499008179e-01</leafValues></_>
        <_>
          <internalNodes>
            1 2 199 7.4833456892520189e-05 0 -1 148
            2.1770438179373741e-03 -2 -3 38 7.7794007956981659e-03</internalNodes>
          <leafValues>
            -9.5139980316162109e-01 2.7622991800308228e-01
            6.7690330743789673e-01 -6.7011916637420654e-01</leafValues></_></weakClassifiers></_>
    <!-- stage 2 -->
    <_>
      <maxWeakCount>8</maxWeakCount>
      <stageThreshold>-1.8654052168130875e-02</stageThreshold>
      <weakClassifiers>
        <_>
          <internalNodes>
            1 2 101 -2.7000004053115845e-01 0 -1 57
            2.2731290664523840e-04 -2 -3 112 9.0069510042667389e-02</internalNodes>
          <leafValues>
            -4.5454546809196472e-01 9.6116507053375244e-01
            -6.0784316062927246e-01 6.5811967849731445e-01</leafValues></_>
        <_>
          <internalNodes>
            1 2 82 1.0829000920057297e-01 0 -1 29
            -9.2719253152608871e-03 -2 -3 66 3.1424604356288910e-02</internalNodes>
          <leafValues>
            3.3057716488838196e-01 -6.2992036342620850e-01
            -3.8560152053833008e-01 9.3059265613555908e-01</leafValues></_>
        <_>
          <internalNodes>
            1 2 104 -1.7781977355480194e-01 0 -1 64
            9.4222305342555046e-03 -2 -3 63 -3.6286917747929692e-04</internalNodes>
          <leafValues>
            -1.1160475015640259e-01 9.6846950054168701e-01
            -9.0296876430511475e-01 6.9219388067722321e-02</leafValues></_>
        <_>
          <internalNodes>
            1 2 236 3.3171521499752998e-03 0 -1 96
            -4.1506621241569519e-01 -2 -3 151 5.1303235813975334e-03</internalNodes>
          <leafValues>
            9.5081251859664917e-01 -6.3610851764678955e-01
            6.3892936706542969e-01 -6.6100507974624634e-01</leafValues></_>
        <_>
          <internalNodes>
            1 2 70 8.0624595284461975e-05 0 -1 224
            -3.5566560924053192e-02 -2 -3 73 3.3049150370061398e-03</internalNodes>
          <leafValues>
            4.6206739544868469e-01 -8.1007987260818481e-01
            -4.4428235292434692e-01 6.1985653638839722e-01</leafValues></_>
        <_>
          <internalNodes>
            1 2 262 -1.6576000489294529e-03 0 -1 101
            -3.4290304780006409e-01 -2 -3 8 2.1286562550812960e-03</internalNodes>
          <leafValues>
            1. -9.5952367782592773e-01 4.9076518416404724e-01
            -5.0873154401779175e-01</leafValues></_>
        <_>
          <internalNodes>
            1 2 186 2.5027783121913671e-03 0 -1 189
            4.5737894251942635e-03 -2 -3 125 -1.1409518774598837e-03</internalNodes>
          <leafValues>
            -8.8163799047470093e-01 8.8495872914791107e-02
            -9.0017336606979370e-01 5.9327101707458496e-01</leafValues></_>
        <_>
          <internalNodes>
            1 2 221 1.2670116848312318e-04 0 -1 34
            1.7491698265075684e-02 -2 -3 138 -3.5666378680616617e-03</internalNodes>
          <leafValues>
            -8.5349518060684204e-01 4.6411830931901932e-02
            -9.8462623357772827e-01 5.1345890760421753e-01</leafValues></_></weakClassifiers></_>
    <!-- stage 3 -->
    <_>
      <maxWeakCount>8</maxWeakCount>
      <stageThreshold>-3.6956873536109924e-01</stageThreshold>
      <weakClassifiers>
        <_>
          <internalNodes>
            1 2 94 2.3784074001014233e-03 0 -1 243
            -5.9512943029403687e-02 -2 -3 146 -4.7326665371656418e-03</internalNodes>
          <leafValues>
            4.4827586412429810e-01 -8.6473429203033447e-01
            -8.0000001192092896e-01 8.4916865825653076e-01</leafValues></_>
        <_>
          <internalNodes>
            1 2 30 2.6391440629959106e-01 0 -1 121
            -3.9513480663299561e-01 -2 -3 85 2.8296408057212830e-01</internalNodes>
          <leafValues>
            7.0484828948974609e-01 -4.5937895774841309e-01
            -5.3253388404846191e-01 9.2590278387069702e-01</leafValues></_>
        <_>
          <internalNodes>
            1 2 39 4.5783556997776031e-02 0 -1 206
            4.6981289051473141e-04 -2 -3 76 4.1551873087882996e-02</internalNodes>
          <leafValues>
            -6.3067924976348877e-01 3.3738094568252563e-01
            8.5451054573059082e-01 -8.5781002044677734e-01</leafValues></_>
        <_>
          <internalNodes>
            1 2 99 4.0704930142965168e-05 0 -1 91
            -3.8408085238188505e-03 -2 -3 215 5.3160544484853745e-03</internalNodes>
          <leafValues>
            9.5283436775207520e-01 -8.8162517547607422e-01
            -1.5019561350345612e-01 7.1221876144409180e-01</leafValues></_>
        <_>
          <internalNodes>
            1 2 119 -4.0858781337738037e-01 0 -1 92
            1.6630927566438913e-03 -2 -3 260 6.5142696257680655e-05</internalNodes>
          <leafValues>
            -6.0562509298324585e-01 9.4500482082366943e-01
            -5.3433537483215332e-01 3.5698491334915161e-01</leafValues></_>
        <_>
          <internalNodes>
            1 2 20 3.0762021197006106e-04 0 -1 1 1.9999472424387932e-03
            -2 -3 254 -1.9012922421097755e-02</internalNodes>
          <leafValues>
            4.6968260407447815e-01 -3.9551258087158203e-01
            4.3226817250251770e-01 -8.3342504501342773e-01</leafValues></_>
        <_>
          <internalNodes>
            1 2 137 1.0959798470139503e-02 0 -1 152
            6.5058050677180290e-04 -2 -3 6 1.1887370049953461e-01</internalNodes>
          <leafValues>
            -3.4445336461067200e-01 7.5278818607330322e-01
            -8.5624551773071289e-01 7.1881163120269775e-01</leafValues></_>
        <_>
          <internalNodes>
            1 2 169 7.9990539234131575e-04 0 -1 184
            -4.3557011522352695e-03 -2 -3 179 6.0145072638988495e-03</internalNodes>
          <leafValues>
            3.7362021207809448e-01 -7.4879306554794312e-01
            8.1330883502960205e-01 -4.8939883708953857e-01</leafValues></_></weakClassifiers></_>
    <!-- stage 4 -->
    <_>
      <maxWeakCount>10</maxWeakCount>
      <stageThreshold>-4.9173381924629211e-01</stageThreshold>
      <weakClassifiers>
        <_>
          <internalNodes>
            1 2 65 3.1870323419570923e-01 0 -1 0 -6.8334070965647697e-04
            -2 -3 175 1.1143298819661140e-02</internalNodes>
          <leafValues>
            -8.6046510934829712e-01 1.3145539164543152e-01
            1.3669064640998840e-01 9.4640123844146729e-01</leafValues></_>
        <_>
          <internalNodes>
            1 2 228 -4.2872466146945953e-02 0 -1 166
            -3.8413549773395061e-03 -2 -3 72 1.2416493846103549e-03</internalNodes>
          <leafValues>
            -6.5561574697494507e-01 8.1795334815979004e-01
            -5.8653467893600464e-01 3.0742761492729187e-01</leafValues></_>
        <_>
          <internalNodes>
            1 2 123 -2.2324223816394806e-01 0 -1 252
            -8.2926198840141296e-02 -2 -3 176 1.9219468231312931e-04</internalNodes>
          <leafValues>
            -8.7804359197616577e-01 9.2590862512588501e-01
            -7.4220508337020874e-01 1.9610029458999634e-01</leafValues></_>
        <_>
          <internalNodes>
            1 2 25 2.7248321566730738e-03 0 -1 46 3.6182200908660889e-01
            -2 -3 255 -6.0095326043665409e-03</internalNodes>
          <leafValues>
            -4.1744755581021309e-03 8.3846098184585571e-01
            9.3142765760421753e-01 -6.9881057739257812e-01</leafValues></_>
        <_>
          <internalNodes>
            1 2 267 4.5182488975115120e-05 0 -1 231
            1.5534811653196812e-02 -2 -3 107 1.5848999610170722e-03</internalNodes>
          <leafValues>
            -5.2598190307617188e-01 4.5562604069709778e-01
            6.0734379291534424e-01 -6.6054874658584595e-01</leafValues></_>
        <_>
          <internalNodes>
            1 2 153 1.0903803631663322e-03 0 -1 143
            -6.6917837830260396e-04 -2 -3 145 -1.6077561676502228e-01</internalNodes>
          <leafValues>
            -6.9714331626892090e-01 4.2322194576263428e-01
            7.7923536300659180e-01 -8.5503554344177246e-01</leafValues></_>
        <_>
          <internalNodes>
            1 2 158 -5.4487783927470446e-04 0 -1 139
            -2.2502811625599861e-03 -2 -3 162 8.1387493992224336e-04</internalNodes>
          <leafValues>
            -9.1999822854995728e-01 5.8218234777450562e-01
            -7.6119011640548706e-01 3.9302175864577293e-03</leafValues></_>
        <_>
          <internalNodes>
            1 2 259 5.3777483117301017e-05 0 -1 249
            4.6704828855581582e-04 -2 -3 226 -2.0546512678265572e-03</internalNodes>
          <leafValues>
            -6.9885176420211792e-01 1.7558474838733673e-01
            -6.2788128852844238e-01 6.8706667423248291e-01</leafValues></_>
        <_>
          <internalNodes>
            1 2 21 -1.8149917013943195e-03 0 -1 11
            5.3753938525915146e-02 -2 -3 165 2.8333120280876756e-04</internalNodes>
          <leafValues>
            -8.9684480428695679e-01 9.1207474470138550e-01
            -3.6310049891471863e-01 5.1589787006378174e-01</leafValues></_>
        <_>
          <internalNodes>
            1 2 174 2.6648361235857010e-02 0 -1 109
            1.9686926680151373e-04 -2 -3 233 -1.1540583800524473e-03</internalNodes>
          <leafValues>
            5.1268231123685837e-02 -7.2792601585388184e-01
            -5.2666139602661133e-01 7.5948590040206909e-01</leafValues></_></weakClassifiers></_>
    <!-- stage 5 -->
    <_>
      <maxWeakCount>10</maxWeakCount>
      <stageThreshold>-5.2130359411239624e-01</stageThreshold>
      <weakClassifiers>
        <_>
          <internalNodes>
            1 2 96 -3.4380498528480530e-01 0 -1 136
            1.3428223319351673e-02 -2 -3 12 1.4283988624811172e-02</internalNodes>
          <leafValues>
            -2.0930232107639313e-01 9.0483164787292480e-01
            -4.3157893419265747e-01 5.1818180084228516e-01</leafValues></_>
        <_>
          <internalNodes>
            1 2 209 3.0922057339921594e-04 0 -1 28
            2.3147232830524445e-02 -2 -3 218 7.3355048894882202e-02</internalNodes>
          <leafValues>
            -5.4214394092559814e-01 7.3520869016647339e-01
            -2.3460808396339417e-01 8.0745482444763184e-01</leafValues></_>
        <_>
          <internalNodes>
            1 2 81 4.2901039123535156e-03 0 -1 185
            3.7610006984323263e-05 -2 -3 211 3.9584571495652199e-03</internalNodes>
          <leafValues>
            -8.0002748966217041e-01 5.0616782903671265e-01
            -3.0208763480186462e-01 6.4697968959808350e-01</leafValues></_>
        <_>
          <internalNodes>
            1 2 56 6.9035943597555161e-03 0 -1 263
            2.7570538222789764e-03 -2 -3 18 2.6087183505296707e-03</internalNodes>
          <leafValues>
            5.7142168283462524e-02 -7.8877109289169312e-01
            9.1171121597290039e-01 -2.9245841503143311e-01</leafValues></_>
        <_>
          <internalNodes>
            1 2 44 1.6796489944681525e-03 0 -1 116
            1.9736458853003569e-05 -2 -3 251 1.9046628847718239e-02</internalNodes>
          <leafValues>
            -9.0110826492309570e-01 5.2940332889556885e-01
            -6.6666436195373535e-01 8.0468469858169556e-01</leafValues></_>
        <_>
          <internalNodes>
            1 2 266 -1.3238426763564348e-03 0 -1 47
            3.9573997259140015e-02 -2 -3 204 -9.8105203360319138e-03</internalNodes>
          <leafValues>
            -6.5020477771759033e-01 6.8842017650604248e-01
            6.8557065725326538e-01 -1.9178234040737152e-01</leafValues></_>
        <_>
          <internalNodes>
            1 2 167 1.4986772090196609e-02 0 -1 196
            3.3518153941258788e-04 -2 -3 207 6.4340628683567047e-02</internalNodes>
          <leafValues>
            -3.7083894014358521e-01 4.6947532892227173e-01
            -9.8952865600585938e-01 1.</leafValues></_>
        <_>
          <internalNodes>
            1 2 16 1.6325281467288733e-03 0 -1 4 2.6819640770554543e-03
            -2 -3 235 8.7010255083441734e-03</internalNodes>
          <leafValues>
            3.9663603901863098e-01 -6.1773693561553955e-01
            -8.3225429058074951e-01 8.4228754043579102e-01</leafValues></_>
        <_>
          <internalNodes>
            1 2 59 1.3303544837981462e-03 0 -1 78
            -2.1202694624662399e-03 -2 -3 15 7.4824348092079163e-02</internalNodes>
          <leafValues>
            5.0565171241760254e-01 -6.3007295131683350e-01
            6.1973303556442261e-01 -7.6243281364440918e-01</leafValues></_>
        <_>
          <internalNodes>
            1 2 54 -1.1616519623203203e-04 0 -1 210
            6.1181942000985146e-03 -2 -3 220 -1.5192205319181085e-04</internalNodes>
          <leafValues>
            7.9314011335372925e-01 -8.6210364103317261e-01
            3.7655636668205261e-01 -5.7008141279220581e-01</leafValues></_></weakClassifiers></_>
    <!-- stage 6 -->
    <_>
      <maxWeakCount>10</maxWeakCount>
      <stageThreshold>-6.4526307582855225e-01</stageThreshold>
      <weakClassifiers>
        <_>
          <internalNodes>
            1 2 120 -3.6128911375999451e-01 0 -1 23
            6.1190117150545120e-02 -2 -3 150 3.8030929863452911e-03</internalNodes>
          <leafValues>
            -7.5268819928169250e-02 9.3378478288650513e-01
            2.0673076808452606e-01 -7.4074071645736694e-01</leafValues></_>
        <_>
          <internalNodes>
            1 2 68 2.2818675637245178e-01 0 -1 154
            9.7137806005775928e-04 -2 -3 90 8.9846596121788025e-02</internalNodes>
          <leafValues>
            -5.7025080919265747e-01 2.6060852408409119e-01
            -2.5131645798683167e-01 8.5616177320480347e-01</leafValues></_>
        <_>
          <internalNodes>
            1 2 111 -1.5835098456591368e-03 0 -1 105
            -2.2370511293411255e-01 -2 -3 164 2.4719005450606346e-03</internalNodes>
          <leafValues>
            5.9530049562454224e-01 -5.2585804462432861e-01
            6.3709002733230591e-01 -6.1483991146087646e-01</leafValues></_>
        <_>
          <internalNodes>
            1 2 142 -5.9951399452984333e-04 0 -1 149
            2.8040674515068531e-03 -2 -3 234 -7.4131996370851994e-04</internalNodes>
          <leafValues>
            6.4194464683532715e-01 -8.1513226032257080e-01
            -7.3623454570770264e-01 8.7298348546028137e-02</leafValues></_>
        <_>
          <internalNodes>
            1 2 55 3.8864561356604099e-03 0 -1 223
            2.9609408229589462e-03 -2 -3 41 2.8874143026769161e-03</internalNodes>
          <leafValues>
            -5.4039555788040161e-01 2.6309275627136230e-01
            9.4413030147552490e-01 -6.9243955612182617e-01</leafValues></_>
        <_>
          <internalNodes>
            1 2 80 3.2441676594316959e-03 0 -1 128
            -2.0824954845011234e-03 -2 -3 247 -4.1721619665622711e-02</internalNodes>
          <leafValues>
            -6.5052014589309692e-01 4.6142977476119995e-01 1.
            -6.7401248216629028e-01</leafValues></_>
        <_>
          <internalNodes>
            1 2 88 -4.4741267629433423e-05 0 -1 27
            -3.1300715636461973e-04 -2 -3 191 1.1693218722939491e-02</internalNodes>
          <leafValues>
            -6.3281685113906860e-01 6.2607723474502563e-01
            -6.0921239852905273e-01 4.5860940217971802e-01</leafValues></_>
        <_>
          <internalNodes>
            1 2 58 2.8828738722950220e-03 0 -1 170
            3.0673504807054996e-04 -2 -3 69 -6.5407985821366310e-03</internalNodes>
          <leafValues>
            -7.4459284543991089e-01 4.3918257951736450e-01
            -8.8320302963256836e-01 5.0935655832290649e-01</leafValues></_>
        <_>
          <internalNodes>
            1 2 62 1.9218876957893372e-02 0 -1 53
            -2.6160571724176407e-04 -2 -3 19 7.1971910074353218e-03</internalNodes>
          <leafValues>
            3.7702745199203491e-01 -8.3058178424835205e-01
            5.8912593126296997e-01 -4.9665167927742004e-01</leafValues></_>
        <_>
          <internalNodes>
            1 2 127 -2.2601904347538948e-03 0 -1 265
            -7.5694319093599916e-05 -2 -3 256 2.5668223388493061e-03</internalNodes>
          <leafValues>
            -7.8947418928146362e-01 6.0453187674283981e-02
            5.4894083738327026e-01 -6.7616248130798340e-01</leafValues></_></weakClassifiers></_>
    <!-- stage 7 -->
    <_>
      <maxWeakCount>10</maxWeakCount>
      <stageThreshold>-3.1123009324073792e-01</stageThreshold>
      <weakClassifiers>
        <_>
          <internalNodes>
            1 2 49 2.4660475552082062e-02 0 -1 194
            -2.7514386177062988e-01 -2 -3 117 2.8498158790171146e-03</internalNodes>
          <leafValues>
            5.7812500000000000e-01 -4.1139239072799683e-01
            -6.2162160873413086e-01 8.7854248285293579e-01</leafValues></_>
        <_>
          <internalNodes>
            1 2 103 -2.8040182590484619e-01 0 -1 216
            -1.5913616865873337e-02 -2 -3 242 -3.3451318740844727e-02</internalNodes>
          <leafValues>
            9.1729772090911865e-01 -4.3165946006774902e-01
            6.6098904609680176e-01 -3.6982148885726929e-01</leafValues></_>
        <_>
          <internalNodes>
            1 2 43 -1.9592961762100458e-03 0 -1 129
            6.0980647802352905e-02 -2 -3 87 7.4850632809102535e-03</internalNodes>
          <leafValues>
            -8.3837670087814331e-01 1. -2.0386780798435211e-01
            6.5235471725463867e-01</leafValues></_>
        <_>
          <internalNodes>
            1 2 190 3.1391569063998759e-04 0 -1 258
            5.7270859542768449e-05 -2 -3 135 1.8149205061490647e-05</internalNodes>
          <leafValues>
            -7.6789540052413940e-01 1.5188421308994293e-01
            -6.5882611274719238e-01 6.9074386358261108e-01</leafValues></_>
        <_>
          <internalNodes>
            1 2 173 -2.7498048730194569e-03 0 -1 60
            -6.1609454452991486e-02 -2 -3 147 1.1456197127699852e-02</internalNodes>
          <leafValues>
            1. -8.7816584110260010e-01 3.9425957202911377e-01
            -7.8160589933395386e-01</leafValues></_>
        <_>
          <internalNodes>
            1 2 13 -1.3836149591952562e-03 0 -1 118
            -1.7941318219527602e-04 -2 -3 132 2.1846819669008255e-02</internalNodes>
          <leafValues>
            -1.2870576977729797e-01 -9.0321040153503418e-01
            3.8082626461982727e-01 -7.0538657903671265e-01</leafValues></_>
        <_>
          <internalNodes>
            1 2 140 5.7624827604740858e-04 0 -1 253
            -1.8602561205625534e-02 -2 -3 100 1.4867368154227734e-03</internalNodes>
          <leafValues>
            5.7092672586441040e-01 -6.1124169826507568e-01
            -5.3038650751113892e-01 5.6671309471130371e-01</leafValues></_>
        <_>
          <internalNodes>
            1 2 200 2.2057388559915125e-04 0 -1 45
            5.3409278392791748e-01 -2 -3 24 3.7403102032840252e-04</internalNodes>
          <leafValues>
            -7.2906005382537842e-01 7.4544739723205566e-01
            5.7067102193832397e-01 -5.7671171426773071e-01</leafValues></_>
        <_>
          <internalNodes>
            1 2 159 1.1995886452496052e-02 0 -1 261
            5.5167097598314285e-03 -2 -3 160 3.5523716360330582e-02</internalNodes>
          <leafValues>
            4.6214383840560913e-01 -8.2016021013259888e-01
            -7.7573823928833008e-01 9.0567576885223389e-01</leafValues></_>
        <_>
          <internalNodes>
            1 2 264 3.0006030574440956e-03 0 -1 244
            -4.5843661064282060e-04 -2 -3 250 4.0449246764183044e-02</internalNodes>
          <leafValues>
            -4.6171098947525024e-01 4.5531725883483887e-01
            -8.2074993848800659e-01 9.2354536056518555e-01</leafValues></_></weakClassifiers></_>
    <!-- stage 8 -->
    <_>
      <maxWeakCount>8</maxWeakCount>
      <stageThreshold>-2.9223996400833130e-01</stageThreshold>
      <weakClassifiers>
        <_>
          <internalNodes>
            1 2 101 -3.8141357898712158e-01 0 -1 93
            2.3207596968859434e-03 -2 -3 133 9.8982471972703934e-03</internalNodes>
          <leafValues>
            -2.2580644488334656e-01 9.6219283342361450e-01
            -5.0537633895874023e-01 4.1786742210388184e-01</leafValues></_>
        <_>
          <internalNodes>
            1 2 32 1.1399413645267487e-01 0 -1 2 6.1706709675490856e-04
            -2 -3 227 1.7490137368440628e-02</internalNodes>
          <leafValues>
            1.8330723047256470e-01 -6.8395864963531494e-01
            -5.5362993478775024e-01 8.5789126157760620e-01</leafValues></_>
        <_>
          <internalNodes>
            1 2 178 1.5450972132384777e-02 0 -1 245
            2.0725748036056757e-03 -2 -3 10 9.0545728802680969e-02</internalNodes>
          <leafValues>
            -6.5235006809234619e-01 4.7463780641555786e-01
            6.2758588790893555e-01 -6.3927853107452393e-01</leafValues></_>
        <_>
          <internalNodes>
            1 2 52 5.8022281154990196e-03 0 -1 229
            -1.7933442723006010e-03 -2 -3 61 5.6606484577059746e-03</internalNodes>
          <leafValues>
            -8.3432668447494507e-01 7.0736519992351532e-02
            7.7921599149703979e-01 -4.1355249285697937e-01</leafValues></_>
        <_>
          <internalNodes>
            1 2 201 1.2080970918759704e-04 0 -1 239
            -8.2684191875159740e-04 -2 -3 180 7.2617158293724060e-03</internalNodes>
          <leafValues>
            5.8448505401611328e-01 -7.3588752746582031e-01
            6.7841571569442749e-01 -7.2401440143585205e-01</leafValues></_>
        <_>
          <internalNodes>
            1 2 257 1.4762736391276121e-03 0 -1 197
            4.9843511078506708e-04 -2 -3 108 9.8088823258876801e-02</internalNodes>
          <leafValues>
            -4.6217742562294006e-01 4.4037178158760071e-01
            -9.3781220912933350e-01 7.9592871665954590e-01</leafValues></_>
        <_>
          <internalNodes>
            1 2 193 4.2600306915119290e-04 0 -1 171
            6.7933680838905275e-05 -2 -3 17 1.2998841702938080e-03</internalNodes>
          <leafValues>
            -8.5386717319488525e-01 3.8708892464637756e-01
            4.8983213305473328e-01 -5.2439767122268677e-01</leafValues></_>
        <_>
          <internalNodes>
            1 2 172 4.3790740892291069e-04 0 -1 42
            -2.0391461439430714e-03 -2 -3 106 4.0649068541824818e-03</internalNodes>
          <leafValues>
            -7.7943098545074463e-01 5.0108098983764648e-01
            -6.9641250371932983e-01 3.2727730274200439e-01</leafValues></_></weakClassifiers></_>
    <!-- stage 9 -->
    <_>
      <maxWeakCount>9</maxWeakCount>
      <stageThreshold>-1.9169439375400543e-01</stageThreshold>
      <weakClassifiers>
        <_>
          <internalNodes>
            1 2 134 8.7957121431827545e-03 0 -1 144
            8.4176138043403625e-03 -2 -3 205 -4.6528242528438568e-03</internalNodes>
          <leafValues>
            7.6923079788684845e-02 -8.5826772451400757e-01
            -4.7572815418243408e-01 8.2790410518646240e-01</leafValues></_>
        <_>
          <internalNodes>
            1 2 9 8.9005410671234131e-02 0 -1 83 1.2139559257775545e-03
            -2 -3 182 -4.2697954922914505e-03</internalNodes>
          <leafValues>
            2.3374158143997192e-01 -6.7046386003494263e-01
            -8.6016589403152466e-01 8.6033856868743896e-01</leafValues></_>
        <_>
          <internalNodes>
            1 2 192 2.5739246979355812e-02 0 -1 219
            2.4004381150007248e-02 -2 -3 130 3.7900041788816452e-03</internalNodes>
          <leafValues>
            -5.7391226291656494e-01 8.0644404888153076e-01
            -6.6864413022994995e-01 7.7844190597534180e-01</leafValues></_>
        <_>
          <internalNodes>
            1 2 122 -4.0784823894500732e-01 0 -1 198
            9.2630379367619753e-04 -2 -3 222 2.7866852469742298e-03</internalNodes>
          <leafValues>
            -2.8502765297889709e-01 6.9350135326385498e-01
            -5.4992794990539551e-01 7.6945239305496216e-01</leafValues></_>
        <_>
          <internalNodes>
            1 2 114 6.0023111291229725e-03 0 -1 187
            7.3683224618434906e-03 -2 -3 26 -1.2380890548229218e-03</internalNodes>
          <leafValues>
            -6.2961655855178833e-01 1. -4.5595818758010864e-01
            5.7772791385650635e-01</leafValues></_>
        <_>
          <internalNodes>
            1 2 177 8.8407788425683975e-03 0 -1 181
            7.1147875860333443e-04 -2 -3 225 1.5712926164269447e-02</internalNodes>
          <leafValues>
            -3.1013467907905579e-01 5.1913368701934814e-01
            -8.8027024269104004e-01 1.</leafValues></_>
        <_>
          <internalNodes>
            1 2 155 -3.7156464532017708e-03 0 -1 35
            4.0324240922927856e-02 -2 -3 217 -1.2841773219406605e-02</internalNodes>
          <leafValues>
            -9.2931878566741943e-01 1. 4.6126520633697510e-01
            -4.0871787071228027e-01</leafValues></_>
        <_>
          <internalNodes>
            1 2 248 4.3546890083234757e-05 0 -1 246
            2.5603291578590870e-03 -2 -3 183 1.7895572818815708e-03</internalNodes>
          <leafValues>
            -5.0829839706420898e-01 4.8699414730072021e-01
            9.1215080022811890e-01 -6.4606314897537231e-01</leafValues></_>
        <_>
          <internalNodes>
            1 2 131 -2.1802409901283681e-04 0 -1 102
            -3.4992010332643986e-03 -2 -3 238 -1.2083043111488223e-04</internalNodes>
          <leafValues>
            -9.4724100828170776e-01 6.2277561426162720e-01
            4.1283854842185974e-01 -5.9858083724975586e-01</leafValues></_></weakClassifiers></_>
    <!-- stage 10 -->
    <_>
      <maxWeakCount>6</maxWeakCount>
      <stageThreshold>-1.4680826663970947e-01</stageThreshold>
      <weakClassifiers>
        <_>
          <internalNodes>
            1 2 75 2.3515734821557999e-02 0 -1 77 4.6524796634912491e-03
            -2 -3 89 -2.3984792828559875e-01</internalNodes>
          <leafValues>
            -6.2007170915603638e-01 6.1739128828048706e-01
            -9.0163934230804443e-01 8.7831717729568481e-01</leafValues></_>
        <_>
          <internalNodes>
            1 2 79 -1.4879193622618914e-03 0 -1 241
            -2.7383917942643166e-02 -2 -3 214 1.4033166691660881e-02</internalNodes>
          <leafValues>
            8.3380556106567383e-01 -8.2657915353775024e-01
            -4.0501806139945984e-01 8.2171207666397095e-01</leafValues></_>
        <_>
          <internalNodes>
            1 2 188 7.1297371760010719e-03 0 -1 203
            -6.1011193320155144e-03 -2 -3 36 8.0618597567081451e-03</internalNodes>
          <leafValues>
            8.4832710027694702e-01 -6.3904529809951782e-01
            -7.0342659950256348e-01 7.5661665201187134e-01</leafValues></_>
        <_>
          <internalNodes>
            1 2 22 1.1518828105181456e-03 0 -1 141
            2.2732937708497047e-02 -2 -3 14 -1.6870679100975394e-03</internalNodes>
          <leafValues>
            9.0909457206726074e-01 -3.7049391865730286e-01
            7.0986634492874146e-01 -7.1722519397735596e-01</leafValues></_>
        <_>
          <internalNodes>
            1 2 5 1.5425381716340780e-03 0 -1 240
            -2.3354599252343178e-03 -2 -3 208 -1.3570713996887207e-01</internalNodes>
          <leafValues>
            -8.6419689655303955e-01 6.9870775938034058e-01 1.
            -7.4859029054641724e-01</leafValues></_>
        <_>
          <internalNodes>
            1 2 115 2.1298602223396301e-03 0 -1 230
            -1.8700845248531550e-04 -2 -3 40 4.0566832758486271e-03</internalNodes>
          <leafValues>
            1. -9.0857511758804321e-01 5.6174331903457642e-01
            -8.4629535675048828e-01</leafValues></_></weakClassifiers></_></stages>
  <features>
    <_>
      <rects>
        <_>
          0 0 2 2 -1.</_>
        <_>
          1 0 1 2 2.</_></rects>
      <tilted>0</tilted></_>
    <_>
      <rects>
        <_>
          0 0 2 13 -1.</_>
        <_>
          1 0 1 13 2.</_></rects>
      <tilted>0</tilted></_>
    <_>
      <rects>
        <_>
          0 0 6 1 -1.</_>
        <_>
          3 0 3 1 2.</_></rects>
      <tilted>0</tilted></_>
    <_>
      <rects>
        <_>
          0 0 18 1 -1.</_>
        <_>
          6 0 6 1 3.</_></rects>
      <tilted>0</tilted></_>
    <_>
      <rects>
        <_>
          0 1 1 6 -1.</_>
        <_>
          0 4 1 3 2.</_></rects>
      <tilted>0</tilted></_>
    <_>
      <rects>
        <_>
          0 1 1 8 -1.</_>
        <_>
          0 5 1 4 2.</_></rects>
      <tilted>0</tilted></_>
    <_>
      <rects>
        <_>
          0 1 12 10 -1.</_>
        <_>
          0 1 6 5 2.</_>
        <_>
          6 6 6 5 2.</_></rects>
      <tilted>0</tilted></_>
    <_>
      <rects>
        <_>
          0 3 6 15 -1.</_>
        <_>
          2 3 2 15 3.</_></rects>
      <tilted>0</tilted></_>
    <_>
      <rects>
        <_>
          0 5 2 8 -1.</_>
        <_>
          1 5 1 8 2.</_></rects>
      <tilted>0</tilted></_>
    <_>
      <rects>
        <_>
          0 6 8 7 -1.</_>
        <_>
          4 6 4 7 2.</_></rects>
      <tilted>0</tilted></_>
    <_>
      <rects>
        <_>
          0 6 18 8 -1.</_>
        <_>
          0 6 9 4 2.</_>
        <_>
          9 10 9 4 2.</_></rects>
      <tilted>0</tilted></_>
    <_>
      <rects>
        <_>
          0 7 6 5 -1.</_>
        <_>
          3 7 3 5 2.</_></rects>
      <tilted>0</tilted></_>
    <_>
      <rects>
        <_>
          0 7 8 1 -1.</_>
        <_>
          4 7 4 1 2.</_></rects>
      <tilted>0</tilted></_>
    <_>
      <rects>
        <_>
          0 8 2 10 -1.</_>
        <_>
          0 8 1 5 2.</_>
        <_>
          1 13 1 5 2.</_></rects>
      <tilted>0</tilted></_>
    <_>
      <rects>
        <_>
          0 8 4 4 -1.</_>
        <_>
          0 8 2 2 2.</_>
        <_>
          2 10 2 2 2.</_></rects>
      <tilted>0</tilted></_>
    <_>
      <rects>
        <_>
          0 8 20 3 -1.</_>
        <_>
          10 8 10 3 2.</_></rects>
      <tilted>0</tilted></_>
    <_>
      <rects>
        <_>
          0 9 2 2 -1.</_>
        <_>
          0 10 2 1 2.</_></rects>
      <tilted>0</tilted></_>
    <_>
      <rects>
        <_>
          0 10 2 2 -1.</_>
        <_>
          0 11 2 1 2.</_></rects>
      <tilted>0</tilted></_>
    <_>
      <rects>
        <_>
          0 18 8 1 -1.</_>
        <_>
          4 18 4 1 2.</_></rects>
      <tilted>0</tilted></_>
    <_>
      <rects>
        <_>
          0 18 12 2 -1.</_>
        <_>
          6 18 6 2 2.</_></rects>
      <tilted>0</tilted></_>
    <_>
      <rects>
        <_>
          1 0 2 1 -1.</_>
        <_>
          2 0 1 1 2.</_></rects>
      <tilted>0</tilted></_>
    <_>
      <rects>
        <_>
          1 0 4 1 -1.</_>
        <_>
          3 0 2 1 2.</_></rects>
      <tilted>0</tilted></_>
    <_>
      <rects>
        <_>
          1 0 6 2 -1.</_>
        <_>
          4 0 3 2 2.</_></rects>
      <tilted>0</tilted></_>
    <_>
      <rects>
        <_>
          1 0 15 13 -1.</_>
        <_>
          6 0 5 13 3.</_></rects>
      <tilted>0</tilted></_>
    <_>
      <rects>
        <_>
          1 1 2 2 -1.</_>
        <_>
          1 1 1 1 2.</_>
        <_>
          2 2 1 1 2.</_></rects>
      <tilted>0</tilted></_>
    <_>
      <rects>
        <_>
          1 1 2 6 -1.</_>
        <_>
          1 4 2 3 2.</_></rects>
      <tilted>0</tilted></_>
    <_>
      <rects>
        <_>
          1 1 3 2 -1.</_>
        <_>
          1 2 3 1 2.</_></rects>
      <tilted>0</tilted></_>
    <_>
      <rects>
        <_>
          1 3 2 1 -1.</_>
        <_>
          2 3 1 1 2.</_></rects>
      <tilted>0</tilted></_>
    <_>
      <rects>
        <_>
          1 3 4 8 -1.</_>
        <_>
          1 3 2 4 2.</_>
        <_>
          3 7 2 4 2.</_></rects>
      <tilted>0</tilted></_>
    <_>
      <rects>
        <_>
          1 3 6 16 -1.</_>
        <_>
          3 3 2 16 3.</_></rects>
      <tilted>0</tilted></_>
    <_>
      <rects>
        <_>
          1 3 18 11 -1.</_>
        <_>
          7 3 6 11 3.</_></rects>
      <tilted>0</tilted></_>
    <_>
      <rects>
        <_>
          1 3 18 12 -1.</_>
        <_>
          7 3 6 12 3.</_></rects>
      <tilted>0</tilted></_>
    <_>
      <rects>
        <_>
          1 4 8 11 -1.</_>
        <_>
          5 4 4 11 2.</_></rects>
      <tilted>0</tilted></_>
    <_>
      <rects>
        <_>
          1 4 18 10 -1.</_>
        <_>
          7 4 6 10 3.</_></rects>
      <tilted>0</tilted></_>
    <_>
      <rects>
        <_>
          1 5 9 7 -1.</_>
        <_>
          4 5 3 7 3.</_></rects>
      <tilted>0</tilted></_>
    <_>
      <rects>
        <_>
          1 6 4 12 -1.</_>
        <_>
          3 6 2 12 2.</_></rects>
      <tilted>0</tilted></_>
    <_>
      <rects>
        <_>
          1 7 6 3 -1.</_>
        <_>
          3 7 2 3 3.</_></rects>
      <tilted>0</tilted></_>
    <_>
      <rects>
        <_>
          1 7 9 5 -1.</_>
        <_>
          4 7 3 5 3.</_></rects>
      <tilted>0</tilted></_>
    <_>
      <rects>
        <_>
          1 7 16 3 -1.</_>
        <_>
          1 8 16 1 3.</_></rects>
      <tilted>0</tilted></_>
    <_>
      <rects>
        <_>
          1 8 6 5 -1.</_>
        <_>
          4 8 3 5 2.</_></rects>
      <tilted>0</tilted></_>
    <_>
      <rects>
        <_>
          1 12 2 6 -1.</_>
        <_>
          2 12 1 6 2.</_></rects>
      <tilted>0</tilted></_>
    <_>
      <rects>
        <_>
          1 15 3 4 -1.</_>
        <_>
          2 15 1 4 3.</_></rects>
      <tilted>0</tilted></_>
    <_>
      <rects>
        <_>
          1 16 3 3 -1.</_>
        <_>
          2 16 1 3 3.</_></rects>
      <tilted>0</tilted></_>
    <_>
      <rects>
        <_>
          2 0 3 2 -1.</_>
        <_>
          3 0 1 2 3.</_></rects>
      <tilted>0</tilted></_>
    <_>
      <rects>
        <_>
          2 1 6 2 -1.</_>
        <_>
          5 1 3 2 2.</_></rects>
      <tilted>0</tilted></_>
    <_>
      <rects>
        <_>
          2 1 17 18 -1.</_>
        <_>
          2 7 17 6 3.</_></rects>
      <tilted>0</tilted></_>
    <_>
      <rects>
        <_>
          2 2 14 15 -1.</_>
        <_>
          2 7 14 5 3.</_></rects>
      <tilted>0</tilted></_>
    <_>
      <rects>
        <_>
          2 3 8 3 -1.</_>
        <_>
          6 3 4 3 2.</_></rects>
      <tilted>0</tilted></_>
    <_>
      <rects>
        <_>
          2 3 18 10 -1.</_>
        <_>
          8 3 6 10 3.</_></rects>
      <tilted>0</tilted></_>
    <_>
      <rects>
        <_>
          2 5 9 10 -1.</_>
        <_>
          5 5 3 10 3.</_></rects>
      <tilted>0</tilted></_>
    <_>
      <rects>
        <_>
          2 5 15 8 -1.</_>
        <_>
          7 5 5 8 3.</_></rects>
      <tilted>0</tilted></_>
    <_>
      <rects>
        <_>
          2 6 2 5 -1.</_>
        <_>
          3 6 1 5 2.</_></rects>
      <tilted>0</tilted></_>
    <_>
      <rects>
        <_>
          2 6 6 10 -1.</_>
        <_>
          4 6 2 10 3.</_></rects>
      <tilted>0</tilted></_>
    <_>
      <rects>
        <_>
          2 8 2 1 -1.</_>
        <_>
          3 8 1 1 2.</_></rects>
      <tilted>0</tilted></_>
    <_>
      <rects>
        <_>
          2 8 2 3 -1.</_>
        <_>
          3 8 1 3 2.</_></rects>
      <tilted>0</tilted></_>
    <_>
      <rects>
        <_>
          2 8 3 3 -1.</_>
        <_>
          3 8 1 3 3.</_></rects>
      <tilted>0</tilted></_>
    <_>
      <rects>
        <_>
          2 9 6 2 -1.</_>
        <_>
          4 9 2 2 3.</_></rects>
      <tilted>0</tilted></_>
    <_>
      <rects>
        <_>
          2 9 10 2 -1.</_>
        <_>
          7 9 5 2 2.</_></rects>
      <tilted>0</tilted></_>
    <_>
      <rects>
        <_>
          2 9 15 3 -1.</_>
        <_>
          2 10 15 1 3.</_></rects>
      <tilted>0</tilted></_>
    <_>
      <rects>
        <_>
          2 10 6 1 -1.</_>
        <_>
          4 10 2 1 3.</_></rects>
      <tilted>0</tilted></_>
    <_>
      <rects>
        <_>
          2 11 10 4 -1.</_>
        <_>
          2 13 10 2 2.</_></rects>
      <tilted>0</tilted></_>
    <_>
      <rects>
        <_>
          2 13 6 5 -1.</_>
        <_>
          4 13 2 5 3.</_></rects>
      <tilted>0</tilted></_>
    <_>
      <rects>
        <_>
          3 0 9 13 -1.</_>
        <_>
          6 0 3 13 3.</_></rects>
      <tilted>0</tilted></_>
    <_>
      <rects>
        <_>
          3 1 2 1 -1.</_>
        <_>
          4 1 1 1 2.</_></rects>
      <tilted>0</tilted></_>
    <_>
      <rects>
        <_>
          3 2 9 18 -1.</_>
        <_>
          6 2 3 18 3.</_></rects>
      <tilted>0</tilted></_>
    <_>
      <rects>
        <_>
          3 2 13 15 -1.</_>
        <_>
          3 7 13 5 3.</_></rects>
      <tilted>0</tilted></_>
    <_>
      <rects>
        <_>
          3 3 12 12 -1.</_>
        <_>
          7 3 4 12 3.</_></rects>
      <tilted>0</tilted></_>
    <_>
      <rects>
        <_>
          3 4 15 5 -1.</_>
        <_>
          8 4 5 5 3.</_></rects>
      <tilted>0</tilted></_>
    <_>
      <rects>
        <_>
          3 4 15 12 -1.</_>
        <_>
          3 8 15 4 3.</_></rects>
      <tilted>0</tilted></_>
    <_>
      <rects>
        <_>
          3 7 6 3 -1.</_>
        <_>
          3 8 6 1 3.</_></rects>
      <tilted>0</tilted></_>
    <_>
      <rects>
        <_>
          3 7 7 2 -1.</_>
        <_>
          3 8 7 1 2.</_></rects>
      <tilted>0</tilted></_>
    <_>
      <rects>
        <_>
          3 7 13 10 -1.</_>
        <_>
          3 12 13 5 2.</_></rects>
      <tilted>0</tilted></_>
    <_>
      <rects>
        <_>
          3 8 3 4 -1.</_>
        <_>
          4 8 1 4 3.</_></rects>
      <tilted>0</tilted></_>
    <_>
      <rects>
        <_>
          3 8 6 5 -1.</_>
        <_>
          5 8 2 5 3.</_></rects>
      <tilted>0</tilted></_>
    <_>
      <rects>
        <_>
          3 8 9 2 -1.</_>
        <_>
          3 9 9 1 2.</_></rects>
      <tilted>0</tilted></_>
    <_>
      <rects>
        <_>
          3 8 12 6 -1.</_>
        <_>
          3 10 12 2 3.</_></rects>
      <tilted>0</tilted></_>
    <_>
      <rects>
        <_>
          3 9 6 7 -1.</_>
        <_>
          5 9 2 7 3.</_></rects>
      <tilted>0</tilted></_>
    <_>
      <rects>
        <_>
          3 9 16 3 -1.</_>
        <_>
          3 10 16 1 3.</_></rects>
      <tilted>0</tilted></_>
    <_>
      <rects>
        <_>
          3 10 4 2 -1.</_>
        <_>
          3 10 2 1 2.</_>
        <_>
          5 11 2 1 2.</_></rects>
      <tilted>0</tilted></_>
    <_>
      <rects>
        <_>
          3 13 2 3 -1.</_>
        <_>
          4 13 1 3 2.</_></rects>
      <tilted>0</tilted></_>
    <_>
      <rects>
        <_>
          3 15 6 3 -1.</_>
        <_>
          5 15 2 3 3.</_></rects>
      <tilted>0</tilted></_>
    <_>
      <rects>
        <_>
          4 0 6 14 -1.</_>
        <_>
          6 0 2 14 3.</_></rects>
      <tilted>0</tilted></_>
    <_>
      <rects>
        <_>
          4 0 4 18 -1.</_>
        <_>
          4 6 4 6 3.</_></rects>
      <tilted>0</tilted></_>
    <_>
      <rects>
        <_>
          4 0 15 1 -1.</_>
        <_>
          9 0 5 1 3.</_></rects>
      <tilted>0</tilted></_>
    <_>
      <rects>
        <_>
          4 0 11 18 -1.</_>
        <_>
          4 6 11 6 3.</_></rects>
      <tilted>0</tilted></_>
    <_>
      <rects>
        <_>
          4 0 14 18 -1.</_>
        <_>
          4 6 14 6 3.</_></rects>
      <tilted>0</tilted></_>
    <_>
      <rects>
        <_>
          4 1 4 13 -1.</_>
        <_>
          6 1 2 13 2.</_></rects>
      <tilted>0</tilted></_>
    <_>
      <rects>
        <_>
          4 1 6 18 -1.</_>
        <_>
          6 1 2 18 3.</_></rects>
      <tilted>0</tilted></_>
    <_>
      <rects>
        <_>
          4 2 3 2 -1.</_>
        <_>
          4 3 3 1 2.</_></rects>
      <tilted>0</tilted></_>
    <_>
      <rects>
        <_>
          4 2 16 14 -1.</_>
        <_>
          4 2 8 7 2.</_>
        <_>
          12 9 8 7 2.</_></rects>
      <tilted>0</tilted></_>
    <_>
      <rects>
        <_>
          4 3 15 11 -1.</_>
        <_>
          9 3 5 11 3.</_></rects>
      <tilted>0</tilted></_>
    <_>
      <rects>
        <_>
          4 4 2 8 -1.</_>
        <_>
          5 4 1 8 2.</_></rects>
      <tilted>0</tilted></_>
    <_>
      <rects>
        <_>
          4 4 6 4 -1.</_>
        <_>
          7 4 3 4 2.</_></rects>
      <tilted>0</tilted></_>
    <_>
      <rects>
        <_>
          4 5 8 6 -1.</_>
        <_>
          4 8 8 3 2.</_></rects>
      <tilted>0</tilted></_>
    <_>
      <rects>
        <_>
          4 6 6 7 -1.</_>
        <_>
          6 6 2 7 3.</_></rects>
      <tilted>0</tilted></_>
    <_>
      <rects>
        <_>
          4 6 12 2 -1.</_>
        <_>
          8 6 4 2 3.</_></rects>
      <tilted>0</tilted></_>
    <_>
      <rects>
        <_>
          4 6 11 14 -1.</_>
        <_>
          4 13 11 7 2.</_></rects>
      <tilted>0</tilted></_>
    <_>
      <rects>
        <_>
          4 7 6 6 -1.</_>
        <_>
          6 7 2 6 3.</_></rects>
      <tilted>0</tilted></_>
    <_>
      <rects>
        <_>
          4 7 6 1 -1.</_>
        <_>
          7 7 3 1 2.</_></rects>
      <tilted>0</tilted></_>
    <_>
      <rects>
        <_>
          4 7 8 1 -1.</_>
        <_>
          8 7 4 1 2.</_></rects>
      <tilted>0</tilted></_>
    <_>
      <rects>
        <_>
          4 7 7 4 -1.</_>
        <_>
          4 9 7 2 2.</_></rects>
      <tilted>0</tilted></_>
    <_>
      <rects>
        <_>
          4 7 12 12 -1.</_>
        <_>
          4 13 12 6 2.</_></rects>
      <tilted>0</tilted></_>
    <_>
      <rects>
        <_>
          4 8 9 3 -1.</_>
        <_>
          7 8 3 3 3.</_></rects>
      <tilted>0</tilted></_>
    <_>
      <rects>
        <_>
          4 8 11 10 -1.</_>
        <_>
          4 13 11 5 2.</_></rects>
      <tilted>0</tilted></_>
    <_>
      <rects>
        <_>
          4 8 13 8 -1.</_>
        <_>
          4 12 13 4 2.</_></rects>
      <tilted>0</tilted></_>
    <_>
      <rects>
        <_>
          4 10 12 8 -1.</_>
        <_>
          4 14 12 4 2.</_></rects>
      <tilted>0</tilted></_>
    <_>
      <rects>
        <_>
          4 11 6 3 -1.</_>
        <_>
          4 12 6 1 3.</_></rects>
      <tilted>0</tilted></_>
    <_>
      <rects>
        <_>
          5 0 3 3 -1.</_>
        <_>
          6 0 1 3 3.</_></rects>
      <tilted>0</tilted></_>
    <_>
      <rects>
        <_>
          5 0 3 15 -1.</_>
        <_>
          5 5 3 5 3.</_></rects>
      <tilted>0</tilted></_>
    <_>
      <rects>
        <_>
          5 0 7 2 -1.</_>
        <_>
          5 1 7 1 2.</_></rects>
      <tilted>0</tilted></_>
    <_>
      <rects>
        <_>
          5 0 11 18 -1.</_>
        <_>
          5 6 11 6 3.</_></rects>
      <tilted>0</tilted></_>
    <_>
      <rects>
        <_>
          5 0 15 12 -1.</_>
        <_>
          5 4 15 4 3.</_></rects>
      <tilted>0</tilted></_>
    <_>
      <rects>
        <_>
          5 1 11 6 -1.</_>
        <_>
          5 4 11 3 2.</_></rects>
      <tilted>0</tilted></_>
    <_>
      <rects>
        <_>
          5 2 5 15 -1.</_>
        <_>
          5 7 5 5 3.</_></rects>
      <tilted>0</tilted></_>
    <_>
      <rects>
        <_>
          5 3 6 17 -1.</_>
        <_>
          7 3 2 17 3.</_></rects>
      <tilted>0</tilted></_>
    <_>
      <rects>
        <_>
          5 4 2 16 -1.</_>
        <_>
          6 4 1 16 2.</_></rects>
      <tilted>0</tilted></_>
    <_>
      <rects>
        <_>
          5 5 9 6 -1.</_>
        <_>
          8 5 3 6 3.</_></rects>
      <tilted>0</tilted></_>
    <_>
      <rects>
        <_>
          5 5 12 4 -1.</_>
        <_>
          9 5 4 4 3.</_></rects>
      <tilted>0</tilted></_>
    <_>
      <rects>
        <_>
          5 6 2 4 -1.</_>
        <_>
          5 6 1 2 2.</_>
        <_>
          6 8 1 2 2.</_></rects>
      <tilted>0</tilted></_>
    <_>
      <rects>
        <_>
          5 6 10 14 -1.</_>
        <_>
          5 13 10 7 2.</_></rects>
      <tilted>0</tilted></_>
    <_>
      <rects>
        <_>
          5 6 11 14 -1.</_>
        <_>
          5 13 11 7 2.</_></rects>
      <tilted>0</tilted></_>
    <_>
      <rects>
        <_>
          5 6 12 12 -1.</_>
        <_>
          5 12 12 6 2.</_></rects>
      <tilted>0</tilted></_>
    <_>
      <rects>
        <_>
          5 6 15 14 -1.</_>
        <_>
          5 13 15 7 2.</_></rects>
      <tilted>0</tilted></_>
    <_>
      <rects>
        <_>
          5 9 8 10 -1.</_>
        <_>
          5 14 8 5 2.</_></rects>
      <tilted>0</tilted></_>
    <_>
      <rects>
        <_>
          5 9 11 8 -1.</_>
        <_>
          5 13 11 4 2.</_></rects>
      <tilted>0</tilted></_>
    <_>
      <rects>
        <_>
          5 10 6 3 -1.</_>
        <_>
          7 10 2 3 3.</_></rects>
      <tilted>0</tilted></_>
    <_>
      <rects>
        <_>
          5 11 14 4 -1.</_>
        <_>
          5 13 14 2 2.</_></rects>
      <tilted>0</tilted></_>
    <_>
      <rects>
        <_>
          5 14 7 2 -1.</_>
        <_>
          5 15 7 1 2.</_></rects>
      <tilted>0</tilted></_>
    <_>
      <rects>
        <_>
          5 16 3 4 -1.</_>
        <_>
          6 16 1 4 3.</_></rects>
      <tilted>0</tilted></_>
    <_>
      <rects>
        <_>
          6 0 6 6 -1.</_>
        <_>
          6 3 6 3 2.</_></rects>
      <tilted>0</tilted></_>
    <_>
      <rects>
        <_>
          6 2 5 10 -1.</_>
        <_>
          6 7 5 5 2.</_></rects>
      <tilted>0</tilted></_>
    <_>
      <rects>
        <_>
          6 3 2 8 -1.</_>
        <_>
          6 3 1 4 2.</_>
        <_>
          7 7 1 4 2.</_></rects>
      <tilted>0</tilted></_>
    <_>
      <rects>
        <_>
          6 3 6 10 -1.</_>
        <_>
          8 3 2 10 3.</_></rects>
      <tilted>0</tilted></_>
    <_>
      <rects>
        <_>
          6 3 9 10 -1.</_>
        <_>
          9 3 3 10 3.</_></rects>
      <tilted>0</tilted></_>
    <_>
      <rects>
        <_>
          6 3 9 12 -1.</_>
        <_>
          9 3 3 12 3.</_></rects>
      <tilted>0</tilted></_>
    <_>
      <rects>
        <_>
          6 6 6 8 -1.</_>
        <_>
          8 6 2 8 3.</_></rects>
      <tilted>0</tilted></_>
    <_>
      <rects>
        <_>
          6 6 12 9 -1.</_>
        <_>
          10 6 4 9 3.</_></rects>
      <tilted>0</tilted></_>
    <_>
      <rects>
        <_>
          6 6 5 4 -1.</_>
        <_>
          6 8 5 2 2.</_></rects>
      <tilted>0</tilted></_>
    <_>
      <rects>
        <_>
          6 7 6 3 -1.</_>
        <_>
          8 7 2 3 3.</_></rects>
      <tilted>0</tilted></_>
    <_>
      <rects>
        <_>
          6 9 6 1 -1.</_>
        <_>
          9 9 3 1 2.</_></rects>
      <tilted>0</tilted></_>
    <_>
      <rects>
        <_>
          6 10 2 3 -1.</_>
        <_>
          6 11 2 1 3.</_></rects>
      <tilted>0</tilted></_>
    <_>
      <rects>
        <_>
          6 14 8 5 -1.</_>
        <_>
          10 14 4 5 2.</_></rects>
      <tilted>0</tilted></_>
    <_>
      <rects>
        <_>
          7 2 4 6 -1.</_>
        <_>
          7 2 2 3 2.</_>
        <_>
          9 5 2 3 2.</_></rects>
      <tilted>0</tilted></_>
    <_>
      <rects>
        <_>
          7 3 2 7 -1.</_>
        <_>
          8 3 1 7 2.</_></rects>
      <tilted>0</tilted></_>
    <_>
      <rects>
        <_>
          7 4 1 8 -1.</_>
        <_>
          7 8 1 4 2.</_></rects>
      <tilted>0</tilted></_>
    <_>
      <rects>
        <_>
          7 5 7 10 -1.</_>
        <_>
          7 10 7 5 2.</_></rects>
      <tilted>0</tilted></_>
    <_>
      <rects>
        <_>
          7 6 9 6 -1.</_>
        <_>
          10 6 3 6 3.</_></rects>
      <tilted>0</tilted></_>
    <_>
      <rects>
        <_>
          7 6 8 4 -1.</_>
        <_>
          11 6 4 4 2.</_></rects>
      <tilted>0</tilted></_>
    <_>
      <rects>
        <_>
          7 6 9 6 -1.</_>
        <_>
          7 9 9 3 2.</_></rects>
      <tilted>0</tilted></_>
    <_>
      <rects>
        <_>
          7 7 3 2 -1.</_>
        <_>
          8 7 1 2 3.</_></rects>
      <tilted>0</tilted></_>
    <_>
      <rects>
        <_>
          7 7 6 3 -1.</_>
        <_>
          9 7 2 3 3.</_></rects>
      <tilted>0</tilted></_>
    <_>
      <rects>
        <_>
          7 7 6 2 -1.</_>
        <_>
          10 7 3 2 2.</_></rects>
      <tilted>0</tilted></_>
    <_>
      <rects>
        <_>
          7 7 5 2 -1.</_>
        <_>
          7 8 5 1 2.</_></rects>
      <tilted>0</tilted></_>
    <_>
      <rects>
        <_>
          7 8 2 2 -1.</_>
        <_>
          8 8 1 2 2.</_></rects>
      <tilted>0</tilted></_>
    <_>
      <rects>
        <_>
          7 8 3 4 -1.</_>
        <_>
          7 10 3 2 2.</_></rects>
      <tilted>0</tilted></_>
    <_>
      <rects>
        <_>
          7 9 6 4 -1.</_>
        <_>
          9 9 2 4 3.</_></rects>
      <tilted>0</tilted></_>
    <_>
      <rects>
        <_>
          7 9 6 8 -1.</_>
        <_>
          7 13 6 4 2.</_></rects>
      <tilted>0</tilted></_>
    <_>
      <rects>
        <_>
          7 13 7 6 -1.</_>
        <_>
          7 15 7 2 3.</_></rects>
      <tilted>0</tilted></_>
    <_>
      <rects>
        <_>
          8 4 3 3 -1.</_>
        <_>
          8 5 3 1 3.</_></rects>
      <tilted>0</tilted></_>
    <_>
      <rects>
        <_>
          8 4 3 10 -1.</_>
        <_>
          8 9 3 5 2.</_></rects>
      <tilted>0</tilted></_>
    <_>
      <rects>
        <_>
          8 4 4 4 -1.</_>
        <_>
          8 6 4 2 2.</_></rects>
      <tilted>0</tilted></_>
    <_>
      <rects>
        <_>
          8 4 7 12 -1.</_>
        <_>
          8 8 7 4 3.</_></rects>
      <tilted>0</tilted></_>
    <_>
      <rects>
        <_>
          8 4 12 3 -1.</_>
        <_>
          8 5 12 1 3.</_></rects>
      <tilted>0</tilted></_>
    <_>
      <rects>
        <_>
          8 5 10 9 -1.</_>
        <_>
          13 5 5 9 2.</_></rects>
      <tilted>0</tilted></_>
    <_>
      <rects>
        <_>
          8 6 4 3 -1.</_>
        <_>
          8 7 4 1 3.</_></rects>
      <tilted>0</tilted></_>
    <_>
      <rects>
        <_>
          8 7 2 4 -1.</_>
        <_>
          8 9 2 2 2.</_></rects>
      <tilted>0</tilted></_>
    <_>
      <rects>
        <_>
          8 7 4 3 -1.</_>
        <_>
          10 7 2 3 2.</_></rects>
      <tilted>0</tilted></_>
    <_>
      <rects>
        <_>
          8 8 6 6 -1.</_>
        <_>
          10 8 2 6 3.</_></rects>
      <tilted>0</tilted></_>
    <_>
      <rects>
        <_>
          8 8 3 2 -1.</_>
        <_>
          8 9 3 1 2.</_></rects>
      <tilted>0</tilted></_>
    <_>
      <rects>
        <_>
          8 8 3 4 -1.</_>
        <_>
          8 10 3 2 2.</_></rects>
      <tilted>0</tilted></_>
    <_>
      <rects>
        <_>
          8 9 3 4 -1.</_>
        <_>
          8 11 3 2 2.</_></rects>
      <tilted>0</tilted></_>
    <_>
      <rects>
        <_>
          8 10 4 2 -1.</_>
        <_>
          8 11 4 1 2.</_></rects>
      <tilted>0</tilted></_>
    <_>
      <rects>
        <_>
          9 0 9 1 -1.</_>
        <_>
          12 0 3 1 3.</_></rects>
      <tilted>0</tilted></_>
    <_>
      <rects>
        <_>
          9 1 2 6 -1.</_>
        <_>
          10 1 1 6 2.</_></rects>
      <tilted>0</tilted></_>
    <_>
      <rects>
        <_>
          9 4 9 8 -1.</_>
        <_>
          12 4 3 8 3.</_></rects>
      <tilted>0</tilted></_>
    <_>
      <rects>
        <_>
          9 5 9 8 -1.</_>
        <_>
          12 5 3 8 3.</_></rects>
      <tilted>0</tilted></_>
    <_>
      <rects>
        <_>
          9 6 2 4 -1.</_>
        <_>
          9 8 2 2 2.</_></rects>
      <tilted>0</tilted></_>
    <_>
      <rects>
        <_>
          9 6 3 4 -1.</_>
        <_>
          9 8 3 2 2.</_></rects>
      <tilted>0</tilted></_>
    <_>
      <rects>
        <_>
          9 6 9 10 -1.</_>
        <_>
          12 6 3 10 3.</_></rects>
      <tilted>0</tilted></_>
    <_>
      <rects>
        <_>
          9 7 2 4 -1.</_>
        <_>
          9 9 2 2 2.</_></rects>
      <tilted>0</tilted></_>
    <_>
      <rects>
        <_>
          9 7 3 4 -1.</_>
        <_>
          9 9 3 2 2.</_></rects>
      <tilted>0</tilted></_>
    <_>
      <rects>
        <_>
          9 7 7 2 -1.</_>
        <_>
          9 8 7 1 2.</_></rects>
      <tilted>0</tilted></_>
    <_>
      <rects>
        <_>
          9 8 4 2 -1.</_>
        <_>
          11 8 2 2 2.</_></rects>
      <tilted>0</tilted></_>
    <_>
      <rects>
        <_>
          9 9 4 2 -1.</_>
        <_>
          11 9 2 2 2.</_></rects>
      <tilted>0</tilted></_>
    <_>
      <rects>
        <_>
          9 9 2 6 -1.</_>
        <_>
          9 11 2 2 3.</_></rects>
      <tilted>0</tilted></_>
    <_>
      <rects>
        <_>
          9 9 5 4 -1.</_>
        <_>
          9 11 5 2 2.</_></rects>
      <tilted>0</tilted></_>
    <_>
      <rects>
        <_>
          9 11 4 3 -1.</_>
        <_>
          9 12 4 1 3.</_></rects>
      <tilted>0</tilted></_>
    <_>
      <rects>
        <_>
          9 12 3 3 -1.</_>
        <_>
          9 13 3 1 3.</_></rects>
      <tilted>0</tilted></_>
    <_>
      <rects>
        <_>
          10 0 8 4 -1.</_>
        <_>
          14 0 4 4 2.</_></rects>
      <tilted>0</tilted></_>
    <_>
      <rects>
        <_>
          10 2 6 6 -1.</_>
        <_>
          12 2 2 6 3.</_></rects>
      <tilted>0</tilted></_>
    <_>
      <rects>
        <_>
          10 4 6 6 -1.</_>
        <_>
          10 4 3 3 2.</_>
        <_>
          13 7 3 3 2.</_></rects>
      <tilted>0</tilted></_>
    <_>
      <rects>
        <_>
          10 5 9 2 -1.</_>
        <_>
          13 5 3 2 3.</_></rects>
      <tilted>0</tilted></_>
    <_>
      <rects>
        <_>
          10 5 9 7 -1.</_>
        <_>
          13 5 3 7 3.</_></rects>
      <tilted>0</tilted></_>
    <_>
      <rects>
        <_>
          10 6 2 4 -1.</_>
        <_>
          10 8 2 2 2.</_></rects>
      <tilted>0</tilted></_>
    <_>
      <rects>
        <_>
          10 6 7 14 -1.</_>
        <_>
          10 13 7 7 2.</_></rects>
      <tilted>0</tilted></_>
    <_>
      <rects>
        <_>
          10 7 2 4 -1.</_>
        <_>
          11 7 1 4 2.</_></rects>
      <tilted>0</tilted></_>
    <_>
      <rects>
        <_>
          10 7 2 4 -1.</_>
        <_>
          10 9 2 2 2.</_></rects>
      <tilted>0</tilted></_>
    <_>
      <rects>
        <_>
          10 7 6 5 -1.</_>
        <_>
          12 7 2 5 3.</_></rects>
      <tilted>0</tilted></_>
    <_>
      <rects>
        <_>
          10 7 6 8 -1.</_>
        <_>
          12 7 2 8 3.</_></rects>
      <tilted>0</tilted></_>
    <_>
      <rects>
        <_>
          10 7 3 2 -1.</_>
        <_>
          10 8 3 1 2.</_></rects>
      <tilted>0</tilted></_>
    <_>
      <rects>
        <_>
          10 7 6 2 -1.</_>
        <_>
          10 8 6 1 2.</_></rects>
      <tilted>0</tilted></_>
    <_>
      <rects>
        <_>
          10 8 3 2 -1.</_>
        <_>
          10 9 3 1 2.</_></rects>
      <tilted>0</tilted></_>
    <_>
      <rects>
        <_>
          10 8 9 4 -1.</_>
        <_>
          13 8 3 4 3.</_></rects>
      <tilted>0</tilted></_>
    <_>
      <rects>
        <_>
          10 9 6 6 -1.</_>
        <_>
          10 12 6 3 2.</_></rects>
      <tilted>0</tilted></_>
    <_>
      <rects>
        <_>
          11 0 8 8 -1.</_>
        <_>
          11 0 4 4 2.</_>
        <_>
          15 4 4 4 2.</_></rects>
      <tilted>0</tilted></_>
    <_>
      <rects>
        <_>
          11 3 2 7 -1.</_>
        <_>
          12 3 1 7 2.</_></rects>
      <tilted>0</tilted></_>
    <_>
      <rects>
        <_>
          11 3 4 8 -1.</_>
        <_>
          11 3 2 4 2.</_>
        <_>
          13 7 2 4 2.</_></rects>
      <tilted>0</tilted></_>
    <_>
      <rects>
        <_>
          11 3 4 9 -1.</_>
        <_>
          11 6 4 3 3.</_></rects>
      <tilted>0</tilted></_>
    <_>
      <rects>
        <_>
          11 3 8 12 -1.</_>
        <_>
          15 3 4 12 2.</_></rects>
      <tilted>0</tilted></_>
    <_>
      <rects>
        <_>
          11 4 4 6 -1.</_>
        <_>
          11 4 2 3 2.</_>
        <_>
          13 7 2 3 2.</_></rects>
      <tilted>0</tilted></_>
    <_>
      <rects>
        <_>
          11 5 3 11 -1.</_>
        <_>
          12 5 1 11 3.</_></rects>
      <tilted>0</tilted></_>
    <_>
      <rects>
        <_>
          11 6 6 7 -1.</_>
        <_>
          13 6 2 7 3.</_></rects>
      <tilted>0</tilted></_>
    <_>
      <rects>
        <_>
          11 6 4 14 -1.</_>
        <_>
          11 13 4 7 2.</_></rects>
      <tilted>0</tilted></_>
    <_>
      <rects>
        <_>
          11 7 6 6 -1.</_>
        <_>
          13 7 2 6 3.</_></rects>
      <tilted>0</tilted></_>
    <_>
      <rects>
        <_>
          11 7 8 12 -1.</_>
        <_>
          11 7 4 6 2.</_>
        <_>
          15 13 4 6 2.</_></rects>
      <tilted>0</tilted></_>
    <_>
      <rects>
        <_>
          11 9 6 5 -1.</_>
        <_>
          13 9 2 5 3.</_></rects>
      <tilted>0</tilted></_>
    <_>
      <rects>
        <_>
          12 1 6 12 -1.</_>
        <_>
          15 1 3 12 2.</_></rects>
      <tilted>0</tilted></_>
    <_>
      <rects>
        <_>
          12 1 8 10 -1.</_>
        <_>
          12 1 4 5 2.</_>
        <_>
          16 6 4 5 2.</_></rects>
      <tilted>0</tilted></_>
    <_>
      <rects>
        <_>
          12 1 5 15 -1.</_>
        <_>
          12 6 5 5 3.</_></rects>
      <tilted>0</tilted></_>
    <_>
      <rects>
        <_>
          12 7 4 8 -1.</_>
        <_>
          12 7 2 4 2.</_>
        <_>
          14 11 2 4 2.</_></rects>
      <tilted>0</tilted></_>
    <_>
      <rects>
        <_>
          12 8 2 2 -1.</_>
        <_>
          12 8 1 1 2.</_>
        <_>
          13 9 1 1 2.</_></rects>
      <tilted>0</tilted></_>
    <_>
      <rects>
        <_>
          12 9 1 3 -1.</_>
        <_>
          12 10 1 1 3.</_></rects>
      <tilted>0</tilted></_>
    <_>
      <rects>
        <_>
          12 9 5 8 -1.</_>
        <_>
          12 13 5 4 2.</_></rects>
      <tilted>0</tilted></_>
    <_>
      <rects>
        <_>
          12 10 6 1 -1.</_>
        <_>
          14 10 2 1 3.</_></rects>
      <tilted>0</tilted></_>
    <_>
      <rects>
        <_>
          12 10 7 6 -1.</_>
        <_>
          12 12 7 2 3.</_></rects>
      <tilted>0</tilted></_>
    <_>
      <rects>
        <_>
          12 11 5 9 -1.</_>
        <_>
          12 14 5 3 3.</_></rects>
      <tilted>0</tilted></_>
    <_>
      <rects>
        <_>
          12 17 3 3 -1.</_>
        <_>
          13 17 1 3 3.</_></rects>
      <tilted>0</tilted></_>
    <_>
      <rects>
        <_>
          13 0 1 18 -1.</_>
        <_>
          13 6 1 6 3.</_></rects>
      <tilted>0</tilted></_>
    <_>
      <rects>
        <_>
          13 3 6 10 -1.</_>
        <_>
          16 3 3 10 2.</_></rects>
      <tilted>0</tilted></_>
    <_>
      <rects>
        <_>
          13 6 2 4 -1.</_>
        <_>
          14 6 1 4 2.</_></rects>
      <tilted>0</tilted></_>
    <_>
      <rects>
        <_>
          13 8 3 1 -1.</_>
        <_>
          14 8 1 1 3.</_></rects>
      <tilted>0</tilted></_>
    <_>
      <rects>
        <_>
          13 8 6 4 -1.</_>
        <_>
          15 8 2 4 3.</_></rects>
      <tilted>0</tilted></_>
    <_>
      <rects>
        <_>
          13 10 5 9 -1.</_>
        <_>
          13 13 5 3 3.</_></rects>
      <tilted>0</tilted></_>
    <_>
      <rects>
        <_>
          14 1 4 1 -1.</_>
        <_>
          16 1 2 1 2.</_></rects>
      <tilted>0</tilted></_>
    <_>
      <rects>
        <_>
          14 1 4 3 -1.</_>
        <_>
          16 1 2 3 2.</_></rects>
      <tilted>0</tilted></_>
    <_>
      <rects>
        <_>
          14 2 6 11 -1.</_>
        <_>
          16 2 2 11 3.</_></rects>
      <tilted>0</tilted></_>
    <_>
      <rects>
        <_>
          14 4 3 6 -1.</_>
        <_>
          14 7 3 3 2.</_></rects>
      <tilted>0</tilted></_>
    <_>
      <rects>
        <_>
          14 4 6 14 -1.</_>
        <_>
          14 4 3 7 2.</_>
        <_>
          17 11 3 7 2.</_></rects>
      <tilted>0</tilted></_>
    <_>
      <rects>
        <_>
          14 5 1 2 -1.</_>
        <_>
          14 6 1 1 2.</_></rects>
      <tilted>0</tilted></_>
    <_>
      <rects>
        <_>
          14 6 1 6 -1.</_>
        <_>
          14 8 1 2 3.</_></rects>
      <tilted>0</tilted></_>
    <_>
      <rects>
        <_>
          14 6 3 2 -1.</_>
        <_>
          14 7 3 1 2.</_></rects>
      <tilted>0</tilted></_>
    <_>
      <rects>
        <_>
          14 7 4 6 -1.</_>
        <_>
          16 7 2 6 2.</_></rects>
      <tilted>0</tilted></_>
    <_>
      <rects>
        <_>
          14 7 6 3 -1.</_>
        <_>
          17 7 3 3 2.</_></rects>
      <tilted>0</tilted></_>
    <_>
      <rects>
        <_>
          14 7 6 8 -1.</_>
        <_>
          17 7 3 8 2.</_></rects>
      <tilted>0</tilted></_>
    <_>
      <rects>
        <_>
          15 1 4 2 -1.</_>
        <_>
          17 1 2 2 2.</_></rects>
      <tilted>0</tilted></_>
    <_>
      <rects>
        <_>
          15 4 4 8 -1.</_>
        <_>
          17 4 2 8 2.</_></rects>
      <tilted>0</tilted></_>
    <_>
      <rects>
        <_>
          15 5 3 6 -1.</_>
        <_>
          16 5 1 6 3.</_></rects>
      <tilted>0</tilted></_>
    <_>
      <rects>
        <_>
          15 6 4 7 -1.</_>
        <_>
          17 6 2 7 2.</_></rects>
      <tilted>0</tilted></_>
    <_>
      <rects>
        <_>
          15 7 2 1 -1.</_>
        <_>
          16 7 1 1 2.</_></rects>
      <tilted>0</tilted></_>
    <_>
      <rects>
        <_>
          15 8 3 3 -1.</_>
        <_>
          16 8 1 3 3.</_></rects>
      <tilted>0</tilted></_>
    <_>
      <rects>
        <_>
          16 5 4 14 -1.</_>
        <_>
          16 5 2 7 2.</_>
        <_>
          18 12 2 7 2.</_></rects>
      <tilted>0</tilted></_>
    <_>
      <rects>
        <_>
          16 6 4 10 -1.</_>
        <_>
          16 6 2 5 2.</_>
        <_>
          18 11 2 5 2.</_></rects>
      <tilted>0</tilted></_>
    <_>
      <rects>
        <_>
          16 6 2 14 -1.</_>
        <_>
          16 13 2 7 2.</_></rects>
      <tilted>0</tilted></_>
    <_>
      <rects>
        <_>
          16 7 4 3 -1.</_>
        <_>
          18 7 2 3 2.</_></rects>
      <tilted>0</tilted></_>
    <_>
      <rects>
        <_>
          16 7 4 4 -1.</_>
        <_>
          18 7 2 4 2.</_></rects>
      <tilted>0</tilted></_>
    <_>
      <rects>
        <_>
          16 10 2 2 -1.</_>
        <_>
          17 10 1 2 2.</_></rects>
      <tilted>0</tilted></_>
    <_>
      <rects>
        <_>
          16 15 3 4 -1.</_>
        <_>
          17 15 1 4 3.</_></rects>
      <tilted>0</tilted></_>
    <_>
      <rects>
        <_>
          17 0 3 2 -1.</_>
        <_>
          18 0 1 2 3.</_></rects>
      <tilted>0</tilted></_>
    <_>
      <rects>
        <_>
          17 1 2 13 -1.</_>
        <_>
          18 1 1 13 2.</_></rects>
      <tilted>0</tilted></_>
    <_>
      <rects>
        <_>
          17 8 2 4 -1.</_>
        <_>
          18 8 1 4 2.</_></rects>
      <tilted>0</tilted></_>
    <_>
      <rects>
        <_>
          17 9 2 3 -1.</_>
        <_>
          18 9 1 3 2.</_></rects>
      <tilted>0</tilted></_>
    <_>
      <rects>
        <_>
          17 12 3 8 -1.</_>
        <_>
          18 12 1 8 3.</_></rects>
      <tilted>0</tilted></_>
    <_>
      <rects>
        <_>
          18 0 2 4 -1.</_>
        <_>
          18 0 1 2 2.</_>
        <_>
          19 2 1 2 2.</_></rects>
      <tilted>0</tilted></_>
    <_>
      <rects>
        <_>
          18 2 2 10 -1.</_>
        <_>
          18 7 2 5 2.</_></rects>
      <tilted>0</tilted></_>
    <_>
      <rects>
        <_>
          18 5 2 14 -1.</_>
        <_>
          18 5 1 7 2.</_>
        <_>
          19 12 1 7 2.</_></rects>
      <tilted>0</tilted></_>
    <_>
      <rects>
        <_>
          18 6 2 2 -1.</_>
        <_>
          19 6 1 2 2.</_></rects>
      <tilted>0</tilted></_>
    <_>
      <rects>
        <_>
          18 6 2 13 -1.</_>
        <_>
          19 6 1 13 2.</_></rects>
      <tilted>0</tilted></_>
    <_>
      <rects>
        <_>
          18 8 2 6 -1.</_>
        <_>
          19 8 1 6 2.</_></rects>
      <tilted>0</tilted></_></features></cascade>
</opencv_storage>
